SVM-light Version V5.01-TK-1.2
5 # kernel type
3 # kernel parameter -d 
1 # kernel parameter -g 
1 # kernel parameter -s 
1 # kernel parameter -r 
empty# kernel parameter -u 
0.4 # kernel parameter -L 
1 # kernel parameter -T 
T # kernel parameter -C 
1 # kernel parameter -F 
1 # kernel parameter -S 
1.000000 # kernel parameter -D 
3 # kernel parameter -N 
S # kernel parameter -V 
S # kernel parameter -W 
0 # highest feature index 
689 # number of training documents 
322 # number of support vectors plus 1 
0.83208011 # threshold b, each following line is a SV (starting with alpha*y)
-0.13510971798699017432099367397313  |BT| (VP (VBD said)(SBAR (-NONE- 0)(S (NP-SBJ (NNS shareholders))(VP (VBD approved)(NP (NP (PRP$ its)(NN acquisition))(PP (IN by)(NP (NP (NNP Royal)(NNP Trustco)(NNP Ltd.))(PP (IN of)(NP (NNP Toronto)))))(PP (IN for)(NP (NP (NP ($ $)(CD 27)(-NONE- *U*))(NP-ADV (DT a)(NN share)))(, ,)(CC or)(NP (QP ($ $)(CD 212)(CD million))(-NONE- *U*))))))))) |ET| 
-0.58970799293021469722475558228325  |BT| (SINV (S-TPC-1 (PP (RB Even)(IN without)(NP (DT a)(NN specific)(NN takeover)(NN threat)))(, ,)(NP-SBJ (NNP Courtaulds))(VP (VBZ is)(VP (VBG giving)(NP (NNS shareholders))(`` ``)(NP (NN choice)(CC and)(NN value))(, ,)('' ''))))(VP (VBD said)(SBAR (-NONE- 0)(S (-NONE- *T*-1))))(NP-SBJ (NP (NNP Julia)(NNP Blake))(, ,)(NP (NP (DT an)(NN analyst))(PP-LOC (IN at)(NP (NNP London)(NNS stockbrokers)(NNP Barclays)(IN de)(NNP Zoete)(NNP Wedd)))))(. .)) |ET| 
-0.025802625246398133707081967713748  |BT| (VP (VBZ expects)(S (NP-SBJ (-NONE- *-1))(VP (TO to)(VP (VP (VB obtain)(NP (JJ regulatory)(NN approval)))(CC and)(VP (VB complete)(NP (DT the)(NN transaction)))(PP-TMP (IN by)(NP (NN year-end))))))) |ET| 
1  |BT| (VP (VBN left)(S (NP-SBJ (NNP Magna))(PP-PRD (IN with)(NP (NP (JJ excess)(NN capacity))(CC and)(NP (DT a)(JJ heavy)(NN debt)(NN load)))))(SBAR-TMP (IN as)(S (NP-SBJ (DT the)(JJ automotive)(NN industry))(VP (VBZ enters)(NP (DT a)(NN downturn)))))) |ET| 
1  |BT| (VP (ADVP-MNR (RB personally))(VB direct)(NP (DT the)(NN restructuring))(, ,)(S-ADV (NP-SBJ-2 (-NONE- *-1))(VP (VBN assisted)(NP (-NONE- *-2))(PP (IN by)(NP-LGS (NP (NNP Manfred)(NNP Gingl))(, ,)(NP (NP (NN president))(CC and)(NP (NN chief)(NN executive)))))))) |ET| 
1  |BT| (VP (VBD helped)(S (NP-SBJ (DT the)(NN company))(VP (VB keep)(S (NP-SBJ (PRP$ its)(NN tax)(NN outlay))(ADJP-PRD (JJ flat))(ADVP (JJ relative)(PP (TO to)(NP (NNS earnings)(NN growth)))))))) |ET| 
1  |BT| (VP (VBN merged)(NP (-NONE- *-1))(PP-CLR (IN into)(NP (NP (NNP Primerica)(NNP Corp.))(, ,)(NP-LOC (NNP New)(NNP York))(, ,)))(SBAR-TMP (IN after)(S (NP-SBJ (NP (DT a)(JJ special)(NN meeting))(PP (IN of)(NP (NNP Williams)(NNS shareholders))))(VP (VBD cleared)(NP (DT the)(NN transaction)))))) |ET| 
1  |BT| (VP (VBG running)(S-ADV (NP-SBJ (-NONE- *-1))(VP (JJ scared)))) |ET| 
-1  |BT| (VP (VBD helped)(S (NP-SBJ (DT the)(NN company))(VP (VB keep)(S (NP-SBJ (PRP$ its)(NN tax)(NN outlay))(ADJP-PRD (JJ flat))(ADVP (JJ relative)(PP (TO to)(NP (NNS earnings)(NN growth)))))))) |ET| 
1  |BT| (VP (VBD said)(SBAR (-NONE- 0)(S (NP-SBJ-1 (PRP it))(`` ``)(VP (VBZ intends)(S (NP-SBJ (-NONE- *-1))(VP (TO to)(VP (VB seek)(NP (NP (NN control))('' '')(PP (IN of)(NP (NP (JJ 30%-owned)(NNP Innopac)(NNP Inc.))(, ,)(NP (DT a)(NNP Toronto)(NN packaging)(NN concern)))))))))))) |ET| 
-0.16775812646898893842895006400795  |BT| (VP (VBZ adds)(: :)(S (`` ``)(NP-SBJ (PRP$ Our)(NN fund))(VP (VBZ has)(VP (VBN had)(NP (PRN (-LRB- -LCB-)(ADJP (JJ positive))(-RRB- -RCB-))(JJ net)(NNS sales))(NP-TMP (NP (DT every)(NN month))(PP (IN for)(NP (DT the)(JJ last)(CD three)(NNS years)))(: --)(PP (IN until)(NP (DT this)(NN month)))))))) |ET| 
-0.83793403237841190822621229017386  |BT| (VP (VBD said)(SBAR (-NONE- 0)(S (NP-SBJ-1 (NNP Mr.)(NNP Stronach))(VP (MD will)(VP (ADVP-MNR (RB personally))(VB direct)(NP (DT the)(NN restructuring))(, ,)(S-ADV (NP-SBJ-2 (-NONE- *-1))(VP (VBN assisted)(NP (-NONE- *-2))(PP (IN by)(NP-LGS (NP (NNP Manfred)(NNP Gingl))(, ,)(NP (NP (NN president))(CC and)(NP (NN chief)(NN executive)))))))))))) |ET| 
1  |BT| (S (PP (IN As)(NP (NP (NN part))(PP (IN of)(NP (DT the)(NN agreement)))))(, ,)(NP-SBJ (NNP Cilcorp))(VP (VBD said)(SBAR (-NONE- 0)(S (NP-SBJ (PRP it))(VP (MD will)(VP (VB pay)(NP (NNP Hunter))(NP (QP ($ $)(CD 4)(CD million))(-NONE- *U*))(PP (IN in)(NP (NP (NN exchange))(PP (IN for)(NP (NNS agreements)(S (NP-SBJ (-NONE- *))(RB not)(VP (TO to)(VP (VB compete)))))))))))))(. .)) |ET| 
-0.36981210429409527851163375089527  |BT| (VP (VBD said)(SBAR (-NONE- 0)(S (NP-SBJ (PRP it))(VP (MD will)(VP (VB pay)(NP (NNP Hunter))(NP (QP ($ $)(CD 4)(CD million))(-NONE- *U*))(PP (IN in)(NP (NP (NN exchange))(PP (IN for)(NP (NNS agreements)(S (NP-SBJ (-NONE- *))(RB not)(VP (TO to)(VP (VB compete))))))))))))) |ET| 
-0.71004566609127606202633842258365  |BT| (S (S-TPC-2 (NP-SBJ-1 (NNP A.L.)(NNP Williams)(NNP Corp.))(VP (VBD was)(VP (VBN merged)(NP (-NONE- *-1))(PP-CLR (IN into)(NP (NP (NNP Primerica)(NNP Corp.))(, ,)(NP-LOC (NNP New)(NNP York))(, ,)))(SBAR-TMP (IN after)(S (NP-SBJ (NP (DT a)(JJ special)(NN meeting))(PP (IN of)(NP (NNP Williams)(NNS shareholders))))(VP (VBD cleared)(NP (DT the)(NN transaction))))))))(, ,)(NP-SBJ (DT the)(NNS companies))(VP (VBD said)(SBAR (-NONE- 0)(S (-NONE- *T*-2))))(. .)) |ET| 
1  |BT| (VP (VBD said)(SBAR (-NONE- 0)(S (NP-SBJ (PRP it))(VP (VP (VBD hired)(NP (NP (DT an)(NN investment)(NN banking)(NN firm))(SBAR (WHNP-1 (-NONE- 0))(S (NP-SBJ (-NONE- *T*-1))(VP (TO to)(VP (VB assist)(PP-CLR (IN in)(S-NOM (NP-SBJ (-NONE- *))(VP (VBG evaluating)(NP (NN restructuring)(CC or)(NN merger)(NNS alternatives)))))))))))(CC and)(VP (VBD reported)(NP (NP (DT a)(JJ net)(NN loss))(PP (IN of)(NP (NP (QP ($ $)(CD 8.1)(CD million))(-NONE- *U*))(, ,)(CC or)(NP (NP ($ $)(CD 2.14)(-NONE- *U*))(NP-ADV (DT a)(NN share)))(, ,))))(PP-TMP (IN for)(NP (NP (DT the)(JJ third)(NN quarter))(VP (VBN ended)(NP (-NONE- *))(NP-TMP (NNP Sept)))))))))) |ET| 
-0.77943124620491033294200633463333  |BT| (VP (VBD said)(SBAR (-NONE- 0)(S (NP-SBJ (PRP it))(VP (VP (VBD hired)(NP (NP (DT an)(NN investment)(NN banking)(NN firm))(SBAR (WHNP-1 (-NONE- 0))(S (NP-SBJ (-NONE- *T*-1))(VP (TO to)(VP (VB assist)(PP-CLR (IN in)(S-NOM (NP-SBJ (-NONE- *))(VP (VBG evaluating)(NP (NN restructuring)(CC or)(NN merger)(NNS alternatives)))))))))))(CC and)(VP (VBD reported)(NP (NP (DT a)(JJ net)(NN loss))(PP (IN of)(NP (NP (QP ($ $)(CD 8.1)(CD million))(-NONE- *U*))(, ,)(CC or)(NP (NP ($ $)(CD 2.14)(-NONE- *U*))(NP-ADV (DT a)(NN share)))(, ,))))(PP-TMP (IN for)(NP (NP (DT the)(JJ third)(NN quarter))(VP (VBN ended)(NP (-NONE- *))(NP-TMP (NNP Sept)))))))))) |ET| 
1  |BT| (VP (VBD continued)(S (NP-SBJ (-NONE- *-1))(VP (TO to)(VP (VB be)(ADJP-PRD (JJ depressed)))))(PRN (, ,)(S (NP-SBJ (DT the)(NN company))(VP (VBD added)(SBAR (-NONE- 0)(S (-NONE- *T*-2)))))(, ,))(PP-PRP (IN because)(IN of)(NP (JJ industrywide)(NN price)(NN discounting)))) |ET| 
-1  |BT| (VP (VBZ intends)(S (NP-SBJ (-NONE- *-1))(VP (TO to)(VP (VB seek)(NP (NP (NN control))('' '')(PP (IN of)(NP (NP (JJ 30%-owned)(NNP Innopac)(NNP Inc.))(, ,)(NP (DT a)(NNP Toronto)(NN packaging)(NN concern))))))))) |ET| 
1  |BT| (VP (VBD took)(NP (DT an)(ADJP (QP ($ $)(CD 89.9)(CD million))(-NONE- *U*))(NN charge))(SBAR-TMP (IN as)(S (NP-SBJ (PRP it))(VP (VBD reported)(NP (NP (DT a)(NN third-quarter)(NN loss))(PP (IN of)(NP (NP (QP ($ $)(CD 70.7)(CD million))(-NONE- *U*))(, ,)(CC or)(NP (NP ($ $)(CD 12.09)(-NONE- *U*))(NP-ADV (DT a)(NN share)))))))))) |ET| 
-0.73260211995941926232944751973264  |BT| (S (ADVP (NNP Separately))(, ,)(NP-SBJ (NNP Innopac))(VP (VBD reported)(NP (NP (DT a)(JJ fourth-quarter)(NN loss))(PP (IN of)(NP (NP (QP (RB about)($ C$)(CD 2.6)(CD million))(-NONE- *U*))(, ,)(CC or)(NP (NP (CD 18)(JJ Canadian)(NNS cents))(NP-ADV (DT a)(NN share))))))(, ,)(S-ADV (NP-SBJ (-NONE- *))(VP (VBG reflecting)(NP (NN inventory)(NNS write-downs)))))(. .)) |ET| 
1  |BT| (VP (VBD aimed)(S (NP-SBJ-2 (-NONE- *-1))(VP (TO to)(VP (VB pump)(PRT (RP up))(NP (NP (DT the)(NN company)(POS 's))(NN stock)(NN price))(PP-MNR (IN through)(NP (JJ false)(JJ financial)(NNS statements)))(SBAR-PRP (PP (IN in)(NP (NN order)))(S (NP-SBJ (-NONE- *-2))(VP (TO to)(VP (VP (VB sell)(NP (PRP$ his)(NN stake)))(CC and)(VP (VB reap)(NP (JJ huge)(NNS profits))))))))))) |ET| 
-1  |BT| (VP (VBD aimed)(S (NP-SBJ-2 (-NONE- *-1))(VP (TO to)(VP (VB pump)(PRT (RP up))(NP (NP (DT the)(NN company)(POS 's))(NN stock)(NN price))(PP-MNR (IN through)(NP (JJ false)(JJ financial)(NNS statements)))(SBAR-PRP (PP (IN in)(NP (NN order)))(S (NP-SBJ (-NONE- *-2))(VP (TO to)(VP (VP (VB sell)(NP (PRP$ his)(NN stake)))(CC and)(VP (VB reap)(NP (JJ huge)(NNS profits))))))))))) |ET| 
1  |BT| (NP (NP (DT a)(NN suit))(VP (VBN filed)(NP (-NONE- *))(PP-LOC (IN in)(NP (JJ federal)(NN court)))(PP (IN by)(NP-LGS (NNP DPC)(NNP Acquisition))))(SBAR (WHNP-1 (WDT that))(S (NP-SBJ-3 (-NONE- *T*-1))(VP (VBZ seeks)(S (NP-SBJ (-NONE- *-3))(VP (TO to)(VP (VB nullify)(NP (NP (DT a)(JJ standstill)(NN agreement))(PP (IN between)(NP (NP (NNP DPC)(NNP Acquisition))(CC and)(NP (NNPS Dataproducts)))))))))))) |ET| 
-0.65686745607402485802595037966967  |BT| (VP (VBD said)(SBAR (-NONE- 0)(S (NP-SBJ (PRP they))(VP (VBD had)(RB not)(ADVP-TMP (RB yet))(VP (VBN seen)(NP (NP (DT a)(NN suit))(VP (VBN filed)(NP (-NONE- *))(PP-LOC (IN in)(NP (JJ federal)(NN court)))(PP (IN by)(NP-LGS (NNP DPC)(NNP Acquisition))))(SBAR (WHNP-1 (WDT that))(S (NP-SBJ-3 (-NONE- *T*-1))(VP (VBZ seeks)(S (NP-SBJ (-NONE- *-3))(VP (TO to)(VP (VB nullify)(NP (NP (DT a)(JJ standstill)(NN agreement))(PP (IN between)(NP (NP (NNP DPC)(NNP Acquisition))(CC and)(NP (NNPS Dataproducts))))))))))))))))) |ET| 
1  |BT| (VP (VBD said)(SBAR (-NONE- 0)(S (NP-SBJ-2 (NP (NNP Merieux)(POS 's))(NN bid))(VP (VBD did)(RB n't)(VP (VP (VB offer)(NP (RB enough)(`` ``)(JJ net)(NN benefit)('' ''))(PP-CLR (TO to)(NP (NNP Canada)))(S-PRP (NP-SBJ-1 (-NONE- *-2))(VP (TO to)(VP (VB be)(VP (VBN approved)(NP (-NONE- *-1)))))))(, ,)(CC and)(VP (VBD gave)(NP-3 (NNP Merieux))(NP (DT an)(X (IN until)(NNP mid-November)))(S-PRP (NP-SBJ (-NONE- *-3))(VP (TO to)(VP (VB submit)(NP (JJ additional)(NN information))))))))))) |ET| 
-0.93286002835608283767498960514786  |BT| (VP (VBD said)(SBAR (-NONE- 0)(S (NP-SBJ-2 (NP (NNP Merieux)(POS 's))(NN bid))(VP (VBD did)(RB n't)(VP (VP (VB offer)(NP (RB enough)(`` ``)(JJ net)(NN benefit)('' ''))(PP-CLR (TO to)(NP (NNP Canada)))(S-PRP (NP-SBJ-1 (-NONE- *-2))(VP (TO to)(VP (VB be)(VP (VBN approved)(NP (-NONE- *-1)))))))(, ,)(CC and)(VP (VBD gave)(NP-3 (NNP Merieux))(NP (DT an)(X (IN until)(NNP mid-November)))(S-PRP (NP-SBJ (-NONE- *-3))(VP (TO to)(VP (VB submit)(NP (JJ additional)(NN information))))))))))) |ET| 
1  |BT| (S (PP-TMP (IN Until)(NP (RB recently)))(, ,)(NP-SBJ (NN Kellogg))(VP (VBD had)(VP (VBN been)(VP (VBG telling)(NP (NP (PRP$ its)(NNS sales)(NN force))(CC and)(NP (NNP Wall)(NNP Street)))(SBAR (IN that)(S (PP-TMP (IN by)(NP (CD 1992)))(NP-SBJ-1 (PRP it))(VP (VBD intended)(S (NP-SBJ (-NONE- *-1))(VP (TO to)(VP (VB achieve)(NP (NP (DT a)(ADJP (CD 50)(NN %))(NN share))(PP (IN of)(NP (NN market)))(, ,)(VP (VBN measured)(NP (-NONE- *))(PP-CLR (IN in)(NP (NN dollar)(NN volume))))))))))))))(. .)) |ET| 
-0.21511862740509252178711108172138  |BT| (VP (VBD announced)(NP (DT the)(NNP Reiss)(NN request))(SBAR-TMP (IN after)(S (NP-SBJ (DT the)(NN market))(VP (VBD closed))))) |ET| 
1  |BT| (NP (NP (NNS acquisitions))(SBAR (WHNP-3 (-NONE- 0))(S (NP-SBJ-1 (-NONE- *T*-3))(VP (TO to)(VP (VB be)(VP (VBN made)(NP (-NONE- *-1))(PP-TMP (IN during)(NP (DT the)(JJ next)(QP (CD 12)(TO to)(CD 18))(NNS months))))))))) |ET| 
-0.82680730555123571612341493164422  |BT| (NP (NP (NNS acquisitions))(SBAR (WHNP-3 (-NONE- 0))(S (NP-SBJ-1 (-NONE- *T*-3))(VP (TO to)(VP (VB be)(VP (VBN made)(NP (-NONE- *-1))(PP-TMP (IN during)(NP (DT the)(JJ next)(QP (CD 12)(TO to)(CD 18))(NNS months))))))))) |ET| 
1  |BT| (VP (VB change)(NP (NP (DT the)(NNS terms)(CC and)(NNS conditions))(PP (IN of)(NP (DT the)(NN offer))))(SBAR-ADV (IN except)(S (NP-SBJ (-NONE- *-3))(VP (TO to)(VP (VB extend)(NP (PRP$ its)(NN expiration)(NN date))))))) |ET| 
-0.58783778967378430557744195539271  |BT| (S (S (NP-SBJ (DT The)(NN supplement))(VP (VBZ contains)(NP (NP (JJ various)(NN information))(SBAR (WHNP-2 (WDT that))(S (NP-SBJ-1 (-NONE- *T*-2))(VP (VBZ has)(VP (VBN been)(VP (VBN filed)(NP (-NONE- *-1))(PP-CLR (IN with)(NP (DT the)(NNPS Securities)(CC and)(NNP Exchange)(NNP Commission)))(SBAR-TMP (IN since)(S (NP-SBJ (NNP Dow)(NNP Jones))(VP (VBD launched)(NP (DT the)(NN offer))(PP-TMP (IN on)(NP (NNP Sept.)(CD 26))))))))))))))(, ,)(CC but)(S (NP-SBJ-3 (PRP it))(VP (VBZ does)(RB n't)(VP (VB change)(NP (NP (DT the)(NNS terms)(CC and)(NNS conditions))(PP (IN of)(NP (DT the)(NN offer))))(SBAR-ADV (IN except)(S (NP-SBJ (-NONE- *-3))(VP (TO to)(VP (VB extend)(NP (PRP$ its)(NN expiration)(NN date)))))))))(. .)) |ET| 
1  |BT| (VP (VBD said)(SBAR (-NONE- 0)(S (-NONE- *T*-3)))(, ,)(S-ADV (NP-SBJ (-NONE- *-1))(VP (VBG adding)(SBAR (IN that)(S (NP-SBJ-2 (NN shareholder)(NN approval))(VP (VBZ is)(RB n't)(VP (VBN needed)(NP (-NONE- *-2))))))))) |ET| 
-0.41000815125844836117607883352321  |BT| (VP (VBD resigned)(S-PRP (NP-SBJ (-NONE- *-1))(VP (TO to)(VP (VB pursue)(NP (DT a)(NN consulting)(NN career))(, ,)(SBAR-ADV (IN with)(S (NP-SBJ (NNP Magna))(PP-PRD (IN as)(NP (NP (CD one))(PP (IN of)(NP (PRP$ his)(NNS clients))))))))))) |ET| 
1  |BT| (NP (NP (DT the)(JJ sharp)(NNS gains))(SBAR (WHNP-2 (-NONE- 0))(S (NP-SBJ (DT these)(NNS issues))(VP (VBD made)(NP (-NONE- *T*-2))(NP-TMP (DT this)(NN week)))))) |ET| 
-1  |BT| (S (S-TPC-4 (CC But)(NP-SBJ-3 (PRP they))(VP (VBD failed)(S (NP-SBJ (-NONE- *-3))(VP (TO to)(VP (VB sell)(NP (DT these)(NNS stocks))(PP-DTV (TO to)(NP (NP (NN client)(NNS investors))(, ,)(SBAR (WHNP-1 (WP who))(S (NP-SBJ (-NONE- *T*-1))(VP (VBD were)(ADJP-PRD (JJ cautious)(PP (IN about)(NP (NP (DT the)(JJ sharp)(NNS gains))(SBAR (WHNP-2 (-NONE- 0))(S (NP-SBJ (DT these)(NNS issues))(VP (VBD made)(NP (-NONE- *T*-2))(NP-TMP (DT this)(NN week))))))))))))))))))(, ,)(NP-SBJ (DT the)(NNP Wako)(NN official))(VP (VBD said)(SBAR (-NONE- 0)(S (-NONE- *T*-4))))(. .)) |ET| 
1  |BT| (VP (VBZ continues)(S (NP-SBJ (-NONE- *-1))(VP (TO to)(VP (VB explore)(NP (NP (DT all)(NNS options))(PP (VBG concerning)(NP (NP (DT the)(JJ possible)(NN sale))(PP (IN of)(NP (NP (NP (NNP National)(NNP Aluminum)(POS 's))(ADJP (CD 54.5)(NN %))(NN stake))(PP (IN in)(NP (NP (DT an)(NN aluminum)(NN smelter))(PP-LOC (IN in)(NP (NP (NNP Hawesville))(, ,)(NP (NNP Ky))))))))))))))) |ET| 
-0.77510984826678397396904074412305  |BT| (VP (VBD said)(SBAR (-NONE- 0)(S (NP-SBJ-1 (PRP it))(VP (VBZ continues)(S (NP-SBJ (-NONE- *-1))(VP (TO to)(VP (VB explore)(NP (NP (DT all)(NNS options))(PP (VBG concerning)(NP (NP (DT the)(JJ possible)(NN sale))(PP (IN of)(NP (NP (NP (NNP National)(NNP Aluminum)(POS 's))(ADJP (CD 54.5)(NN %))(NN stake))(PP (IN in)(NP (NP (DT an)(NN aluminum)(NN smelter))(PP-LOC (IN in)(NP (NP (NNP Hawesville))(, ,)(NP (NNP Ky)))))))))))))))))) |ET| 
1  |BT| (VP (VBD failed)(S (NP-SBJ (-NONE- *-3))(VP (TO to)(VP (VB sell)(NP (DT these)(NNS stocks))(PP-DTV (TO to)(NP (NP (NN client)(NNS investors))(, ,)(SBAR (WHNP-1 (WP who))(S (NP-SBJ (-NONE- *T*-1))(VP (VBD were)(ADJP-PRD (JJ cautious)(PP (IN about)(NP (NP (DT the)(JJ sharp)(NNS gains))(SBAR (WHNP-2 (-NONE- 0))(S (NP-SBJ (DT these)(NNS issues))(VP (VBD made)(NP (-NONE- *T*-2))(NP-TMP (DT this)(NN week))))))))))))))))) |ET| 
-0.17117475113739960557168728882971  |BT| (VP (VBD rejected)(NP (-NONE- *T*-1))(SBAR-PRP (IN because)(S (NP-SBJ-2 (DT the)(ADJP (QP ($ $)(CD 283.7)(CD million))(-NONE- *U*))(NN offer))(VP (VBD was)(RB not)(VP (ADVP-MNR (RB fully))(VBN financed)(NP (-NONE- *-2))))))) |ET| 
1  |BT| (VP (VBD completed)(NP (NP (PRP$ its)(NN tender)(NN offer))(PP (IN for)(NP (NNP Columbia)(NNPS Pictures)(NNP Entertainment)(NNP Inc.))))(, ,)(PP (IN with)(S-NOM (NP-SBJ (NNP Columbia)(NNS shareholders))(VP (VBG tendering)(NP (NP (CD 99.3)(NN %))(PP (IN of)(NP (NP (DT all)(JJ common)(NNS shares))(ADJP (JJ outstanding)))))(PP-TMP (IN by)(NP (DT the)(NNP Tuesday)(NN deadline))))))) |ET| 
-0.45336195664626971479904682382767  |BT| (VP (VBD considered)(S (NP-SBJ (-NONE- *-3))(VP (VBG seeking)(NP (NP (NN control))(PP (IN of)(NP (NP (NNP Milton)(NNP Roy))(, ,)(PP (IN of)(NP (NP (NNP St.)(NNP Petersburg))(, ,)(NP-LOC (NNP Fla.))))(, ,))))(PP-CLR (IN through)(NP (DT a)(NN merger)(CC or)(NN tender)(NN offer)))))) |ET| 
1  |BT| (S (NP-SBJ (NP (DT the)(NNS businesses))(SBAR (WHNP-1 (-NONE- 0))(S (NP-SBJ-2 (-NONE- *T*-1))(VP (TO to)(VP (VB be)(VP (VBN acquired)(NP (-NONE- *-2))))))))(VP (VBD had)(NP (NP (NN revenue))(PP (IN of)(NP (QP ($ $)(CD 76)(CD million))(-NONE- *U*)))(PP-TMP (IN for)(NP (NP (DT the)(NN year))(VP (VBD ended)(NP-TMP (NNP March)(CD 31)))))))) |ET| 
-0.61094855524547986291850065754261  |BT| (VP (VBD said)(SBAR (-NONE- 0)(S (NP-SBJ (NP (DT the)(NNS businesses))(SBAR (WHNP-1 (-NONE- 0))(S (NP-SBJ-2 (-NONE- *T*-1))(VP (TO to)(VP (VB be)(VP (VBN acquired)(NP (-NONE- *-2))))))))(VP (VBD had)(NP (NP (NN revenue))(PP (IN of)(NP (QP ($ $)(CD 76)(CD million))(-NONE- *U*)))(PP-TMP (IN for)(NP (NP (DT the)(NN year))(VP (VBD ended)(NP-TMP (NNP March)(CD 31)))))))))) |ET| 
1  |BT| (S-TPC-1 (SBAR-ADV (IN If)(S (NP-SBJ (PRP you))(VP (VBP find)(NP (JJ sound)(, ,)(JJ healthy)(NNS companies))(PP-LOC-CLR (IN in)(NP (NNP Japan))))))(, ,)(NP-SBJ (PRP they))(VP (VBP are)(RB not)(PP-PRD (IN for)(NP (NN sale))))) |ET| 
-0.0064852391794418332016114447924338  |BT| (VP (VBN told)(NP (NP (NNS employees))(PP-LOC (IN in)(NP (PRP$ its)(NNP Crum)(CC &)(NNP Forster)(JJ personal)(NN insurance)(NNS operations))))(SBAR (IN that)(S (NP-SBJ (PRP it))(VP (VBZ is)(VP (VBG laying)(PRT (RP off))(NP (NP (QP (IN about)(CD 300))(NNS people))(, ,)(CC or)(NP (NP (CD 25)(NN %))(PP (IN of)(NP (DT the)(NN staff)))))))))) |ET| 
1  |BT| (VP (VBD withdrew)(NP (PRP$ its)(NN offer)(S (NP-SBJ (-NONE- *))(VP (TO to)(VP (VB acquire)(NP (NNP Mesa)(NNP Airlines))))))(SBAR-PRP (IN because)(S (NP-SBJ (DT the)(NNP Farmington)(, ,)(NNP N.M.)(, ,)(NN carrier))(VP (VBD did)(RB n't)(VP (VB respond)(PP-CLR (TO to)(NP (PRP$ its)(NN offer)))(PP-TMP (IN by)(NP (NP (NP (NP (DT the)(NN close))(PP (IN of)(NP (NN business))))(NP-TMP (NN yesterday)))(, ,)(NP (NP (DT a)(NN deadline))(SBAR (WHNP-1 (-NONE- 0))(S (NP-SBJ (NNP StatesWest))(VP (VBD had)(VP (VBN set)(NP (-NONE- *T*-1))(PP-PRP (IN for)(NP (DT a)(NN response))))))))))))))) |ET| 
-1  |BT| (VP (VBD withdrew)(NP (PRP$ its)(NN offer)(S (NP-SBJ (-NONE- *))(VP (TO to)(VP (VB acquire)(NP (NNP Mesa)(NNP Airlines))))))(SBAR-PRP (IN because)(S (NP-SBJ (DT the)(NNP Farmington)(, ,)(NNP N.M.)(, ,)(NN carrier))(VP (VBD did)(RB n't)(VP (VB respond)(PP-CLR (TO to)(NP (PRP$ its)(NN offer)))(PP-TMP (IN by)(NP (NP (NP (NP (DT the)(NN close))(PP (IN of)(NP (NN business))))(NP-TMP (NN yesterday)))(, ,)(NP (NP (DT a)(NN deadline))(SBAR (WHNP-1 (-NONE- 0))(S (NP-SBJ (NNP StatesWest))(VP (VBD had)(VP (VBN set)(NP (-NONE- *T*-1))(PP-PRP (IN for)(NP (DT a)(NN response))))))))))))))) |ET| 
1  |BT| (S (PP-TMP (IN For)(NP (CD 1988)))(, ,)(NP-SBJ (NNP BellSouth))(VP (VBD earned)(NP (NP (QP ($ $)(CD 1.7)(CD billion))(-NONE- *U*))(, ,)(CC or)(NP (NP ($ $)(CD 3.51)(-NONE- *U*))(NP-ADV (DT a)(NN share))))(, ,)(PP (IN on)(NP (NP (NN revenue))(PP (IN of)(NP (QP ($ $)(CD 13.6)(CD billion))(-NONE- *U*))))))(. .)) |ET| 
-0.13985250028343587658241631288547  |BT| (VP (VBG urging)(NP-1 (NNS holders))(S (NP-SBJ (-NONE- *-1))(VP (TO to)(VP (VB drop)(NP (DT the)(NNS limits))(ADVP-TMP (RB early)))))) |ET| 
1  |BT| (SINV (S-TPC-5 (`` ``)(S (NP-SBJ (NP (DT The)(NNS people))(SBAR (WHNP-1 (WP who))(S (NP-SBJ (-NONE- *T*-1))(VP (VBP suffer)(PP-TMP (IN in)(NP (DT the)(JJ short)(NN run)))))))(VP (VBP are)(NP-PRD (NNS defendants))))(, ,)(CC but)(S (NP-SBJ (NP (DT the)(NNS people))(SBAR (WHNP-2 (WP who))(S (NP-SBJ (-NONE- *T*-2))(VP (VBP suffer)(PP-TMP (IN in)(NP (DT the)(JJ long)(NN run)))))))(VP (VBP are)(NP-PRD (NP (DT all))(PP (IN of)(NP (DT the)(NNS people))))))(, ,)(SBAR-PRP (IN because)(S (NP-SBJ (EX there))(VP (MD wo)(RB n't)(VP (VB be)(NP-PRD (NP (DT a)(JJ vigorous)(JJ private)(NN bar))(SBAR (WHNP-4 (-NONE- 0))(S (NP-SBJ (-NONE- *T*-4))(VP (TO to)(VP (VB defend)(NP (NP (DT the)(NNP Bill))(PP (IN of)(NP (NNPS Rights)))))))))))))(, ,)('' ''))(VP (VBZ says)(S (-NONE- *T*-5)))(NP-SBJ (NP (NNP Gerald)(NNP Lefcourt))(, ,)(NP (NP (DT a)(NN criminal)(NN defense)(NN attorney))(SBAR (WHNP-3 (WP who))(S (NP-SBJ (-NONE- *T*-3))(VP (VBZ says)(SBAR (-NONE- 0)(S (NP-SBJ-6 (PRP he))(VP (VBZ has)(VP (VBN turned)(PRT (RP down))(NP (NP (DT a)(NN number))(PP (IN of)(NP (NNS cases))))(S-PRP (NP-SBJ (-NONE- *-6))(VP (TO to)(VP (VB avoid)(NP (JJ possible)(NN fee)(NNS seizures))))))))))))))(. .)) |ET| 
-0.26623712362068047143637272711203  |BT| (VP (VB seek)(S (NP-SBJ (-NONE- *-1))(VP (TO to)(VP (VB liquidate)(NP (DT the)(NN computer-printer)(NN maker))(`` ``)(ADVP-TMP (ADVP (RB as)(RB soon))(PP (IN as)(ADJP (JJ possible)))))))(, ,)('' '')(SBAR-ADV (RB even)(IN if)(S (NP-SBJ-2 (DT a)(NN merger))(VP (VBZ is)(RB n't)(VP (VBN consummated)(NP (-NONE- *-2))))))) |ET| 
1  |BT| (VP (VBD reduced)(NP (NN computer)(NNS inventories))(NP-EXT (DT a)(JJ further)(QP ($ $)(CD 100)(CD million))(-NONE- *U*))(PP-TMP (IN during)(NP (DT the)(NN quarter)))(, ,)(S-ADV (NP-SBJ (-NONE- *))(VP (VBG leaving)(S (NP-SBJ (PRP it))(PP-PRD-LOC (IN within)(NP (NP (QP ($ $)(CD 100)(CD million))(-NONE- *U*))(PP (IN of)(NP (NP (PRP$ its)(NN goal))(PP (IN of)(NP (NP (DT a)(NN reduction))(PP (IN of)(NP (QP ($ $)(CD 500)(CD million))(-NONE- *U*)))(PP-TMP (IN by)(NP (NP (DT the)(NN end))(PP (IN of)(NP (DT the)(NN year))))))))))))))) |ET| 
-0.99075428977045709721949151571607  |BT| (VP (VBD reduced)(NP (NN computer)(NNS inventories))(NP-EXT (DT a)(JJ further)(QP ($ $)(CD 100)(CD million))(-NONE- *U*))(PP-TMP (IN during)(NP (DT the)(NN quarter)))(, ,)(S-ADV (NP-SBJ (-NONE- *))(VP (VBG leaving)(S (NP-SBJ (PRP it))(PP-PRD-LOC (IN within)(NP (NP (QP ($ $)(CD 100)(CD million))(-NONE- *U*))(PP (IN of)(NP (NP (PRP$ its)(NN goal))(PP (IN of)(NP (NP (DT a)(NN reduction))(PP (IN of)(NP (QP ($ $)(CD 500)(CD million))(-NONE- *U*)))(PP-TMP (IN by)(NP (NP (DT the)(NN end))(PP (IN of)(NP (DT the)(NN year))))))))))))))) |ET| 
1  |BT| (VP (VBP continue)(S (NP-SBJ (-NONE- *-1))(VP (TO to)(VP (VB slow))))) |ET| 
-0.16187841990202400666021276265383  |BT| (VP (VBN expected)(S (NP-SBJ (-NONE- *-1))(VP (TO to)(VP (VB close)(PP-TMP (IN around)(NP (NN year)(NN end))))))) |ET| 
1  |BT| (S (S (NP-TMP (JJ Late)(JJ last)(NN week))(, ,)(NP-SBJ (NP (NNS representatives))(PP (IN of)(NP (NP (NNP Dow)(NNP Jones))(CC and)(NP (NNP Telerate)))))(VP (VBD began)(NP (NP (NNS negotiations))(PP (IN about)(NP (NP (DT the)(NNS terms))(PP (IN of)(NP (DT the)(NN offer))))))))(, ,)(CC but)(S (NP-SBJ (DT those)(NNS talks))(VP (VBD did)(RB n't)(VP (VB result)(PP-CLR (IN in)(NP (NP (DT any)(NNS changes))(PP-LOC (IN in)(NP (DT the)(NN offer))))))))(. .)) |ET| 
-0.37401784958158273974859753252531  |BT| (S (PP (IN Under)(NP (NP (NNS terms))(PP (IN of)(NP (DT the)(JJ new)(NN proposal)))))(, ,)(NP-SBJ (NP (NNP Equus))(, ,)(VP (VBN managed)(NP (-NONE- *))(PP (IN by)(NP-LGS (NP (NNP Equus)(NNP Capital)(NNP Corp.))(, ,)(NP-LOC (NNP Houston)))))(, ,))(VP (MD would)(VP (VB pay)(NP (NP ($ $)(CD 12)(-NONE- *U*)(NN cash))(CC and)(NP (NP (CD one)(JJ new)(JJ preferred)(NN share))(PP (IN with)(NP (NP (DT a)(NN liquidation)(NN preference))(PP (IN of)(NP (NP ($ $)(CD 1.65)(-NONE- *U*))(NP-ADV (DT a)(NN share))))(PP (IN for)(NP (NP (DT each))(PP (IN of)(NP (NP (NP (NNP Tony)(NNP Lama)(POS 's))(QP (CD 2.1)(CD million))(NNS shares))(ADJP (JJ outstanding))))))))))))(. .)) |ET| 
1  |BT| (VP (VB develop)(CC and)(VB maintain)(NP (NP (DT a)(JJ strategic)(NN partnership))(SBAR (WHPP-4 (IN in)(WHNP (WDT which)))(S (NP-SBJ-2 (DT each)(NN company))(VP (VBZ remains)(ADJP-PRD (JJ independent))(SBAR-ADV (IN while)(S (NP-SBJ-3 (-NONE- *-2))(VP (VBG working)(ADVP-MNR (RB together))(S-CLR (NP-SBJ (-NONE- *-3))(VP (TO to)(VP (VB market)(CC and)(VB sell)(NP (PRP$ their)(NNS products))))))))(PP-LOC (-NONE- *T*-4))))))) |ET| 
-1  |BT| (VP (VBD acquired)(NP (DT the)(NN stock))(`` ``)(S-PRP (NP-SBJ (-NONE- *-1))(VP (TO to)(VP (VB develop)(CC and)(VB maintain)(NP (NP (DT a)(JJ strategic)(NN partnership))(SBAR (WHPP-4 (IN in)(WHNP (WDT which)))(S (NP-SBJ-2 (DT each)(NN company))(VP (VBZ remains)(ADJP-PRD (JJ independent))(SBAR-ADV (IN while)(S (NP-SBJ-3 (-NONE- *-2))(VP (VBG working)(ADVP-MNR (RB together))(S-CLR (NP-SBJ (-NONE- *-3))(VP (TO to)(VP (VB market)(CC and)(VB sell)(NP (PRP$ their)(NNS products))))))))(PP-LOC (-NONE- *T*-4)))))))))) |ET| 
1  |BT| (VP (VBZ plans)(S (NP-SBJ (-NONE- *-1))(VP (TO to)(VP (VB redeem)(PP-TMP (IN on)(NP (NNP Nov.)(CD 16)))(NP (NP (PRP$ its)(QP ($ $)(CD 150)(CD million))(-NONE- *U*))(PP (IN of)(NP (NP (ADJP (CD 6.5)(NN %))(JJ convertible)(VBN subordinated)(NNS debentures))(ADJP (JJ due)(NP-TMP (NNP March)(CD 1)(, ,)(CD 2011)))))))))) |ET| 
-1  |BT| (VP (VBZ plans)(S (NP-SBJ (-NONE- *-1))(VP (TO to)(VP (VB redeem)(PP-TMP (IN on)(NP (NNP Nov.)(CD 16)))(NP (NP (PRP$ its)(QP ($ $)(CD 150)(CD million))(-NONE- *U*))(PP (IN of)(NP (NP (ADJP (CD 6.5)(NN %))(JJ convertible)(VBN subordinated)(NNS debentures))(ADJP (JJ due)(NP-TMP (NNP March)(CD 1)(, ,)(CD 2011)))))))))) |ET| 
1  |BT| (S (SBAR-ADV (IN Although)(S (NP-SBJ (PRP he))(VP (VBD expressed)(NP (NN confidence)(SBAR (IN that)(S (NP-SBJ-1 (NP (DT the)(VBN proposed)(JJ new)(NN company)(POS 's))(NN cash)(NN flow))(VP (MD would)(VP (VB be)(ADJP-PRD (JJ sufficient)(S (NP-SBJ (-NONE- *-1))(VP (TO to)(VP (VB cover)(NP (NP (NN interest)(NNS payments))(PP (IN on)(NP (DT the)(NN debt))))))))))))))))(, ,)(NP-SBJ (PRP he))(VP (VBD estimated)(SBAR (IN that)(S (NP-SBJ (DT the)(NN company))(VP (MD would)(RB n't)(VP (VB be)(ADJP-PRD (JJ profitable))(PP-TMP (IN until)(UCP (NP (CD 1994))(CC or)(ADJP (RB later)))))))))(. .)) |ET| 
-0.36268036862267860609421177287004  |BT| (NP (NN confidence)(SBAR (IN that)(S (NP-SBJ-1 (NP (DT the)(VBN proposed)(JJ new)(NN company)(POS 's))(NN cash)(NN flow))(VP (MD would)(VP (VB be)(ADJP-PRD (JJ sufficient)(S (NP-SBJ (-NONE- *-1))(VP (TO to)(VP (VB cover)(NP (NP (NN interest)(NNS payments))(PP (IN on)(NP (DT the)(NN debt))))))))))))) |ET| 
1  |BT| (VP (VBN rejected)(NP (NP (DT a)(ADJP (ADJP ($ $)(CD 15)(-NONE- *U*))(NP-ADV (DT a)(NN share)))(NN offer))(PP (IN from)(NP (NNP DPC))))(, ,)(S-ADV (NP-SBJ (-NONE- *-1))(VP (VBG saying)(SBAR (-NONE- 0)(S (NP-SBJ-2 (PRP it))(VP (VBD was)(RB n't)(VP (ADVP (RB adequately))(VBN financed)(NP (-NONE- *-2))))))))) |ET| 
-0.4320365204558187510741618098109  |BT| (VP (VBD estimated)(SBAR (IN that)(S (NP-SBJ (DT the)(NN company))(VP (MD would)(RB n't)(VP (VB be)(ADJP-PRD (JJ profitable))(PP-TMP (IN until)(UCP (NP (CD 1994))(CC or)(ADJP (RB later))))))))) |ET| 
1  |BT| (VP (VBD signed)(NP (NP (DT a)(NN letter))(PP (IN of)(NP (NN intent)(S (NP-SBJ (-NONE- *))(VP (TO to)(VP (VB purchase)(NP (NNP La)(NNP Jolla)(NNP Bancorp))))))))(, ,)(S-ADV (NP-SBJ-1 (-NONE- *))(VP (VBG agreeing)(S (NP-SBJ (-NONE- *-1))(VP (TO to)(VP (VB pay)(NP (NP ($ $)(CD 15)(-NONE- *U*))(PP (IN of)(NP (PRP$ its)(JJ own)(NN stock))))(PP-CLR (IN for)(NP (NP (DT each)(NN share))(PP (IN of)(NP (NNP La)(NNP Jolla))))))))))) |ET| 
-1  |BT| (VP (VBD said)(SBAR (-NONE- 0)(S (NP-SBJ (PRP it))(VP (VBD signed)(NP (NP (DT a)(NN letter))(PP (IN of)(NP (NN intent)(S (NP-SBJ (-NONE- *))(VP (TO to)(VP (VB purchase)(NP (NNP La)(NNP Jolla)(NNP Bancorp))))))))(, ,)(S-ADV (NP-SBJ-1 (-NONE- *))(VP (VBG agreeing)(S (NP-SBJ (-NONE- *-1))(VP (TO to)(VP (VB pay)(NP (NP ($ $)(CD 15)(-NONE- *U*))(PP (IN of)(NP (PRP$ its)(JJ own)(NN stock))))(PP-CLR (IN for)(NP (NP (DT each)(NN share))(PP (IN of)(NP (NNP La)(NNP Jolla)))))))))))))) |ET| 
1  |BT| (VP (VBD rose)(NP-EXT (CD 16)(NN %))(SBAR-TMP (IN while)(S (NP-SBJ (NP (NN operating)(NN profit))(PP-LOC (IN in)(NP (DT the)(NN engineering)(NNS materials)(NN segment))))(VP (VBD rose)(NP-EXT (CD 2)(NN %)))))) |ET| 
-0.37099171883184250964049510912446  |BT| (NP (NN intent)(S (NP-SBJ (-NONE- *))(VP (TO to)(VP (VB acquire)(NP (NP (NP (NNP Automated)(NNP Custom)(NNPS Systems)(NNP Inc.))(, ,)(NP-LOC (NP (NNP Orange))(, ,)(NP (NNP Calif.)))(, ,))(CC and)(NP (NP (PRP$ its)(NN sister)(NN operation))(, ,)(NP (NNP Environmental)(NNP Testing)(NNP Co.))(, ,)(PP-LOC (IN in)(NP (NP (NNP Aurora))(, ,)(NP (NNP Colo)))))))))) |ET| 
1  |BT| (VP (VBG moving)(S (NP-SBJ (-NONE- *-1))(VP (TO to)(VP (VB keep)(S (NP-SBJ (PRP$ its)(JJ institutional)(NNS shareholders))(ADJP-PRD (JJ happy))))))) |ET| 
-1  |BT| (VP (VBG moving)(S (NP-SBJ (-NONE- *-1))(VP (TO to)(VP (VB keep)(S (NP-SBJ (PRP$ its)(JJ institutional)(NNS shareholders))(ADJP-PRD (JJ happy))))))) |ET| 
1  |BT| (S (PP-LOC (IN Under)(NP (DT the)(NN plan)))(, ,)(NP-SBJ (NP (JJ unsecured)(NNS creditors))(, ,)(SBAR (WHNP-3 (WP who))(S (NP-SBJ-1 (-NONE- *T*-3))(VP (VBP are)(VP (VBN owed)(NP (-NONE- *-1))(NP (QP (IN about)($ $)(CD 430)(CD million))(-NONE- *U*))))))(, ,))(VP (MD would)(VP (VB receive)(NP (NP (QP (IN about)($ $)(CD 92)(CD million))(-NONE- *U*))(, ,)(CC or)(NP (NP (CD 21)(NNS cents))(PP (IN for)(NP (NP (DT each)(NN dollar))(SBAR (WHNP-4 (-NONE- 0))(S (NP-SBJ-2 (PRP they))(VP (VBP are)(VP (VBN owed)(NP (-NONE- *-2))(NP (-NONE- *T*-4))))))))))))(. .)) |ET| 
-1  |BT| (S (PP-LOC (IN Under)(NP (DT the)(NN plan)))(, ,)(NP-SBJ (NP (JJ unsecured)(NNS creditors))(, ,)(SBAR (WHNP-3 (WP who))(S (NP-SBJ-1 (-NONE- *T*-3))(VP (VBP are)(VP (VBN owed)(NP (-NONE- *-1))(NP (QP (IN about)($ $)(CD 430)(CD million))(-NONE- *U*))))))(, ,))(VP (MD would)(VP (VB receive)(NP (NP (QP (IN about)($ $)(CD 92)(CD million))(-NONE- *U*))(, ,)(CC or)(NP (NP (CD 21)(NNS cents))(PP (IN for)(NP (NP (DT each)(NN dollar))(SBAR (WHNP-4 (-NONE- 0))(S (NP-SBJ-2 (PRP they))(VP (VBP are)(VP (VBN owed)(NP (-NONE- *-2))(NP (-NONE- *T*-4))))))))))))(. .)) |ET| 
1  |BT| (S (SBAR-ADV (IN Though)(S (NP-SBJ (NNP Mr.)(NNP Packer))(VP (VBZ has)(ADVP-TMP (IN since))(VP (VBN sold)(NP (PRP$ his)(NN stake))))))(, ,)(NP-SBJ-1 (NNP Courtaulds))(VP (VBZ is)(VP (VBG moving)(S (NP-SBJ (-NONE- *-1))(VP (TO to)(VP (VB keep)(S (NP-SBJ (PRP$ its)(JJ institutional)(NNS shareholders))(ADJP-PRD (JJ happy))))))))(. .)) |ET| 
-0.85479281818866514885968399539706  |BT| (VP (VB specify)(SBAR (WHNP-1 (WP what))(S (NP-SBJ (-NONE- *T*-1))(VP (VBD prompted)(NP (DT the)(JJ recent)(NNS moves)))))) |ET| 
1  |BT| (SINV (S-TPC-1 (`` ``)(NP-SBJ (PRP We))(VP (MD will)(RB not)(VP (VB go)(PP-DIR (IN over)(NP (DT a)(JJ certain)(NN level)))))(, ,)('' ''))(VP (VBD said)(S (-NONE- *T*-1))(PP-LOC (-NONE- *ICH*-2))(PP-LOC (-NONE- *ICH*-3)))(NP-SBJ (NP (NNP David)(NNP N.)(NNP McCammon))(, ,)(NP (NP (NP (NNP Ford)(POS 's))(NN vice)(NN president))(PP (IN for)(NP (NN finance))))(, ,))(PP-LOC-2 (IN at)(NP (NP (DT a)(NN news)(NN conference))(NP-TMP (NN yesterday))))(PP-LOC-3 (IN in)(NP (NP (NNP Dearborn))(, ,)(NP (NNP Mich))))(. .)) |ET| 
-1  |BT| (SINV (S-TPC-1 (`` ``)(NP-SBJ (PRP We))(VP (MD will)(RB not)(VP (VB go)(PP-DIR (IN over)(NP (DT a)(JJ certain)(NN level)))))(, ,)('' ''))(VP (VBD said)(S (-NONE- *T*-1))(PP-LOC (-NONE- *ICH*-2))(PP-LOC (-NONE- *ICH*-3)))(NP-SBJ (NP (NNP David)(NNP N.)(NNP McCammon))(, ,)(NP (NP (NP (NNP Ford)(POS 's))(NN vice)(NN president))(PP (IN for)(NP (NN finance))))(, ,))(PP-LOC-2 (IN at)(NP (NP (DT a)(NN news)(NN conference))(NP-TMP (NN yesterday))))(PP-LOC-3 (IN in)(NP (NP (NNP Dearborn))(, ,)(NP (NNP Mich))))(. .)) |ET| 
1  |BT| (VP (VBD declined)(S (NP-SBJ (-NONE- *-2))(VP (TO to)(VP (VB specify)(SBAR (WHNP-1 (WP what))(S (NP-SBJ (-NONE- *T*-1))(VP (VBD prompted)(NP (DT the)(JJ recent)(NNS moves))))))))(, ,)(S-ADV (NP-SBJ (-NONE- *-2))(VP (VBG saying)(SBAR (-NONE- 0)(S (NP-SBJ-4 (PRP they))(VP (VBP are)(VP (VBN meant)(ADVP (RB only))(S (NP-SBJ (-NONE- *-4))(VP (TO to)(VP (VB benefit)(NP (NNS shareholders))(SBAR-TMP (WHADVP-3 (WRB when))(`` ``)(S (NP-SBJ (DT the)(NN company))(VP (VBZ is)(PP-PRD (IN on)(NP (DT a)(NN roll)))(ADVP-TMP (-NONE- *T*-3))))))))))))))) |ET| 
-0.73159326627055976111080326518277  |BT| (VP (VBN meant)(ADVP (RB only))(S (NP-SBJ (-NONE- *-4))(VP (TO to)(VP (VB benefit)(NP (NNS shareholders))(SBAR-TMP (WHADVP-3 (WRB when))(`` ``)(S (NP-SBJ (DT the)(NN company))(VP (VBZ is)(PP-PRD (IN on)(NP (DT a)(NN roll)))(ADVP-TMP (-NONE- *T*-3))))))))) |ET| 
1  |BT| (S (S (NP-SBJ-1 (NNP Ocean)(NNP Drilling)(CC &)(NNP Exploration)(NNP Co.))(VP (MD will)(VP (VB sell)(NP (PRP$ its)(NN contract-drilling)(NN business)))))(, ,)(CC and)(S (NP-SBJ (-NONE- *-1))(VP (VBD took)(NP (NP (DT a)(ADJP (QP ($ $)(CD 50.9)(CD million))(-NONE- *U*))(NN loss))(PP (IN from)(NP (VBN discontinued)(NNS operations))))(PP-TMP (IN in)(NP (DT the)(JJ third)(NN quarter)))(PP-PRP (IN because)(IN of)(NP (DT the)(JJ planned)(NN sale)))))(. .)) |ET| 
-0.50625477679283625853656758408761  |BT| (VP (VB post)(NP (NP (DT a)(JJ one-time)(NN charge))(PP (IN of)(NP (QP ($ $)(CD 8.3)(CD million))(-NONE- *U*))))(, ,)(S-ADV (NP-SBJ (-NONE- *))(VP (VBG resulting)(PP-CLR (IN in)(NP (NP (DT a)(JJ net)(NN loss))(PP (IN for)(NP (DT the)(JJ third)(NN quarter)))))))) |ET| 
1  |BT| (S (NP-SBJ (NP (NNP Mr.)(NNP Leon))(PP (IN of)(NP (NNP Bear)(NNP Stearns))))(VP (VBD speculated)(SBAR (IN that)(S (NP-SBJ-3 (NNP McCaw))(, ,)(PP (IN in)(NP (DT an)(NN attempt)(S (NP-SBJ (-NONE- *))(VP (TO to)(VP (VB buy)(NP (NN time)))))))(, ,)(VP (MD might)(VP (VB consider)(S (NP-SBJ (-NONE- *-3))(VP (VBG filing)(NP (DT an)(JJ antitrust)(NN suit))(PP-CLR (IN against)(NP (NNP BellSouth)))(PP (IN with)(NP (NP (DT the)(NNP Justice)(NNP Department))(CC and)(NP (NP (NNP U.S.)(NNP District)(NNP Judge)(NNP Harold)(NNP Greene))(, ,)(SBAR (WHNP-1 (WP who))(S (NP-SBJ (-NONE- *T*-1))(VP (VBZ oversees)(NP (NP (NN enforcement))(PP (IN of)(NP (NP (DT the)(NN consent)(NN decree))(SBAR (WHNP-2 (WDT that))(S (NP-SBJ (-NONE- *T*-2))(VP (VBD broke)(PRT (RP up))(NP (DT the)(NNP Bell)(NN system))(PP-TMP (IN in)(NP (CD 1984))))))))))))))))))))))(. .)) |ET| 
-0.36655379144389227397127228869067  |BT| (VP (VBG trying)(S (NP-SBJ (-NONE- *-1))(VP (TO to)(VP (VB sell)(NP (-NONE- *T*-2)))))) |ET| 
1  |BT| (VP (VBD took)(NP (NP (DT a)(NN write-off))(PP (IN of)(NP (QP ($ $)(CD 150)(CD million))(-NONE- *U*))))(S-PRP (NP-SBJ (-NONE- *-1))(VP (TO to)(VP (VB cover)(NP (NP (NNS losses))(PP-LOC (IN on)(NP (DT some)(JJ fixed-price)(NN defense)(NNS contracts)))))))(, ,)(SBAR-TMP (IN as)(S (NP-SBJ (DT some)(JJ new)(NNS managers))(VP (VBD took)(NP (NP (DT a)(JJ hard)(NN look))(PP (IN at)(NP (NP (DT the)(NNS prospects))(PP (IN for)(NP (DT that)(JJ slow-growing)(NN business)))))))))) |ET| 
-1  |BT| (VP (VBD took)(NP (NP (DT a)(NN write-off))(PP (IN of)(NP (QP ($ $)(CD 150)(CD million))(-NONE- *U*))))(S-PRP (NP-SBJ (-NONE- *-1))(VP (TO to)(VP (VB cover)(NP (NP (NNS losses))(PP-LOC (IN on)(NP (DT some)(JJ fixed-price)(NN defense)(NNS contracts)))))))(, ,)(SBAR-TMP (IN as)(S (NP-SBJ (DT some)(JJ new)(NNS managers))(VP (VBD took)(NP (NP (DT a)(JJ hard)(NN look))(PP (IN at)(NP (NP (DT the)(NNS prospects))(PP (IN for)(NP (DT that)(JJ slow-growing)(NN business)))))))))) |ET| 
1  |BT| (NP (NP (DT a)(JJ friendly)(NN deal))(PP (IN with)(NP (NNP Jaguar)))(SBAR (WHNP-1 (WDT that))(S (NP-SBJ-2 (-NONE- *T*-1))(VP (VBZ is)(ADJP-PRD (JJ likely)(S (NP-SBJ (-NONE- *-2))(VP (TO to)(VP (VB involve)(NP (NP (DT an)(JJ eventual)(ADJP (CD 30)(NN %))(NN stake))(CC and)(NP (JJ joint)(NN manufacturing)(NNS ventures))))))))))) |ET| 
-0.46728081139837679414128501775849  |BT| (NP (NP (NP (NNP Tuesday)(POS 's))(NN declaration))(PP (IN by)(NP (NP (NNP Ford))(, ,)(SBAR (WHNP-1 (WDT which))(S (NP-SBJ (-NONE- *T*-1))(VP (VBZ holds)(NP (NP (DT an)(JJ unwelcome)(ADJP (CD 12.45)(NN %))(NN stake))(PP-LOC (IN in)(NP (NNP Jaguar)))))))))(, ,)(SBAR (IN that)(S (NP-SBJ-2 (PRP it))(VP (VBZ is)(ADJP-PRD (JJ prepared)(S (NP-SBJ (-NONE- *-2))(VP (TO to)(VP (VB bid)(PP-CLR (IN for)(NP (DT the)(JJ entire)(NN company))))))))))) |ET| 
1  |BT| (VP (VBD signed)(NP (NP (DT a)(NN letter))(PP (IN of)(NP (NN intent)(S (NP-SBJ (-NONE- *))(VP (TO to)(VP (VB purchase)(NP (NNP La)(NNP Jolla)(NNP Bancorp))))))))(, ,)(S-ADV (NP-SBJ-1 (-NONE- *))(VP (VBG agreeing)(S (NP-SBJ (-NONE- *-1))(VP (TO to)(VP (VB pay)(NP (NP ($ $)(CD 15)(-NONE- *U*))(PP (IN of)(NP (PRP$ its)(JJ own)(NN stock))))(PP-CLR (IN for)(NP (NP (DT each)(NN share))(PP (IN of)(NP (NNP La)(NNP Jolla))))))))))) |ET| 
-0.2859244488423210439620447687048  |BT| (VP (ADVP-MNR (RB definitively))(VBD agreed)(S (NP-SBJ (-NONE- *-1))(VP (TO to)(VP (VB buy)(NP (NP (DT all))(PP (IN of)(NP (NP (DT the)(ADJP (RB publicly)(VBN held))(NNS shares))(PP (IN of)(NP (NNP Erbamont)(NNP N.V.))))))(PP-CLR (IN for)(NP (NP ($ $)(CD 37)(-NONE- *U*))(NP-ADV (DT each)))))))) |ET| 
1  |BT| (NP (NP (JJ competitive)(NNS pressures))(, ,)(SBAR (WHNP-1 (WDT which))(S (NP-SBJ (-NONE- *T*-1))(VP (VBD required)(NP (JJR higher)(NN advertising)(NN spending)))))) |ET| 
-0.2407340262632098326633922624751  |BT| (VP (VBN said)(SBAR (-NONE- 0)(S (NP-SBJ (PRP they))(VP (MD will)(VP (VB dispense)(PP-CLR (IN with)(NP (NP (JJ certain)(NNS brands))(, ,)(PP (IN in)(ADJP (JJ particular)))(, ,)(SBAR (WHNP-1 (WDT that))(S (NP-SBJ (-NONE- *T*-1))(VP (VBP are)(RB n't)(NP-PRD (NNS leaders))(PP-LOC (IN in)(NP (PRP$ their)(NNS markets))))))))))))) |ET| 
1  |BT| (VP (VBD filed)(NP (DT a)(NN lawsuit))(PP-LOC (IN in)(NP (NNP Delaware)(NNP Chancery)(NNP Court)))(S-PRP (NP-SBJ (-NONE- *-1))(VP (TO to)(VP (VB block)(NP (NP (DT a)(NN tender)(NN offer))(PP (IN by)(NP (NNP DPC)(NNP Acquisition)(NNP Partners)))))))(, ,)(S-ADV (NP-SBJ (-NONE- *-1))(VP (VBG alleging)(SBAR (IN that)(S (NP-SBJ (DT the)(NN hostile)(NN offer))(VP (VBZ violates)(NP (NP (DT a)(JJ standstill)(NN agreement))(PP (IN between)(NP (DT the)(CD two)(NNS concerns)))))))))) |ET| 
-0.89144414130672666729537922947202  |BT| (VP (VBD filed)(NP (DT a)(NN lawsuit))(PP-LOC (IN in)(NP (NNP Delaware)(NNP Chancery)(NNP Court)))(S-PRP (NP-SBJ (-NONE- *-1))(VP (TO to)(VP (VB block)(NP (NP (DT a)(NN tender)(NN offer))(PP (IN by)(NP (NNP DPC)(NNP Acquisition)(NNP Partners)))))))(, ,)(S-ADV (NP-SBJ (-NONE- *-1))(VP (VBG alleging)(SBAR (IN that)(S (NP-SBJ (DT the)(NN hostile)(NN offer))(VP (VBZ violates)(NP (NP (DT a)(JJ standstill)(NN agreement))(PP (IN between)(NP (DT the)(CD two)(NNS concerns)))))))))) |ET| 
1  |BT| (VP (VBD soared)(PP-PRP (IN on)(NP (NP (DT the)(NN announcement))(NP-TMP (NN yesterday))))(, ,)(S-ADV (NP-SBJ-2 (-NONE- *-1))(VP (VBG closing)(ADVP (RB up)(NP ($ $)(CD 11)(-NONE- *U*)))(S-CLR (NP-SBJ (-NONE- *-2))(VP (TO to)(VP (VB close)(PP-CLR (IN at)(NP ($ $)(CD 50)(-NONE- *U*))))))(PP-LOC (IN in)(NP (JJ national)(JJ over-the-counter)(NN trading)))))) |ET| 
-0.31431917411329374223427635115513  |BT| (VP (VB help)(S (NP-SBJ (-NONE- *-2))(VP (VB prevent)(NP-1 (NNP Martin)(NNP Ackerman))(PP (IN from)(S-NOM (NP-SBJ (-NONE- *-1))(VP (VBG making)(NP-CLR (DT a)(NN run))(PP-CLR (IN at)(NP (DT the)(NNS computer-services)(NN concern))))))))) |ET| 
1  |BT| (S (S (NP-SBJ (DT Neither)(NP (NNP Equus))(CC nor)(NP (NNP Tony)(NNP Lama)))(VP (VBD gave)(NP (NP (DT a)(NN reason))(PP (IN for)(NP (DT the)(VBN changed)(NN offer))))))(CC and)(S (NP-SBJ-1 (NNP Tony)(NNP Lama))(VP (MD could)(RB n't)(VP (VB be)(VP (VBN reached)(NP (-NONE- *-1))(PP (IN for)(NP (NN comment)))))))(. .)) |ET| 
-0.23783003380598122245004333308316  |BT| (S (PP (VBG According)(PP (TO to)(NP (DT the)(NN filing))))(, ,)(NP-SBJ (NNP Hewlett-Packard))(VP (VBD acquired)(NP (CD 730,070)(JJ common)(NNS shares))(PP-CLR (IN from)(NP (NNP Octel)))(PP-PRP (IN as)(NP (NP (DT a)(NN result))(PP (IN of)(NP (DT an)(NAC-TMP (NNP Aug.)(CD 10)(, ,)(CD 1988)(, ,))(NN stock)(NN purchase)(NN agreement))))))(. .)) |ET| 
1  |BT| (VP (VBD reported)(NP (DT a)(JJ third-quarter)(NN loss))(, ,)(S-ADV (NP-SBJ (-NONE- *-1))(VP (VBG citing)(NP (DT a)(ADJP (RB previously)(VBN announced))(NN capital)(NN restructuring)(NN program))))) |ET| 
-0.28470894797629436867580920988985  |BT| (NP (NP (JJ overhead)(NNS costs))(SBAR (WHNP-2 (WDT that))(S (NP-SBJ-1 (-NONE- *T*-2))(VP (MD wo)(RB n't)(VP (VB be)(VP (VBN reimbursed)(NP (-NONE- *-1)))))))) |ET| 
1  |BT| (VP (VBD continued)(S (NP-SBJ (-NONE- *-1))(VP (TO to)(VP (VB call)(PP-CLR (IN for)(NP (NP (DT an)(NN auction))(PP (IN of)(NP (NNP LIN))))))))) |ET| 
-1  |BT| (VP (VBZ wants)(S (NP-SBJ-2 (-NONE- *-1))(VP (TO to)(VP (VB buy)(NP (NP (QP (RB as)(JJ much)(IN as)(CD 15))(NN %))(PP (IN of)(NP (NNP Jaguar)(NNP PLC))))(, ,)(S-ADV (NP-SBJ (-NONE- *-2))(VP (VBG marking)(NP (NP (PRP$ its)(JJ first)(NN salvo))(PP (IN in)(NP (NP (DT a)(JJ possible)(JJ full-scale)(NN battle))(PP (IN against)(NP (NNP Ford)(NNP Motor)(NNP Co.)))(PP (IN for)(NP (NP (NN control))(PP (IN of)(NP (DT the)(JJ British)(NN car)(NN maker)))))))))))))) |ET| 
1  |BT| (S (PP-LOC (IN Among)(NP (DT the)(JJ other)(RB actively)(VBN traded)(JJ blue-chip)(NNS issues)))(, ,)(S (NP-SBJ (NNP Imperial)(NNP Chemical)(NNPS Industries))(VP (VBD dropped)(NP-EXT (CD 11))(PP-DIR (TO to)(NP (# #)(CD 10.86)(-NONE- *U*)))))(, ,)(S (NP-SBJ (NNP Hanson))(VP (VBD skidded)(NP-EXT (CD 9.5))(PP (TO to)(NP (CD 200.5)))))(, ,)(CC and)(S (NP-SBJ (NNP British)(NNP Telecom))(VP (VBD fell)(NP-EXT (CD 10))(PP-DIR (TO to)(NP (CD 250)))))(. .)) |ET| 
-0.017637813719699340503366258303686  |BT| (VP (VBD extended)(NP (PRP$ its)(JJ own)(NN offer)(S (NP-SBJ (-NONE- *))(VP (TO to)(VP (VB buy)(NP (QP (CD 22)(CD million))(NNP LIN)(NNS shares))(PP-CLR (IN for)(NP (NP ($ $)(CD 125)(-NONE- *U*))(ADVP (RB apiece))))(, ,)(SBAR-ADV (WHNP-1 (WDT which))(S (NP-SBJ (-NONE- *T*-1))(VP (MD would)(VP (VB give)(NP (NNP McCaw))(NP (DT a)(ADJP (CD 50.3)(NN %))(VBG controlling)(NN interest))))))))))) |ET| 
1  |BT| (VP (VBZ wants)(S (NP-SBJ-2 (-NONE- *-1))(VP (TO to)(VP (VB buy)(NP (NP (QP (RB as)(JJ much)(IN as)(CD 15))(NN %))(PP (IN of)(NP (NNP Jaguar)(NNP PLC))))(, ,)(S-ADV (NP-SBJ (-NONE- *-2))(VP (VBG marking)(NP (NP (PRP$ its)(JJ first)(NN salvo))(PP (IN in)(NP (NP (DT a)(JJ possible)(JJ full-scale)(NN battle))(PP (IN against)(NP (NNP Ford)(NNP Motor)(NNP Co.)))(PP (IN for)(NP (NP (NN control))(PP (IN of)(NP (DT the)(JJ British)(NN car)(NN maker)))))))))))))) |ET| 
-0.23292913652727670337228005337238  |BT| (VP (VBZ expects)(S (NP-SBJ-2 (-NONE- *-1))(VP (TO to)(VP (VB continue)(S (NP-SBJ (-NONE- *-2))(VP (TO to)(VP (VB evaluate)(NP (DT an)(NN acquisition))(PP-TMP (PP (IN from)(NP (NN time)))(PP (TO to)(NP (NN time))))))))))) |ET| 
1  |BT| (VP (VBD bought)(NP (NNP Navigation)(NNP Mixte)(NNS shares))(, ,)(S-ADV (NP-SBJ (DT this)(NN purchase))(VP (VBG covering)(NP (QP (JJR more)(IN than)(CD 160,000))(NNS shares))))) |ET| 
-0.97751653023131013231505903604557  |BT| (VP (VBN told)(NP (-NONE- *-1))(SBAR (IN that)(S (NP-SBJ (NP (DT a)(NN unit))(PP (IN of)(NP (NNP Framatome)(NNP S.A.))))(ADVP (RB also))(VP (VBD bought)(NP (NNP Navigation)(NNP Mixte)(NNS shares))(, ,)(S-ADV (NP-SBJ (DT this)(NN purchase))(VP (VBG covering)(NP (QP (JJR more)(IN than)(CD 160,000))(NNS shares)))))))) |ET| 
1  |BT| (VP (VBG continuing)(S (NP-SBJ-2 (-NONE- *-1))(VP (TO to)(VP (VB try)(S (NP-SBJ (-NONE- *-2))(VP (TO to)(VP (VB sell)(NP (PRP itself))(, ,)(PP-LOC (IN under)(NP (NP (DT a)(NNP June)(NN agreement))(PP (IN with)(NP (DT a)(NN dissident-shareholder)(NN group)))))))))))) |ET| 
-1  |BT| (VP (VB try)(S (NP-SBJ (-NONE- *-2))(VP (TO to)(VP (VB sell)(NP (PRP itself))(, ,)(PP-LOC (IN under)(NP (NP (DT a)(NNP June)(NN agreement))(PP (IN with)(NP (DT a)(NN dissident-shareholder)(NN group))))))))) |ET| 
1  |BT| (VP (VB continue)(S (NP-SBJ (-NONE- *-2))(VP (VBG posting)(NP (NNS declines))))) |ET| 
-0.71695377896272349804718260202208  |BT| (NP (NNS concerns)(SBAR (IN that)(S (NP-SBJ-2 (NNP London)(NNS shares))(VP (MD will)(VP (VB continue)(S (NP-SBJ (-NONE- *-2))(VP (VBG posting)(NP (NNS declines))))))))) |ET| 
1  |BT| (VP (VBZ has)(S (NP-SBJ (CD 13)(NNS facilities))(PP-PRD (IN in)(NP (NN operation))))(, ,)(ADVP (RB up)(PP (IN from)(NP (CD seven))(ADVP-TMP (NP (DT a)(NN year))(RB ago))))) |ET| 
-0.81954378746962897039907147700433  |BT| (VP (VBD said)(SBAR (-NONE- 0)(S (NP-SBJ (PRP it))(VP (VBZ has)(S (NP-SBJ (CD 13)(NNS facilities))(PP-PRD (IN in)(NP (NN operation))))(, ,)(ADVP (RB up)(PP (IN from)(NP (CD seven))(ADVP-TMP (NP (DT a)(NN year))(RB ago)))))))) |ET| 
1  |BT| (VP (VBN left)(NP (-NONE- *-1))(PP-MNR (IN without)(NP (JJ top-flight)(JJ legal)(NN representation)))(, ,)(SBAR-PRP (IN because)(S (NP-SBJ-3 (PRP$ his)(NNS attorneys))(VP (VBP are)(ADJP-PRD (JJ likely)(S (NP-SBJ (-NONE- *-3))(VP (TO to)(VP (VB quit))))))))(, ,)(PP (VBG according)(PP (TO to)(NP (NP (NNS individuals))(ADJP (JJ familiar)(PP (IN with)(NP (DT the)(NN case)))))))) |ET| 
-1  |BT| (VP (VBN left)(NP (-NONE- *-1))(PP-MNR (IN without)(NP (JJ top-flight)(JJ legal)(NN representation)))(, ,)(SBAR-PRP (IN because)(S (NP-SBJ-3 (PRP$ his)(NNS attorneys))(VP (VBP are)(ADJP-PRD (JJ likely)(S (NP-SBJ (-NONE- *-3))(VP (TO to)(VP (VB quit))))))))(, ,)(PP (VBG according)(PP (TO to)(NP (NP (NNS individuals))(ADJP (JJ familiar)(PP (IN with)(NP (DT the)(NN case)))))))) |ET| 
1  |BT| (VP (VBD filed)(NP (NP (DT a)(NN Chapter)(CD 11)(NN reorganization)(NN plan))(SBAR (WHNP-1 (WDT that))(S (NP-SBJ (-NONE- *T*-1))(VP (VBZ provides)(NP (NP (RB just)(CD 1.125)(NNS cents))(NP-ADV (DT a)(NN share)))(PP-BNF (IN for)(NP (JJ common)(NNS stockholders)))))))) |ET| 
-0.33165890439984402338069457982783  |BT| (VP (VB build)(NP (NP (DT a)(NN conglomerate))(SBAR (WHNP-1 (WDT that))(S (NP-SBJ (-NONE- *T*-1))(VP (VBZ has)(VP (VBN been)(VP (VBG doubling)(NP (PRP$ its)(NNS profits))(ADVP-TMP (RB annually))(PP-TMP (IN since)(NP (CD 1980)))))))))(ADVP-MNR (-NONE- *T*-2))) |ET| 
1  |BT| (S (SBAR-ADV (IN While)(S (NP-SBJ (NNS competitors))(VP (VBD moved)(NP (NN production))(ADVP-CLR (RB offshore))(PP (IN in)(NP (NP (NN response))(PP (TO to)(NP (NP (DT the)(VBG sagging)(NN competitiveness))(PP (IN of)(NP (JJ Japanese)(NNS factories))))))))))(, ,)(NP-SBJ (NNP Sansui))(VP (VBD lacked)(NP (NP (DT the)(NN money))(SBAR (WHADVP-1 (-NONE- 0))(S (NP-SBJ (-NONE- *))(VP (TO to)(VP (VB build)(NP (JJ new)(NNS plants))(ADVP-MNR (-NONE- *T*-1))(PP-LOC (IN in)(NP (NNP Southeast)(NNP Asia)))))))))(. .)) |ET| 
-0.59308180575741820117485758601106  |BT| (VP (VBD lacked)(NP (NP (DT the)(NN money))(SBAR (WHADVP-1 (-NONE- 0))(S (NP-SBJ (-NONE- *))(VP (TO to)(VP (VB build)(NP (JJ new)(NNS plants))(ADVP-MNR (-NONE- *T*-1))(PP-LOC (IN in)(NP (NNP Southeast)(NNP Asia))))))))) |ET| 
1  |BT| (S-TPC-1 (PP (RB Even)(IN without)(NP (DT a)(NN specific)(NN takeover)(NN threat)))(, ,)(NP-SBJ (NNP Courtaulds))(VP (VBZ is)(VP (VBG giving)(NP (NNS shareholders))(`` ``)(NP (NN choice)(CC and)(NN value))(, ,)('' '')))) |ET| 
-0.34486804527693626365447698844946  |BT| (VP (VBD retained)(NP (NP (DT the)(NN investment)(NN banking)(NN firm))(PP (IN of)(NP (NNP Donaldson)(, ,)(NNP Lufkin)(CC &)(NNP Jenrette)(NNP Securities)(NNP Inc.)))(SBAR (WHNP-1 (-NONE- 0))(S (NP-SBJ-2 (-NONE- *T*-1))(VP (TO to)(VP (VB act)(PP-CLR (IN as)(NP (PRP$ its)(JJ financial)(NN adviser)))(, ,)(S-ADV (NP-SBJ (-NONE- *-2))(VP (VBG assisting)(PP-CLR (IN in)(NP (NP (DT the)(NN evaluation))(PP (IN of)(NP (NP (JJ various)(ADJP (JJ financial)(CC and)(JJ strategic))(NNS alternatives))(, ,)(PP (VBG including)(NP (NP (NN debt)(NN refinancing))(, ,)(S-NOM (NP-SBJ (-NONE- *))(VP (VBG raising)(NP (NN capital))))(, ,)(NP (NN recapitalization))(, ,)(NP (NP (DT a)(NN merger)(CC or)(NN sale))(PP (IN of)(NP (DT the)(NN company)))))))))))))))))) |ET| 
1  |BT| (VP (VBG pouring)(PP-DIR (IN out)(PP (IN of)(NP (NP (DT the)(NN nation)(POS 's))(NN junk-bond)(JJ mutual)(NNS funds))))(, ,)(S-ADV (NP-SBJ (-NONE- *-1))(VP (VBG undermining)(NP (NP (DT a)(NN pillar))(PP (IN of)(NP (NN support)))(PP-LOC (IN in)(NP (DT the)(ADJP (RB already)(VBG reeling))(NN junk)(NN market))))))) |ET| 
-0.20528442135102334398233381307364  |BT| (VP (VB succeed)(SBAR-PRP (IN because)(S (NP-SBJ (JJ many)(NNS shareholders))(VP (VBP are)(NP-PRD (NP (NP (NNS speculators))(ADJP (JJ keen)(PP (IN for)(NP (DT a)(JJ full)(NN bid)))))(CC or)(NP (NP (JJ institutional)(NNS investors))(ADJP (JJ unhappy)(PP (IN over)(NP (NP (NP (NNP Jaguar)(NN management)(POS 's))(VBG handling))(PP (IN of)(NP (PRP$ its)(JJ current)(JJ financial)(NNS difficulties)))))))))))) |ET| 
1  |BT| (VP (VBN fluctuated)(ADVP-MNR (RB sharply))(PP (IN on)(NP (NN takeover)(NN speculation)))(, ,)(S-ADV (NP-SBJ (-NONE- *-1))(VP (VBG rising)(PP-DIR (TO to)(NP (NP (DT a)(JJ high))(PP (IN for)(NP (DT the)(NN year)))(PP (IN of)(NP (NP ($ $)(CD 42.875)(-NONE- *U*))(NP-ADV (DT a)(NN share)))))(PP-TMP (IN in)(NP (NNP June))))(PP-DIR (IN from)(NP ($ $)(CD 29.75)(-NONE- *U*))(PP-TMP (IN in)(NP (NNP March))))))) |ET| 
-0.41258820533593598689492409903323  |BT| (VP (VBD shed)(NP (NP (CD 8.5)(NN pence))(NP-ADV (DT a)(NN share)))(S-CLR (NP-SBJ (-NONE- *-1))(VP (TO to)(VP (VB close)(PP-CLR (IN at)(NP (NP (CD 185)(NN pence))(PRN (-LRB- -LRB-)(NP ($ $)(CD 2.90)(-NONE- *U*))(-RRB- -RRB-)))))))) |ET| 
1  |BT| (VP (VBD reported)(NP (NP (DT a)(ADJP (CD 47)(NN %))(NN decline))(PP (IN in)(NP (NN fourth-quarter)(NNS earnings))))(, ,)(S-ADV (NP-SBJ (-NONE- *))(VP (VBG reflecting)(NP (NP (NN restructuring)(NNS costs))(CONJP (RB as)(RB well)(IN as))(NP (DT a)(ADJP (RBR more)(JJ difficult))(NN pet)(NN food)(NN market)))))) |ET| 
-0.34151216220383739941013345742249  |BT| (VP (VBD fell)(NP-EXT (CD 30)(NN %))(PP-DIR (TO to)(NP (QP ($ $)(CD 59)(CD million))(-NONE- *U*)))(, ,)(S-ADV (NP-SBJ (-NONE- *))(VP (VBG reflecting)(NP (NP (JJR higher)(NN catastrophe)(NNS losses))(CC and)(NP (NP (DT the)(NN price)(NN war))(PP-LOC (IN in)(NP (DT the)(NN property\/casualty)(NN market)))(PP-TMP (IN for)(NP (QP (RB nearly)(CD three))(NNS years)))))))) |ET| 
1  |BT| (VP (VBD went)(ADJP-PRD (JJ public))(NP-TMP (RBR earlier)(DT this)(NN month))(, ,)(S-ADV (NP-SBJ (-NONE- *-1))(VP (VBG offering)(NP (NP (CD 1,745,000)(NNS shares))(PP (IN of)(NP (JJ common)(NN stock))))(PP (IN at)(NP (NP ($ $)(CD 15)(-NONE- *U*))(NP-ADV (DT a)(NN share))))))) |ET| 
-0.44176184783025995717054001943325  |BT| (VP (VB plan)(S (NP-SBJ (-NONE- *-1))(VP (TO to)(VP (VB obtain)(NP (NP (NN control))(PP (IN of)(NP (NP (NNP Octel))(, ,)(NP (NP (DT a)(NAC-LOC (NNP Milpitas)(, ,)(NNP Calif.)(, ,))(NN maker))(PP (IN of)(NP (JJ voice-processing)(NNS systems))))))))))) |ET| 
-0.46009981286556261848019744320482  |BT| (VP (VBN proposed)(S (NP-SBJ (-NONE- *))(VP (VBG acquiring)(NP (NNP Mesa))(PP-CLR (IN for)(NP (NP (NP ($ $)(CD 7)(-NONE- *U*))(NP-ADV (DT a)(NN share)))(CC and)(NP (NP (CD one)(NN share))(PP (IN of)(NP (NP (DT a)(JJ new)(NN series))(PP (IN of)(NP (NNP StatesWest)(ADJP (CD 6)(NN %))(JJ convertible)(JJ preferred)(NN stock)))(SBAR (WHNP-2 (-NONE- 0))(S (NP-SBJ (PRP it))(VP (VBZ values)(NP (-NONE- *T*-2))(PP-CLR (IN at)(NP (NP ($ $)(CD 3)(-NONE- *U*))(NP-ADV (DT a)(NN share))))))))))))))) |ET| 
-0.33741584440279709378174288758601  |BT| (S (PP-LOC (IN Under)(NP (PRP$ its)(VBN revised)(NN proposal)))(, ,)(NP-SBJ (JJ Atlanta-based)(NNP BellSouth))(VP (VP (MD would)(VP (VB have)(NP (NP (DT a)(ADJP (CD 50)(NN %))(NN interest))(PP (IN in)(NP (DT the)(JJ new)(JJ cellular)(NN company))))))(CC and)(VP (MD would)(VP (VB be)(ADJP-PRD (JJ responsible)(PP (IN for)(NP (NP (DT half))(PP (IN of)(NP (PRP$ its)(NN debt)))))))))(. .)) |ET| 
-0.36023608868018341944150506606093  |BT| (VP (VBZ succeeds)(NP (NP (NNP James)(NNP A.)(NNP Taylor))(, ,)(SBAR (WHNP-1 (WP who))(S (NP-SBJ (-NONE- *T*-1))(VP (VBD stepped)(PRT (RP down))(PP-CLR (IN as)(NP (NP (NN chairman))(, ,)(NP (NN president))(CC and)(NP (NN chief)(NN executive))))(PP-TMP (IN in)(NP (NNP March)))(PP-PRP (IN for)(NP (NN health)(NNS reasons)))))))) |ET| 
-0.60987313378465046742604727114667  |BT| (VP (VBD filed)(NP (DT a)(NN lawsuit))(PP-LOC (IN in)(NP (NNP Delaware)(NNP Chancery)(NNP Court)))(S-PRP (NP-SBJ (-NONE- *-1))(VP (TO to)(VP (VB block)(NP (NP (DT a)(NN tender)(NN offer))(PP (IN by)(NP (NNP DPC)(NNP Acquisition)(NNP Partners)))))))(, ,)(S-ADV (NP-SBJ (-NONE- *-1))(VP (VBG alleging)(SBAR (IN that)(S (NP-SBJ (DT the)(NN hostile)(NN offer))(VP (VBZ violates)(NP (NP (DT a)(JJ standstill)(NN agreement))(PP (IN between)(NP (DT the)(CD two)(NNS concerns)))))))))) |ET| 
-0.33195996065126909257969600730576  |BT| (S (S-ADV (NP-SBJ (-NONE- *-1))(VP (VBG Reflecting)(NP (DT the)(NN concern))))(, ,)(NP-SBJ-1 (NNP Unisys)(NN stock))(VP (VBD fell)(NP-EXT (DT a)(JJ further)(CD 75)(NNS cents))(PP-DIR (TO to)(NP ($ $)(CD 16.25)(-NONE- *U*)))(PP-LOC (IN in)(NP (JJ composite)(NN trading)))(NP-TMP (NNP Friday))(PP-LOC (IN on)(NP (DT the)(NNP New)(NNP York)(NNP Stock)(NNP Exchange))))(. .)) |ET| 
-0.122078515581665270062217132363  |BT| (S (S-TPC-1 (PP-TMP (IN In)(NP (DT the)(JJ past)(CD two)(NNS months)))(NP-SBJ (NP (DT the)(NN nation)(POS 's))(CD 88)(NN junk)(NNS funds))(VP (VBP have)(VP (VBN lost)(NP (NP (DT a)(NN total))(PP (IN of)(NP (NP (QP (IN about)($ $)(CD 6)(CD billion))(-NONE- *U*))(PRN (: --)(NP (NP (QP (JJR more)(IN than)(CD 15))(NN %))(PP (IN of)(NP (NNS assets))))(: --)))))(PP-MNR (IN through)(NP (NP (NNS sales)(CC or)(NNS transfers))(PP (IN of)(NP (NN junk-fund)(NNS shares))))))))(, ,)(NP-SBJ (NNP Dalbar))(VP (VBZ says)(SBAR (-NONE- 0)(S (-NONE- *T*-1))))(. .)) |ET| 
-0.28488519509368859239373250602512  |BT| (VP (VB fall)(ADVP-CLR (RB through))(SBAR-ADV (IN if)(S (NP-SBJ (NN financing)(NNS problems))(VP (VBP develop))))) |ET| 
-0.25912790447803596416420646164624  |BT| (NP (DT an)(NN option)(S (NP-SBJ (-NONE- *))(VP (TO to)(VP (VB buy)(NP (NP (DT a)(ADJP (CD 30.84)(NN %))(NN stake))(PP-LOC (IN in)(NP (NNP BIP))))(PP-CLR (IN from)(NP (NNP Societe)(NNP Generale)))(PP-TMP (IN after)(NP (NNP Jan.)(CD 1)(, ,)(CD 1990)))(PP (IN at)(NP (NP (CD 1,015)(NNS francs))(NP-ADV (DT a)(NN share)))))))) |ET| 
-0.28557468740672531382074339489918  |BT| (VP (VBN proposed)(S (NP-SBJ (-NONE- *-1))(VP (VBG changing)(NP (NP (DT the)(NN offer))(PP (IN for)(NP (DT the)(NN company))))(PP-CLR (TO to)(NP (NP ($ $)(CD 13.65)(-NONE- *U*))(PP (IN in)(NP (NN cash)(CC and)(NN stock)))))(PP-CLR (IN from)(NP (DT an)(JJ all-cash)(NN transaction)))))) |ET| 
-0.20650398610266929022571957830223  |BT| (VP (VBD innovated)(NP (NP (NP (NN telephone)(NNS redemptions))(, ,)(NP (JJ daily)(NNS dividends))(, ,)(NP (NP (JJ total)(NN elimination))(PP (IN of)(NP (NN share)(NNS certificates))))(CC and)(NP (DT the)(JJ constant)(ADJP ($ $)(CD 1)(-NONE- *U*)(JJ pershare))(NN pricing)))(, ,)(SBAR (WHNP-154 (NP (DT all))(WHPP (IN of)(WHNP (WDT which))))(S (NP-SBJ-1 (-NONE- *T*-154))(VP (VBD were)(UCP-PRD (VP (ADVP-MNR (RB painfully))(VBN thought)(NP (-NONE- *-1))(ADVP-CLR (RB out)))(CC and)(RB not)(NP (NP (DT the)(NN result))(PP (IN of)(NP (NP (DT some)(NN inadvertence))(PP (IN on)(NP (NP (DT the)(NN part))(PP (IN of)(NP (DT the)(NNP SEC)))))))))))))) |ET| 
-0.21621924585277121910742437194131  |BT| (VP (VBZ wants)(S (NP-SBJ (-NONE- *-1))(VP (TO to)(VP (VB resume)(NP (NP (DT a)(ADJP (RBR more)(JJ influential))(NN role))(PP-LOC (IN in)(S-NOM (NP-SBJ (-NONE- *))(VP (VBG running)(NP (DT the)(NN company)))))))))) |ET| 
-0.21616278903154900747907163349737  |BT| (S (S (S-TPC-1 (NP-SBJ (NP (NNP Fidelity)(POS 's))(NN junk)(NN fund))(VP (VBZ has)(VP (VBN fallen)(NP-EXT (CD 2.08)(NN %))(NP-TMP (NP (DT this)(NN year))(PP (IN through)(NP (NNP Oct.)(CD 19)))))))(, ,)(NP-SBJ (NNP Lipper))(VP (VBZ says)(SBAR (-NONE- 0)(S (-NONE- *T*-1)))))(: ;)(S (NP-SBJ (DT the)(NNP Vanguard)(NN fund))(VP (VBD rose)(NP-EXT (CD 1.84)(NN %))))(: ;)(CC and)(S (NP-SBJ (DT the)(NNP T.)(NNP Rowe)(NNP Price)(NN fund))(VP (VBD edged)(ADVP-DIR (RB up))(NP-EXT (CD 0.66)(NN %))))(. .)) |ET| 
-0.35749469331088179480104827234754  |BT| (VP (VBN started)(S (NP-SBJ (-NONE- *-1))(VP (VBG processing)(NP (NP (NNS claims))(PP (IN from)(NP (DT the)(NNP Northern)(NNP California)(NN earthquake))))))(ADVP-TMP (NP (QP (RB nearly)(CD two))(NNS weeks))(IN ago))) |ET| 
-0.20610066800848822476943666970328  |BT| (VP (VBZ expects)(S (NP-SBJ (NP (JJ net)(NN income))(PP-TMP (IN in)(NP (NP (DT the)(NN year))(VP (VBG ending)(NP-TMP-CLR (NNP June)(CD 30)(, ,)(CD 1990)(, ,))))))(VP (TO to)(VP (VB fall)(PP-DIR (IN below)(NP (NP (NP (DT a)(JJ recent)(NN analyst)(POS 's))(NN estimate))(PP (IN of)(NP (NP ($ $)(CD 1.65)(-NONE- *U*))(NP-ADV (DT a)(NN share)))))))))) |ET| 
-0.40520453718943738596891535053146  |BT| (VP (VBN pushed)(NP (NP (NNP LIN))(CC and)(NP (NNP BellSouth)))(PP-CLR (IN into)(NP (DT a)(NN corner)))(ADVP-MNR (-NONE- *T*-1))(, ,)(S-ADV (NP-SBJ (-NONE- *-2))(VP (VBG forcing)(NP (JJ huge)(NN debt))(PP-CLR (IN on)(NP (DT the)(VBN proposed)(JJ new)(NN company)))))) |ET| 
-0.28081937838825243858309477218427  |BT| (S (SBAR-ADV (IN If)(S (NP-SBJ-2 (DT the)(NN government))(VP (VBZ succeeds)(PP-CLR (IN in)(S-NOM (NP-SBJ (-NONE- *-2))(VP (VBG seizing)(NP (NP (NNP Mr.)(NNP Antar)(POS 's))(NNS assets))))))))(, ,)(NP-SBJ-1 (PRP he))(VP (MD could)(VP (VB be)(VP (VBN left)(NP (-NONE- *-1))(PP-MNR (IN without)(NP (JJ top-flight)(JJ legal)(NN representation)))(, ,)(SBAR-PRP (IN because)(S (NP-SBJ-3 (PRP$ his)(NNS attorneys))(VP (VBP are)(ADJP-PRD (JJ likely)(S (NP-SBJ (-NONE- *-3))(VP (TO to)(VP (VB quit))))))))(, ,)(PP (VBG according)(PP (TO to)(NP (NP (NNS individuals))(ADJP (JJ familiar)(PP (IN with)(NP (DT the)(NN case))))))))))(. .)) |ET| 
-0.17129701264210639433116512009292  |BT| (NP (NP (DT a)(JJR higher)(NN price))(SBAR (IN than)(S (NP-SBJ (DT some)(NNS analysts))(VP (VBD had)(VP (VBN expected)(NP (-NONE- *?*))))))) |ET| 
-0.24704406682459792432560163888411  |BT| (VP (VB help)(S (NP-SBJ (-NONE- *-1))(VP (VB fend)(PRT (RP off))(NP (NP (DT an)(JJ unwelcome)(NN takeover)(NN bid))(PP (IN for)(NP (DT the)(NN company))))))) |ET| 
-0.34738712432308604949326991118141  |BT| (NP (NP (PRP$ its)(NN tender)(NN offer))(PP (IN of)(NP (NP (NP ($ $)(CD 18)(-NONE- *U*))(NP-ADV (DT a)(NN share)))(, ,)(CC or)(NP (QP (IN about)($ $)(CD 576)(CD million))(-NONE- *U*))))(, ,)(PP (IN for)(NP (NP (DT the)(CD 33)(NN %))(PP (IN of)(NP (NNP Telerate)(NNP Inc.)))(SBAR (WHNP-1 (IN that))(S (NP-SBJ (PRP it))(VP (VBZ does)(RB n't)(ADVP-TMP (RB already))(VP (JJ own)(NP (-NONE- *T*-1))))))))) |ET| 
-0.31438869401915398027469450425997  |BT| (VP (VBN agreed)(S (NP-SBJ (-NONE- *-1))(VP (TO to)(VP (VB exercise)(NP (NP (DT any)(NNS rights))(SBAR (WHNP-175 (WDT that))(S (NP-SBJ-2 (-NONE- *T*-175))(VP (VBP are)(RB n't)(VP (VBN exercised)(NP (-NONE- *-2))(PP (IN by)(NP-LGS (JJ other)(NNS shareholders)))))))))))) |ET| 
-0.18248192996109810493088332350453  |BT| (NP (NP (NN closing))(, ,)(SBAR (WHNP-2 (WDT which))(S (NP-SBJ-1 (-NONE- *T*-2))(VP (VBZ is)(VP (VBN expected)(NP (-NONE- *-1))(PP-TMP (IN in)(NP (NNP December)))))))) |ET| 
-0.21431197250953937238904245532467  |BT| (S (CC But)(SBAR-TMP (IN as)(S (NP-SBJ (DT the)(NN craze))(VP (VBD died))))(, ,)(NP-SBJ-1 (NNP Coleco))(VP (VP (VBD failed)(S (NP-SBJ (-NONE- *-1))(VP (TO to)(VP (VB come)(PRT (RP up))(PP-CLR (IN with)(NP (DT another)(NN winner)))))))(CC and)(VP (VBD filed)(PP-CLR (IN for)(NP (JJ bankruptcy-law)(NN protection)))(PP-TMP (IN in)(NP (NNP July)(CD 1988)))))(. .)) |ET| 
-0.20514154805857195973395334931411  |BT| (VP (VBD recommended)(NP (NP (DT a)(NN suspension))(PP (IN of)(NP (NP (NN dividend)(NNS payments))(PP (IN on)(NP (PDT both)(PRP$ its)(ADJP (JJ common)(CC and)(JJ preferred))(NN stock))))))(SBAR-PRP (IN because)(S (NP-SBJ (NNP Crossland))(VP (MD may)(RB not)(VP (VB meet)(NP (NP (DT the)(JJ new)(NN government)(NN capital)(NNS criteria))(ADJP (JJ effective)(NP-TMP (NNP Dec.)(CD 7))))))))) |ET| 
-0.2124210068923448047062407795238  |BT| (VP (VBD said)(NP-TMP (NNP Friday))(SBAR (IN that)(S (NP-SBJ (PRP it))(VP (VBD had)(NP (NP (NNS losses))(PP (IN of)(NP (QP ($ $)(CD 673.3)(CD million))(-NONE- *U*))))(PP-TMP (IN through)(NP (DT the)(JJ first)(CD nine)(NNS months)))(, ,)(PP (VBN compared)(PP (IN with)(NP (NP (NNS earnings))(NP-TMP (DT a)(NN year)(RBR earlier))(PP (IN of)(NP (NP (QP ($ $)(CD 382.2)(CD million))(-NONE- *U*))(, ,)(CC or)(NP (NP ($ $)(CD 2.22)(-NONE- *U*))(NP-ADV (DT a)(NN share))(ADJP (RB fully)(VBN diluted))))))))(, ,)(SBAR-ADV (IN as)(S (NP-SBJ (NN revenue))(VP (VBD inched)(ADVP-DIR (RB up))(NP-EXT (CD 1.4)(NN %))(PP-DIR (TO to)(NP (QP ($ $)(CD 7.13)(CD billion))(-NONE- *U*)))(PP-DIR (IN from)(NP (QP ($ $)(CD 7.03)(CD billion))(-NONE- *U*)))))))))) |ET| 
-0.26949788068180363653780773347535  |BT| (VP (VBN designed)(, ,)(ADVP (RB particularly))(, ,)(S (NP-SBJ (-NONE- *-2))(VP (TO to)(VP (VB take)(S (NP-SBJ (DT the)(NN company))(ADJP-PRD (JJ private))))))) |ET| 
-0.27572711049525316928665574778279  |BT| (VP (ADVP-MNR (RB greatly))(VB expand)(NP (NP (NNP Sansui)(POS 's))(NN product)(NN line))(, ,)(S-ADV (NP-SBJ (-NONE- *-2))(VP (VBG using)(NP-1 (NP (NNP Sansui)(POS 's))(NNS engineers))(S-CLR (NP-SBJ (-NONE- *-1))(VP (TO to)(VP (VB design)(NP (DT the)(JJ new)(NNS products)))))))) |ET| 
-0.31104142674666440671060740896792  |BT| (VP (VBD said)(SBAR (-NONE- 0)(S (NP-SBJ (NN net))(VP (VBD rose)(PP-DIR (TO to)(NP (NP (QP ($ $)(CD 108.8)(CD million))(-NONE- *U*))(, ,)(CC or)(NP (NP ($ $)(CD 1.35)(-NONE- *U*))(NP-ADV (DT a)(NN share)))(, ,)))(PP-DIR (IN from)(NP (NP (QP ($ $)(CD 90.5)(CD million))(-NONE- *U*))(, ,)(CC or)(NP (NP ($ $)(CD 1.12)(-NONE- *U*))(NP-ADV (DT a)(NN share))))(, ,)(ADVP-TMP (NP (DT a)(NN year))(RB ago))))))) |ET| 
-0.1880103315353790216502005705479  |BT| (VP (VBD retained)(NP (NP (CD three)(NN investment)(NNS bankers))(SBAR (WHNP-1 (-NONE- 0))(S (NP-SBJ (-NONE- *T*-1))(VP (TO to)(VP (VB assist)(NP (PRP it))(PP-LOC (IN in)(S-NOM (NP-SBJ (-NONE- *))(VP (VBG developing)(CC and)(VBG implementing)(NP (DT a)(JJ financial)(NN restructuring)(NN plan))))))))))) |ET| 
-0.25494468634105699189618121636158  |BT| (VP (VBD said)(SBAR (-NONE- 0)(S (NP-SBJ (DT the)(NN stock))(VP (VBZ remains)(ADJP-PRD (JJ convertible)(PP (IN into)(NP (JJ common)(NN stock)))(PP (IN at)(NP (NP (DT the)(NN rate))(PP (IN of)(NP (NP (CD 1.439)(NNS shares))(PP (IN of)(NP (JJ common)(NN stock)))(PP (IN for)(NP (NP (DT each)(NN share))(PP (IN of)(NP (VBN preferred)(NN stock)))(, ,)))))(SBAR (WHNP-1 (WDT which))(S (NP-SBJ (-NONE- *T*-1))(VP (VBZ is)(ADJP-PRD (JJ equivalent)(PP (TO to)(NP (NP (DT a)(NN conversion)(NN price))(PP (IN of)(NP (NP ($ $)(CD 17.50)(-NONE- *U*))(NP-ADV (DT a)(JJ common)(NN share))))))))))))))))) |ET| 
-0.27469551520294449575843032107514  |BT| (VP (VBD decided)(S (NP-SBJ (-NONE- *-1))(VP (TO to)(VP (VB grant)(NP (NP (JJ duty-free)(NN status))(PP (IN for)(NP (CD 18)(NNS categories)))))))) |ET| 
-0.33493984811640686860556570536573  |BT| (VP (VBG seeking)(S (NP-SBJ (-NONE- *-1))(VP (TO to)(VP (VB oust)(NP (NNP Mr.)(NNP Edelman))(PP-CLR (IN as)(NP (NP (NN chairman))(PP (IN of)(NP (NP (NNP Datapoint)(NNP Corp.))(, ,)(NP (DT an)(NNP Intelogic)(NN affiliate)))))))))) |ET| 
-0.22006164580615547587960634245974  |BT| (VP (VBD agreed)(S (NP-SBJ (-NONE- *-1))(VP (TO to)(VP (VB pay)(NP (NP ($ $)(CD 19)(-NONE- *U*))(CC and)(NP (NN one-eighth)(NNP QVC)(NN share)))(PP-CLR (IN for)(NP (NP (DT each))(PP (IN of)(NP (NP (NNP CVN)(POS 's))(QP (CD 20)(CD million))(RB fully)(JJ diluted)(NNS shares))))))))) |ET| 
-0.2447969135385261174597815170273  |BT| (S (PP (IN In)(S-NOM (NP-SBJ (-NONE- *-1))(VP (VBG announcing)(NP (DT the)(NN plant)(NN delay)))))(, ,)(NP-SBJ-1 (NNP Kellogg)(NNP Chairman)(NNP William)(NNP E.)(NNP LaMothe))(VP (VBD said)(, ,)(`` ``)(S (NP-SBJ (NP (NN Cereal)(NN volume)(NN growth))(PP-LOC (IN in)(NP (DT the)(NNP U.S.))))(VP (VBZ has)(RB not)(VP (VBN met)(NP (NP (PRP$ our)(NNS expectations))(PP (IN for)(NP (CD 1989))))))))(. .)('' '')) |ET| 
-0.20505565319822971481755757849896  |BT| (PP (IN in)(NP (DT an)(NN attempt)(S (NP-SBJ (-NONE- *))(VP (TO to)(VP (VB buy)(NP (NN time))))))) |ET| 
-0.21270124512203369970819721856969  |BT| (S (`` ``)(S-TPC-2 (SBAR-ADV (IN If)(S (NP-SBJ (PRP I))(VP (VBD were)(VP (VBG choosing)(NP (NP (DT the)(NNS people))(PP (IN of)(NP (NN tomorrow))))))))(, ,)(NP-SBJ (PRP I))(VP (MD would)(VP (VB have)(VP (VBN chosen)(NP (NP (DT the)(NNS people))(SBAR (WHNP-1 (WP who))(S (NP-SBJ (-NONE- *T*-1))(VP (VBP are)(ADVP-TMP (RB now))(PP-PRD (IN on)(NP (DT the)(NN board)))))))))))(, ,)('' '')(NP-SBJ (PRP he))(VP (VBD said)(S (-NONE- *T*-2)))(. .)) |ET| 
-0.2425000899631506723341800579874  |BT| (VP (VBZ expects)(S (NP-SBJ (-NONE- *-1))(VP (TO to)(VP (VB release)(NP (JJ third-quarter)(NNS results))(PP-TMP (IN in)(NP (NNP mid-November))))))) |ET| 
-0.13967597105348025787741050862678  |BT| (VP (VBN turned)(PRT (RP down))(NP (NP (DT a)(NN number))(PP (IN of)(NP (NNS cases))))(S-PRP (NP-SBJ (-NONE- *-6))(VP (TO to)(VP (VB avoid)(NP (JJ possible)(NN fee)(NNS seizures)))))) |ET| 
-0.27549782108018427972950803450658  |BT| (VP (VB seek)(S (NP-SBJ (-NONE- *-1))(VP (TO to)(VP (VB make)(NP (NP (DT a)(JJ public)(NN share)(NN offering))(PP-LOC (IN in)(NP (PRP$ its)(NNP U.K.)(NN business)))))))) |ET| 
-0.29371742712768594829597645912145  |BT| (VP (VBD reduced)(NP (NN computer)(NNS inventories))(NP-EXT (DT a)(JJ further)(QP ($ $)(CD 100)(CD million))(-NONE- *U*))(PP-TMP (IN during)(NP (DT the)(NN quarter)))(, ,)(S-ADV (NP-SBJ (-NONE- *))(VP (VBG leaving)(S (NP-SBJ (PRP it))(PP-PRD-LOC (IN within)(NP (NP (QP ($ $)(CD 100)(CD million))(-NONE- *U*))(PP (IN of)(NP (NP (PRP$ its)(NN goal))(PP (IN of)(NP (NP (DT a)(NN reduction))(PP (IN of)(NP (QP ($ $)(CD 500)(CD million))(-NONE- *U*)))(PP-TMP (IN by)(NP (NP (DT the)(NN end))(PP (IN of)(NP (DT the)(NN year))))))))))))))) |ET| 
-0.22305997368657817792048092542245  |BT| (VP (VBN structured)(NP (-NONE- *-1))(NP-MNR (DT this)(NN way))(SBAR-PRP (IN because)(S (NP-SBJ (NP (DT the)(NNS laws))(PP (IN of)(NP (DT the)(NNPS Netherlands)(NNPS Antilles)))(, ,)(SBAR (WHPP-3 (IN under)(WHNP (WDT which)))(S (NP-SBJ-2 (NNP Erbamont))(VP (VBZ is)(VP (VBN organized)(NP (-NONE- *-2))(PP-LOC (-NONE- *T*-3))))))(, ,))(VP (VBP do)(RB n't)(VP (VB provide)(PP-CLR (IN for)(NP (NN merger)(NNS transactions)))))))) |ET| 
-0.23668903366698612611429552998743  |BT| (VP (VB say)(ADVP-MNR (RB directly))(SBAR (IN whether)(S (NP-SBJ (NNP Mr.)(NNP Pattison))(VP (VBZ has)(VP (VBN disclosed)(NP (NP (JJ potential)(NNS terms))(PP (IN for)(NP (NP (PRP$ his)(JJ planned)(NN bid))(PP (IN for)(NP (NN control))))))))))) |ET| 
-0.26534237666107129971493350240053  |BT| (VP (VBD said)(SBAR (-NONE- 0)(S (NP-SBJ (PRP it))(VP (VBD had)(NP (NP (DT a)(NN loss))(PP (IN of)(NP (NP ($ $)(CD 158,666)(-NONE- *U*))(, ,)(CC or)(NP (NP (CD 10)(NNS cents))(NP-ADV (DT a)(NN share)))(, ,))))(PP-TMP (IN in)(NP (DT the)(JJ third)(NN quarter)))(, ,)(PP (VBN compared)(PP (IN with)(NP (NP (DT a)(JJ year-earlier)(NN loss))(PP (IN of)(NP (NP ($ $)(CD 26,956)(-NONE- *U*))(, ,)(CC or)(NP (NP (CD two)(NNS cents))(NP-ADV (DT a)(NN share)))))))))))) |ET| 
-0.20879558694413419273061549574777  |BT| (VP (VBZ expects)(S (NP-SBJ (-NONE- *-1))(VP (TO to)(VP (VB report)(NP (NP (DT a)(NN third-quarter)(JJ net)(NN loss))(PP (IN of)(NP (QP ($ $)(CD 17)(CD million)(TO to)($ $)(CD 19)(CD million))(-NONE- *U*))))(PP-PRP (IN because)(IN of)(NP (NP (JJ special)(NNS reserves))(CC and)(NP (VBN continued)(JJ low)(NN natural-gas)(NNS prices)))))))) |ET| 
-0.20798018501406492775096523928369  |BT| (S (S (NP-SBJ (NP (DT The)(NAC-LOC (NNP Avon)(, ,)(NNP Conn.)(, ,))(NN company)(POS 's))(NN stock))(VP (VBD hit)(NP (DT a)(JJ high))(PP-TMP (IN in)(NP (CD 1983)))(SBAR-TMP (IN after)(S (NP-SBJ (PRP it))(VP (VBD unveiled)(NP (PRP$ its)(NNP Adam)(NN home)(NN computer)))))))(, ,)(CC but)(S (S (NP-SBJ-1 (DT the)(NN product))(VP (VBD was)(VP (VBN plagued)(NP (-NONE- *-1))(PP-CLR (IN with)(NP (NNS glitches))))))(CC and)(S (NP-SBJ (NP (DT the)(NN company)(POS 's))(NNS fortunes))(VP (VBD plunged))))(. .)) |ET| 
-0.14719311431625620167906731694529  |BT| (SINV (S-TPC-2 (`` ``)(NP-SBJ (PRP I))(ADVP (RB really))(VP (VBP do)(RB n't)(VP (VB see)(S (NP-SBJ (DT the)(NN government))(VP (VBG doing)(NP (NP (NN something))(SBAR (WHNP-1 (DT that))(S (NP-SBJ (NNP Jaguar))(VP (VBZ does)(RB n't)(VP (VB want)(NP (-NONE- *T*-1)))))))(PP-TMP (IN over)(NP (DT the)(JJ next)(CD 14)(NNS months)))))))(, ,)('' ''))(VP (VBD said)(S (-NONE- *T*-2)))(NP-SBJ (NP (NNP Kenneth)(NNP Warren))(, ,)(NP (NP (NP (DT a)(JJ Conservative)(NN member))(PP (IN of)(NP (NNP Parliament))))(CC and)(NP (NP (NN chairman))(PP (IN of)(NP (NP (DT the)(NNP Select)(NNP Committee))(PP (IN on)(NP (NNP Trade)(CC and)(NNP Industry)))(PP-LOC (IN in)(NP (NP (NP (NNP Britain)(POS 's))(NNP House))(PP (IN of)(NP (NNPS Commons))))))))))(. .)) |ET| 
-0.1764087713003830715230435544072  |BT| (VP (VBD agreed)(SBAR (IN that)(S (PP-PRP (IN as)(NP (NP (DT a)(NN result))(PP (IN of)(S-NOM (NP-SBJ (-NONE- *))(VP (VBG reaching)(NP (DT a)(ADJP (QP ($ C)(CD 415)(CD million))(-NONE- *U*))(NN research)(NN accord)))))))(, ,)(`` ``)(NP-SBJ (NP (PRP It))(SBAR (-NONE- *EXP*-1)))(VP (VBZ is)(ADJP-PRD (JJ unnecessary))(SBAR-1 (IN that)(S (NP-SBJ (EX there))(VP (VB be)(NP-PRD (NP (DT a)(NN judgment))(PP (IN on)(NP (NP (DT the)(NNS merits))(-LRB- -LCB-)(PP (IN of)(NP (DT the)(NN case)))(-RRB- -RCB-))))(PP-TMP (IN at)(NP (DT this)(NN time)))))))))) |ET| 
-0.1615635277522846913189624729057  |BT| (S (NP-SBJ (DT The)(NN company))(ADVP (RB also))(VP (VBD adopted)(NP (DT an)(JJ anti-takeover)(NN plan)))(. .)) |ET| 
-0.19287307348182666788538597302249  |BT| (VP (VB be)(ADJP-PRD (JJ unwilling)(S (NP-SBJ (-NONE- *-3))(VP (TO to)(VP (VB take)(NP (JJ criminal)(NNS cases))))))(SBAR-ADV (IN unless)(S (NP-SBJ-1 (PRP they))(VP (VBP are)(VP (VBN assured)(NP (-NONE- *-1))(PP-CLR (IN of)(S-NOM (NP-SBJ-2 (-NONE- *))(VP (VBG being)(VP (VBN paid)(NP (-NONE- *-2))))))))))) |ET| 
-0.2152270979973451847655496749212  |BT| (VP (VB convince)(S (NP-SBJ (DT the)(JJ Conservative)(NN government))(VP (TO to)(VP (VB keep)(NP (NP (PRP$ its)(JJ so-called)(JJ golden)(NN share))(, ,)(SBAR (WHNP-1 (WDT which))(S (NP-SBJ (-NONE- *T*-1))(VP (VBZ limits)(NP (DT any)(JJ individual)(NN holding))(PP-CLR (TO to)(NP (CD 15)(NN %))))))(, ,))(SBAR-TMP (IN until)(S (NP-SBJ (DT the)(NN restriction))(VP (VBZ expires)(PP-CLR-TMP (IN on)(NP (NNP Dec.)(CD 31)(, ,)(CD 1990)))))))))) |ET| 
-0.20360187708849059040616680249514  |BT| (S (S-TPC-1 (NP-SBJ (NP (NNP David)(NNP L.)(NNP Koffman))(, ,)(NP (NP (NP (NN president))(CC and)(NP (JJ chief)(JJ executive)(NN officer)))(PP (IN of)(NP (NNP Jayark))))(, ,))(VP (VBZ holds)(NP (NP (QP (RB about)(CD 40))(NN %))(PP (IN of)(NP (NNP Kofcoh))))))(, ,)(NP-SBJ (NNP Jayark))(VP (VBD said)(SBAR (-NONE- 0)(S (-NONE- *T*-1))))(. .)) |ET| 
-0.15776782693103769128484259454126  |BT| (VP (VBN estimated)(SBAR (-NONE- 0)(S (NP-SBJ (NP (NNS earnings))(PP (IN for)(NP (NP (PRP$ its)(JJ fourth)(NN quarter))(VP (VBD ended)(NP-TMP-CLR (NNP Sept.)(CD 30))))))(VP (VBD fell)(NP-EXT (CD 50)(NN %))(PP-CLR (TO to)(NP (CD 75)(NN %)))(PP (IN below)(NP (NP (DT the)(JJ year-earlier)(QP ($ $)(CD 4.5)(CD million))(-NONE- *U*))(, ,)(CC or)(NP (NP (CD 51)(NNS cents))(NP-ADV (DT a)(NN share))))))))) |ET| 
-0.23779367587792074600905323222833  |BT| (NP (NP (DT the)(NN introduction))(PP (IN of)(NP (NP (DT the)(NNP Cabbage)(NNP Patch)(NNS dolls))(, ,)(SBAR (WHNP-1 (WP$ whose)(NNS sales))(S (NP-SBJ (-NONE- *T*-1))(VP (VBD hit)(NP (QP ($ $)(CD 600)(CD million))(-NONE- *U*))(PP-TMP (IN in)(NP (CD 1985))))))))) |ET| 
-0.2125455392910864382827185181668  |BT| (VP (VBD adopted)(NP (DT a)(NNS shareholders)(NNS rights)(NN plan)(S (NP-SBJ (-NONE- *))(VP (TO to)(VP (VB protect)(NP (NNS shareholders))(PP-CLR (IN from)(NP (DT an)(ADJP (RB inadequately)(VBN priced))(NN takeover)(NN offer)))))))) |ET| 
-0.23438020926151215128641069895821  |BT| (VP (VBD said)(SBAR (-NONE- 0)(S (NP-SBJ (NP (DT the)(NN buy-back))(, ,)(CC and)(NP (NP (DT the)(JJ above-market)(NN price))(VP (VBN paid)(NP (-NONE- *))))(, ,))(VP (VBP prove)(SBAR (IN that)(S (NP-SBJ-1 (NNP Mr.)(NNP Edelman))(VP (VBZ is)(VP (VBG running)(S-ADV (NP-SBJ (-NONE- *-1))(VP (JJ scared))))))))))) |ET| 
-0.17564313255714508743565716031299  |BT| (NP (NP (NP (NNP KKR)(POS 's))(NN program))(SBAR (WHADVP-3 (-NONE- 0))(S (NP-SBJ (-NONE- *))(VP (TO to)(VP (VB pay)(PRT (RP down))(NP (NP (QP ($ $)(CD 5)(CD billion))(-NONE- *U*))(PP (IN of)(NP (DT a)(ADJP (QP ($ $)(CD 6)(CD billion))(-NONE- *U*))(NN bridge)(NN loan))))(PP-TMP (IN by)(NP (NNP February)))(ADVP (-NONE- *T*-3))))))) |ET| 
-0.19209680821564806274537318131479  |BT| (VP (VB let)(S (NP-SBJ (NNP GM))(VP (VB amass)(NP (QP (JJR more)(IN than)(CD 15))(NN %)))(CC or)(VP (VB mount)(NP (DT a)(JJ friendly)(NN suitor)(NN bid))(PP-CLR (IN against)(NP (NNP Ford)))))) |ET| 
-0.17306844602461965432205204251659  |BT| (S (NP-SBJ-1 (NP (JJ Many)(NNS funds))(PP-TMP (IN in)(NP (JJ recent)(NNS weeks)(CC and)(NNS months))))(VP (VBP have)(VP (VBN been)(VP (VBG selling)(NP (NP (PRP$ their)(JJ highest-quality)(NN junk)(NNS issues))(, ,)(PP (JJ such)(IN as)(NP (NNP RJR)(NNP Nabisco)))(, ,))(S-PRP (NP-SBJ-2 (-NONE- *-1))(VP (TO to)(VP (VB raise)(NP (NN cash))(S-PRP (NP-SBJ (-NONE- *-2))(VP (TO to)(VP (VB meet)(NP (JJ expected)(NNS redemptions)))))))))))(. .)) |ET| 
-0.14702898408539610830558785892208  |BT| (VP (VBP say)(SBAR (-NONE- 0)(S (NP-SBJ (NNP Sansui))(VP (VBZ is)(NP-PRD (DT a)(JJ special)(NN case)))))) |ET| 
-0.17570468409376729934656680143235  |BT| (VP (VBN told)(NP (-NONE- *-1))(NP-TMP (RB early)(DT this)(NN week))(SBAR (IN that)(S (NP-SBJ-3 (NP (JJ numerous)(NN staff)(NNS functions))(PP (IN for)(NP (DT the)(JJ personal)(NN insurance)(NNS lines))))(VP (VBD were)(VP (VBG going)(S (NP-SBJ-2 (-NONE- *-3))(VP (TO to)(VP (VB be)(VP (VBN centralized)(NP (-NONE- *-2))))))(PP (IN as)(NP (DT a)(JJ cost-cutting)(NN move)))))))) |ET| 
-0.22465585662317133497367649397347  |BT| (VP (VBD took)(NP (NP (DT a)(NN write-off))(PP (IN of)(NP (QP ($ $)(CD 150)(CD million))(-NONE- *U*))))(S-PRP (NP-SBJ (-NONE- *-1))(VP (TO to)(VP (VB cover)(NP (NP (NNS losses))(PP-LOC (IN on)(NP (DT some)(JJ fixed-price)(NN defense)(NNS contracts)))))))(, ,)(SBAR-TMP (IN as)(S (NP-SBJ (DT some)(JJ new)(NNS managers))(VP (VBD took)(NP (NP (DT a)(JJ hard)(NN look))(PP (IN at)(NP (NP (DT the)(NNS prospects))(PP (IN for)(NP (DT that)(JJ slow-growing)(NN business)))))))))) |ET| 
-0.16454353777501570799124408495118  |BT| (VP (VBZ plans)(S (NP-SBJ (-NONE- *-1))(VP (TO to)(VP (VB purchase)(NP (NP (QP (RB as)(JJ many)(IN as)(CD 1.4)(CD million))(NNS shares))(, ,)(CC or)(NP (NP (CD 10)(NN %))(PP (IN of)(NP (NP (PRP$ its)(JJ common)(NN stock))(ADJP (JJ outstanding))))))(PP-TMP (IN from)(NP (NP (NN time))(PP (TO to)(NP (NN time)))))(PP-MNR (PP (IN on)(NP (DT the)(JJ open)(NN market)))(CC and)(PP (IN through)(NP (RB privately)(VBN negotiated)(NNS transactions)))))))) |ET| 
-0.12800416287804197712496545591421  |BT| (NP (NP (NP (DT an)(NN attorney)(POS 's))(NN question))(PP (IN about)(SBAR-NOM (IN whether)(S (S (NP-SBJ (PRP we))(VP (MD would)(VP (VB go)(PP-LOC (IN after)(NP (NP (NN attorney)(POS 's))(NNS fees))))))(, ,)(CC and)(S (NP-SBJ (DT that))(VP (VBZ is)(ADJP-PRD (JJ different)(PP (IN from)(S-NOM (NP-SBJ (-NONE- *))(ADVP (RB actually))(VP (VBG doing)(NP (PRP it))))))(, ,)(SBAR-ADV (IN although)(S (NP-SBJ (PRP we))(VP (VBP reserve)(NP (DT that)(NN right))))))))))) |ET| 
-0.1522715521621588186107487672416  |BT| (VP (VBN transferred)(NP (-NONE- *-1))(PP-CLR (TO to)(NP (JJ other)(NNP Fidelity)(NNS funds)))(PRN (, ,)(SINV (VP (VBZ says)(SBAR (-NONE- 0)(S (-NONE- *T*-2))))(NP-SBJ (NP (NNP Neal)(NNP Litvack))(, ,)(NP (NP (DT a)(NNP Fidelity)(NN vice)(NN president))(, ,)(NP (NN marketing)))))(, ,))(PP (IN with)(S-NOM (NP-SBJ (JJS most))(VP (VBG going)(PP-CLR (IN into)(NP (NN money)(NN market)(NNS funds))))))) |ET| 
-0.22139277474040755522288748124993  |BT| (NP (NN intent)(S (NP-SBJ (-NONE- *))(VP (TO to)(VP (VB purchase)(NP (NNP La)(NNP Jolla)(NNP Bancorp)))))) |ET| 
-0.18805217298187690277977424102573  |BT| (VP (VB determine)(SBAR (IN whether)(S (NP-SBJ (DT the)(NN bank))(VP (VBZ is)(PP-PRD (IN in)(NP (NN compliance))))))) |ET| 
-0.18778376502707266881841974281997  |BT| (VP (VBZ hopes)(S (NP-SBJ (-NONE- *-1))(VP (TO to)(VP (VB control)(NP (NP (CD 5)(NN %))(PP (IN of)(NP (NP (NN jewelry)(NN business))(PP-LOC (IN in)(NP (DT the)(NNP U.S.))))))(PP-TMP (IN by)(NP (CD 1992))))))) |ET| 
-0.12062227590693101741958770389829  |BT| (VP (VBD said)(SBAR (IN that)(S (PP-TMP (IN at)(NP (NP (DT the)(NN close))(PP (IN of)(NP (NN business)))))(NP-TMP (NNP Thursday))(, ,)(NP-SBJ-2 (NP (NP (CD 5,745,188)(NNS shares))(PP (IN of)(NP (NNP Connaught))))(CC and)(NP (NP (ADJP (QP ($ C$)(CD 44.3)(CD million))(-NONE- *U*))(NN face)(NN amount))(PP (IN of)(NP (NNS debentures)))(, ,)(ADJP (JJ convertible)(PP (IN into)(NP (CD 1,826,596)(JJ common)(NNS shares))))(, ,)))(VP (VBD had)(VP (VBN been)(VP (VBN tendered)(NP (-NONE- *-2))(PP-CLR (TO to)(NP (PRP$ its)(NN offer))))))))) |ET| 
-0.1545029871564307100140212014594  |BT| (VP (VBP want)(S (NP-SBJ-5 (-NONE- *-4))(VP (TO to)(VP (VB move)(UCP-DIR (ADVP-DIR (RB away)(PP (IN from)(S-NOM (NP-SBJ (-NONE- *-5))(VP (VBG using)(NP (NP (VBG operating)(NNS systems))(SBAR (WHNP-1 (WDT that))(S (NP-SBJ (-NONE- *T*-1))(VP (VBP run)(PP-LOC (IN on)(NP (NP (RB only)(CD one)(NN manufacturer)(POS 's))(NN equipment)))))))))))(CC and)(PP-DIR (IN toward)(NP (NP (NP (NNS systems))(PRN (: --)(NP (ADVP (RB mainly))(NNP Unix))(: --)))(SBAR (WHNP-2 (WDT that))(S (NP-SBJ (-NONE- *T*-2))(VP (VBP work)(PP-LOC (IN on)(NP (NP (RB almost)(NN anyone)(POS 's))(NNS machines))))))))))))) |ET| 
-0.14650350630489331060779534254834  |BT| (VP (VB exercise)(NP (PRP$ its)(NN right)(S (NP-SBJ (-NONE- *))(VP (TO to)(VP (VB buy)(PRT (RP out))(PP-CLR (IN for)(NP (QP ($ $)(CD 1.9)(CD billion))(-NONE- *U*)))(NP (NP (DT the)(ADJP (CD 55)(NN %))(NN equity)(NN interest))(PP (IN of)(NP (NP (PRP$ its)(NN partner))(, ,)(NP (NNP Metromedia)(NNP Co.))))(, ,)(PP (IN in)(NP (DT a)(NNP New)(NNP York)(JJ cellular)(NN franchise))))))))) |ET| 
-0.17417463396197838121359779961494  |BT| (S-TPC-2 (S (NP-SBJ (NP (NP (NNP Magna)(NNP International)(NNP Inc.)(POS 's))(JJ chief)(JJ financial)(NN officer))(, ,)(NP (NNP James)(NNP McAlpine))(, ,))(VP (JJ resigned)))(CC and)(S (NP-SBJ-1 (NP (PRP$ its)(NN chairman))(, ,)(NP (NNP Frank)(NNP Stronach))(, ,))(VP (VBZ is)(VP (VBG stepping)(ADVP-CLR (RB in))(S-PRP (NP-SBJ (-NONE- *-1))(VP (TO to)(VP (VB help)(VP (VB turn)(NP (DT the)(JJ automotive-parts)(NN manufacturer))(ADVP-CLR (RB around)))))))))) |ET| 
-0.1990381456783975600011160622671  |BT| (VP (VBD said)(SBAR (-NONE- 0)(S (NP-SBJ-1 (DT the)(NNS debentures))(VP (VBP are)(VP (VBG being)(VP (VP (VBN issued)(NP (-NONE- *-1))(PP (IN at)(NP (NP (DT an)(NN issue)(NN price))(PP (IN of)(NP (NP ($ $)(CD 849)(-NONE- *U*))(PP (IN for)(NP (DT each)(ADJP ($ $)(CD 1,000)(-NONE- *U*))(JJ principal)(NN amount))))))))(CC and)(VP (VBP are)(ADJP-PRD (JJ convertible))(PP-TMP (IN at)(NP (NP (DT any)(NN time))(ADVP (RB prior)(PP (TO to)(NP (NN maturity))))))(PP (IN at)(NP (NP (DT a)(NN conversion)(NN price))(PP (IN of)(NP (NP ($ $)(CD 25)(-NONE- *U*))(NP-ADV (DT a)(NN share))))))))))))) |ET| 
-0.13822248006035303680150150285044  |BT| (VP (VBP determine)(SBAR (WHNP-1 (WHNP (WDT which)(NNS employees))(PRN (, ,)(CC and)(WHNP (WRB how)(JJ many))(, ,)))(S (NP-SBJ (-NONE- *T*-1))(VP (MD will)(VP (VB participate)(PP-CLR (IN in)(NP (DT the)(NN retirement)(NN plan)))))))) |ET| 
-0.16190018154096696978427871727035  |BT| (VP (VBD agreed)(S (NP-SBJ (-NONE- *-1))(VP (TO to)(VP (VB acquire)(NP (NP (DT the)(JJ environmental)(NN consulting)(CC and)(JJ analytical)(NN service)(NNS businesses))(PP (IN of)(NP (NP (NNP Hunter)(NNP Environmental)(NNP Services)(NNP Inc.))(PP-LOC (IN of)(NP (NP (NNP Southport))(, ,)(NP (NNP Conn)(. .))))))))))) |ET| 
-0.14626465030805285705284290997952  |BT| (VP (VBZ has)(PRN (, ,)(S (NP-SBJ (PRP I))(VP (VBP think)(SBAR (-NONE- 0)(S (-NONE- *T*-1)))))(, ,))(VP (VBN been)(VP (VBN demolished)(PP-MNR (IN at)(NP (DT a)(NN stroke)))))) |ET| 
-0.15603898317610462309623642340739  |BT| (VP (VBN expected)(S (NP-SBJ-2 (-NONE- *-1))(VP (TO to)(VP (VB do)(ADVP-MNR (ADVP (RB little)(RB better))(SBAR (IN than)(S (NP-SBJ (-NONE- *-2))(VP (VB break)(ADVP-CLR (JJ even))(PP-TMP (IN in)(NP (DT the)(JJ fourth)(NN quarter))))))))))) |ET| 
-0.14107569023411156705627433893824  |BT| (VP (VBG prompting)(S (NP-SBJ (NNS institutions))(VP (TO to)(VP (VB take)(NP (NP (DT a)(VBN reserved)(NN stance))(PP-LOC (IN on)(NP (DT the)(NNS sidelines))))(ADVP (IN as)(RB well))(, ,)(SBAR-TMP (ADVP (IN at)(JJS least))(IN until)(S (NP-SBJ (NP (DT the)(NN market))(PP-LOC (IN in)(NP (NNP New)(NNP York))))(VP (VBZ settles)(PRT (RP down))(ADVP-MNR (RB somewhat))))))))) |ET| 
-0.10639513934546573903361377233523  |BT| (VP (VBD paid)(SBAR-CLR (IN for)(S (NP-SBJ (NP (CD 10)(NAC (NNP House)(PP (IN of)(NP (NNPS Commons))))(NNS members))(CC and)(NP (CD two)(NAC (NNP House)(PP (IN of)(NP (NNPS Lords))))(NNS members)))(VP (TO to)(VP (VP (VB fly)(PP-DIR (TO to)(NP (NNP Detroit))))(CC and)(VP (VB tour)(NP (PRP$ its)(NNS operations)(RB there)))))))) |ET| 
-0.17454455459789255944436092704564  |BT| (VP (VBD noted)(SBAR (IN that)(S (NP-SBJ (PRP it))(VP (VBD paid)(NP (NP (QP ($ $)(CD 78.8)(CD million))(-NONE- *U*))(PP (IN in)(NP (NNS taxes))))(PP-TMP (IN during)(NP (DT the)(NN quarter)))(, ,)(SBAR-ADV (RB even)(IN though)(S (NP-SBJ (NN tax)(NNS payments))(ADVP (RB normally))(VP (MD would)(VP (VB be)(ADJP-PRD (JJ minimal))(PP-TMP (IN in)(NP (NP (DT a)(NN quarter))(SBAR (WHNP-1 (WDT that))(S (NP-SBJ (-NONE- *T*-1))(VP (VBD produced)(NP (PDT such)(DT a)(JJ big)(NN loss))))))))))))))) |ET| 
-0.2146020769644025882882942823926  |BT| (VP (VBD said)(SBAR (-NONE- 0)(S (NP-SBJ (PRP it))(VP (VBD had)(NP (NP (DT a)(NN loss))(PP (IN of)(NP (NP (QP ($ $)(CD 92.2)(CD million))(-NONE- *U*))(, ,)(CC or)(NP (NP ($ $)(CD 6.98)(-NONE- *U*))(NP-ADV (DT a)(NN share)))))))(, ,)(PP-TMP (IN for)(NP (NP (DT the)(NN quarter))(VP (VBN ended)(NP (-NONE- *))(NP-TMP (NN Sept.)(CD 30)))))))) |ET| 
-0.12027751055940416602396680900711  |BT| (VP (VBG urging)(NP-2 (NNS investors))(S (NP-SBJ (-NONE- *-2))(VP (TO to)(VP (VB switch)(PP-DIR (IN into)(NP (NNP Shell)(NNP Trading)(CC &)(NNP Transport))))))) |ET| 
-0.14996689156568387968349043148919  |BT| (S (S-TPC-2 (NP-SBJ (DT The)(NN fund))(, ,)(PP (IN with)(NP (NP (DT a)(NN cash)(NN cushion))(PP (IN of)(NP (QP (JJR more)(IN than)(CD 10))(NN %)))))(, ,)(VP (VBZ has)(VP (`` ``)(VBN met)(NP (PDT all)(DT the)(NNS redemptions))(PP-MNR (IN without)(S-NOM (NP-SBJ-1 (-NONE- *))(VP (VBG having)(S (NP-SBJ (-NONE- *-1))(VP (TO to)(VP (VB sell)(NP (CD one)(NN thing))))))))))(, ,)('' ''))(NP-SBJ (NNP Mr.)(NNP Litvack))(VP (VBZ says)(S (-NONE- *T*-2)))(. .)) |ET| 
-0.13795242157334602906004761280201  |BT| (VP (VBD said)(SBAR (IN that)(`` ``)(S (UCP-ADV (PP-TMP (IN after)(NP (DT these)(NNS charges)))(CC and)(S-ADV (NP-SBJ (-NONE- *))(VP (VBG assuming)(NP (NP (DT no)(JJ dramatic)(NN fluctuation))(PP-LOC (IN in)(NP (NN interest)(NNS rates)))))))(, ,)(NP-SBJ-1 (DT the)(NN association))(VP (VBZ expects)(S (NP-SBJ (-NONE- *-1))(VP (TO to)(VP (VB achieve)(NP (ADJP (IN near)(NN record))(NNS earnings))(PP-TMP (IN in)(NP (CD 1990)))))))))) |ET| 
-0.051060701214059339703155160350434  |BT| (VP (VB pay)(NP (NP (NP (QP ($ $)(CD 4)(CD million))(-NONE- *U*))(PP (IN in)(NP (NN cash))))(, ,)(NP (NP (QP ($ $)(CD 2)(CD million))(-NONE- *U*))(PP (IN of)(NP (ADJP (CD 12)(NN %))(JJ convertible)(NNS debentures))))(, ,)(CC and)(NP (QP (CD 1.6)(CD million))(JJ common)(NNS shares)))(S-PRP (NP-SBJ (-NONE- *-2))(VP (TO to)(VP (VB acquire)(NP (ADJP (RB closely)(VBN held))(NNP Kofcoh)(NNP Imports)(NNP Inc)))))) |ET| 
-0.10545560610701032455693848532974  |BT| (VP (VBG warning)(SBAR (IN that)(S (NP-SBJ (PRP they))(VP (MD wo)(RB n't)(VP (VB stick)(PRT (RP around))(SBAR-ADV (IN if)(S (NP-SBJ-1 (PRP they))(VP (VBP do)(RB n't)(VP (VB get)(VP (VBN paid)(NP (-NONE- *-1)))))))))))) |ET| 
-0.16018401821027236642258628762647  |BT| (VP (VBZ is)(ADJP-PRD (JJ willing)(S (NP-SBJ (-NONE- *-1))(VP (TO to)(VP (VB bid)(PP-CLR (IN for)(NP (NP (CD 100)(NN %))(PP (IN of)(NP (NP (NNP Jaguar)(POS 's))(NNS shares)))))))))(SBAR-ADV (IN if)(S (NP-SBJ-2 (DT both)(NP (DT the)(NN government))(CC and)(NP (NNP Jaguar)(NNS shareholders)))(VP (VBP agree)(S (NP-SBJ (-NONE- *-2))(VP (TO to)(VP (VB relax)(NP (DT the)(JJ anti-takeover)(NN barrier))(ADVP-TMP (RB prematurely))))))))) |ET| 
-0.12962420320724812872192899249058  |BT| (VP (VB buy)(NP (NP (DT an)(JJ extra)(CD 10)(NN %))(, ,)(SBAR (WHPP-2 (IN of)(WHNP (WDT which)))(S (NP-SBJ-1 (NP (NN half))(PP (-NONE- *T*-2)))(VP (MD may)(VP (VB be)(VP (VBN sold)(NP (-NONE- *-1))(ADVP-MNR (RB directly))(PP-DTV (TO to)(NP (NNP Hewlett-Packard)))(PP (IN by)(NP-LGS (NNP Octel)))))))))) |ET| 
-0.16419348971997765884722753071401  |BT| (VP (VB help)(S (NP-SBJ (-NONE- *-2))(VP (VB fend)(PRT (RP off))(NP (NP (DT a)(NN takeover)(NN bid))(PP-DIR (IN from)(NP (JJ Anglo-French)(NN financier)(NNP Sir)(NNP James)(NNP Goldsmith))))))) |ET| 
-0.27811433415013303571683422887872  |BT| (S (PP (IN Under)(NP (NP (NNS terms))(PP (IN of)(NP (DT the)(NN agreement)))))(, ,)(NP-SBJ (NP (NNS shareholders))(ADJP (JJ other)(PP (IN than)(NP (DT the)(NNPS Underwoods)))))(VP (MD will)(VP (VB receive)(NP (NP ($ $)(CD 3,500)(-NONE- *U*))(NP-ADV (DT a)(NN share)))(PP-TMP (IN at)(NP (NP (NN closing))(, ,)(SBAR (WHNP-2 (WDT which))(S (NP-SBJ-1 (-NONE- *T*-2))(VP (VBZ is)(VP (VBN expected)(NP (-NONE- *-1))(PP-TMP (IN in)(NP (NNP December)))))))))))(. .)) |ET| 
-0.19745719832984667818642776637716  |BT| (VP (VBD withdrew)(NP (PRP$ its)(NN offer)(S (NP-SBJ (-NONE- *))(VP (TO to)(VP (VB acquire)(NP (NNP Mesa)(NNP Airlines))))))(SBAR-PRP (IN because)(S (NP-SBJ (DT the)(NNP Farmington)(, ,)(NNP N.M.)(, ,)(NN carrier))(VP (VBD did)(RB n't)(VP (VB respond)(PP-CLR (TO to)(NP (PRP$ its)(NN offer)))(PP-TMP (IN by)(NP (NP (NP (NP (DT the)(NN close))(PP (IN of)(NP (NN business))))(NP-TMP (NN yesterday)))(, ,)(NP (NP (DT a)(NN deadline))(SBAR (WHNP-1 (-NONE- 0))(S (NP-SBJ (NNP StatesWest))(VP (VBD had)(VP (VBN set)(NP (-NONE- *T*-1))(PP-PRP (IN for)(NP (DT a)(NN response))))))))))))))) |ET| 
-0.14824608094129090862800524064369  |BT| (VP (VBN restated)(S (NP-SBJ (-NONE- *-1))(VP (TO to)(VP (VB comply)(PP-CLR (IN with)(NP (NN government)(NNS regulations))))))) |ET| 
-0.13413951177071664622175717340724  |BT| (VP (VB become)(NP-PRD (NP (JJ major)(NNS shareholders))(PP-LOC (IN in)(NP (DT the)(JJ new)(NN company))))(, ,)(S-ADV (NP-SBJ (DT each))(VP (VBG injecting)(NP (NP (QP (CD 100)(CD million))(JJ Finnish)(NN markkaa))(PRN (-LRB- -LRB-)(NP (QP ($ $)(CD 23.5)(CD million))(-NONE- *U*))(-RRB- -RRB-)))))) |ET| 
-0.11672565263185226414055506438672  |BT| (SBAR-TMP (IN after)(S (NP-SBJ (NP (NAC (NNP Chancellor)(PP (IN of)(NP (DT the)(NNP Exchequer))))(NNP Nigel)(NNP Lawson)(POS 's))(NN resignation))(VP (VBD slapped)(NP (DT the)(NN market))))(CC and)(S (NP-SBJ (NP (NNP Wall)(NNP Street)(POS 's))(JJ rapid)(JJ initial)(NN sell-off))(VP (VBD knocked)(NP (PRP it))(PRT (RP down))))) |ET| 
-0.12465858633193277471562510072545  |BT| (SINV (S-TPC-2 (ADVP (RB Still))(, ,)(NP-SBJ-1 (NP (NNS two-thirds))(PP (IN of)(NP (DT the)(NN outflow))))(VP (VBZ has)(VP (VBN been)(VP (VBN steered)(NP (-NONE- *-1))(PP-DIR (IN into)(NP (JJ other)(NNP Vanguard)(NNS portfolios)))))))(, ,)(VP (VBZ says)(SBAR (-NONE- 0)(S (-NONE- *T*-2))))(NP-SBJ (NP (NNP Brian)(NNP Mattes))(, ,)(NP (DT a)(NN vice)(NN president)))(. .)) |ET| 
-0.12769699722441710254550173431198  |BT| (VP (VBN said)(SBAR (-NONE- 0)(S (NP-SBJ (PRP it))(VP (VBZ is)(RB not)(PP-PRD (IN for)(NP (NN sale))))))) |ET| 
-0.1549269527283209102463956696738  |BT| (VP (VBN agreed)(PP-TMP (IN in)(NP (NNP June)))(S (NP-SBJ (-NONE- *-2))(VP (TO to)(VP (VB buy)(NP (NNP Trustcorp))(PP-CLR (IN for)(NP (NP (QP (CD 12.4)(CD million))(NNS shares))(PP (IN of)(NP (NN stock)))(PP (IN with)(NP (NP (DT a)(NN market)(NN value))(PP (IN of)(NP (QP (IN about)($ $)(CD 450)(CD million))(-NONE- *U*))))))))))) |ET| 
-0.15831404750600414077510436072771  |BT| (S (CC But)(SBAR-PRP (IN because)(S (NP-SBJ (DT these)(NNS claims))(VP (VP (VBP are)(ADJP-PRD (RBR more)(JJ difficult)(S (NP-SBJ (-NONE- *))(VP (TO to)(VP (VB evaluate))))))(CC and)(VP (VBP have)(VP (VBN been)(VP (VBG coming)(ADVP-CLR (RB in))(ADVP-MNR (RBR more)(RB slowly))))))))(, ,)(NP-SBJ (DT the)(NN company))(VP (VBZ has)(NP (NP (DT no)(NN estimate))(PP (IN of)(NP (NP (DT the)(NN impact))(PP (IN of)(NP (DT the)(NN earthquake)))(PP (IN on)(NP (NN fourth-quarter)(NNS results)))))))(. .)) |ET| 
-0.11897981411798191908602007060836  |BT| (VP (VBD agreed)(S (NP-SBJ-1 (-NONE- *-3))(VP (TO to)(VP (VB be)(VP (VBN acquired)(NP (-NONE- *-1))(PP (IN by)(NP-LGS (NP (DT a)(NN group))(PP (IN of)(NP (NP (NNS investors))(VP (VBN led)(NP (-NONE- *))(PP (IN by)(NP-LGS (NNP Blackstone)(NNP Capital)(NNP Partners)(NNP Limited)(NNP Partnership))))))))(PP-CLR (IN for)(NP (NP (NP ($ $)(CD 50)(-NONE- *U*))(NP-ADV (DT a)(NN share)))(, ,)(CC or)(NP (QP (RB about)($ $)(CD 950)(CD million))(-NONE- *U*))))))))) |ET| 
-0.31975996506804937880019679141697  |BT| (VP (VBD hired)(NP (NP (DT an)(NN investment)(NN banking)(NN firm))(SBAR (WHNP-1 (-NONE- 0))(S (NP-SBJ (-NONE- *T*-1))(VP (TO to)(VP (VB assist)(PP-CLR (IN in)(S-NOM (NP-SBJ (-NONE- *))(VP (VBG evaluating)(NP (NN restructuring)(CC or)(NN merger)(NNS alternatives))))))))))) |ET| 
-0.15330186248175786678515919447818  |BT| (VP (VBZ expects)(S (NP-SBJ (-NONE- *-2))(VP (TO to)(VP (VB use)(NP (NP (DT another)(QP ($ $)(CD 2)(CD billion))(-NONE- *U*))(PP (IN from)(NP (NP (DT the)(VBG pending)(, ,)(JJ two-part)(NN sale))(PP (IN of)(NP (NP (JJS most))(PP (IN of)(NP (PRP$ its)(NNP Del)(NNP Monte)(NN unit)))))))))))) |ET| 
-0.11087712292465523589157783135306  |BT| (VP (VB seek)(S (NP-SBJ (-NONE- *-2))(VP (TO to)(VP (VB freeze)(CC or)(VB seize)(NP (NP (DT a)(NN defendant)(POS 's))(NNS assets)))))(PP-TMP (IN before)(NP (NN trial)))) |ET| 
-0.094496974740988587404544318815169  |BT| (S (PP (VBG According)(PP (TO to)(NP (NP (NNS individuals))(ADJP (JJ familiar)(PP (IN with)(NP (NP (NNP Mr.)(NNP Antar)(POS 's))(NN case)))))))(, ,)(NP-SBJ (NNS prosecutors))(VP (VBD issued)(NP (PRP$ their)(NN warning))(NP-TMP (DT this)(NN week))(SBAR-TMP (IN after)(S (NP-SBJ (NP (CD one))(PP (IN of)(NP (NP (NNP Mr.)(NNP Antar)(POS 's))(NNS attorneys))))(VP (VBD asked)(SBAR (IN whether)(S (NP-SBJ (JJ legal)(NNS fees))(VP (MD might)(VP (VB be)(ADJP-PRD (JJ subject)(PP (TO to)(NP (NN seizure))))))))))))(. .)) |ET| 
-0.10892141890573425744292990202666  |BT| (VP (VBN given)(NP (-NONE- *-1))(NP (NP (DT a)(NN mandate)(S (-NONE- *ICH*-2)))(PP (IN from)(NP (NNP Switzerland)))('' '')(S-2 (NP-SBJ (-NONE- *))(VP (TO to)(VP (VB expand)(NP (PRP$ their)(NNP U.S.)(NN chocolate)(NNS operations))))))) |ET| 
-0.12163836156302387792038643965498  |BT| (VP (VBN expected)(S (NP-SBJ (-NONE- *-1))(VP (TO to)(VP (VB subscribe)(NP (NP (JJS most))(PP (IN of)(NP (DT the)(VBG remaining)(QP (CD 170)(CD million))(NN markkaa))))(PP (IN in)(NP (NN share)(NN capital))))))) |ET| 
-0.12972015016975532719634145450982  |BT| (VP (VB allow)(S (NP-SBJ-2 (DT this)(NN process))(VP (TO to)(VP (VB be)(VP (VBN completed)(NP (-NONE- *-2))))))) |ET| 
-0.095750755008091714692852747248253  |BT| (S (S-TPC-3 (S-ADV (NP-SBJ (-NONE- *))(VP (VBG Depending)(PP (IN upon)(SBAR (WHNP-2 (WHADJP (WRB how)(JJ many))(NNS warrants)(CC and)(NNS options))(S (NP-SBJ-1 (-NONE- *T*-2))(VP (VBP are)(VP (VBN exercised)(NP (-NONE- *-1))(ADVP-TMP (RB prior)(PP (TO to)(NP (NP (NN completion))(PP (IN of)(NP (DT the)(NN transaction)))))))))))))(, ,)(NP-SBJ (NNP Heritage))(VP (MD would)(VP (VB issue)(NP (QP (IN between)(CD 1.8)(CD million)(CC and)(CD 2.35)(CD million))(VBN preferred)(NNS shares)))))(, ,)(NP-SBJ (DT a)(NNP Heritage)(NN spokesman))(VP (VBD estimated)(SBAR (-NONE- 0)(S (-NONE- *T*-3))))(. .)) |ET| 
-0.096505823457315606517248340878723  |BT| (VP (VBD agreed)(S (NP-SBJ (-NONE- *-1))(VP (TO to)(VP (VB sell)(NP (PRP$ its)(NNP Baby)(NNP Ruth)(, ,)(NNP Butterfinger)(CC and)(NNP Pearson)(NN candy)(NNS businesses))(PP-DTV (TO to)(NP (NP (NNP Nestle)(NNP S.A.)(POS 's))(NNP Nestle)(NNPS Foods)(NN unit)))(PP-CLR (IN for)(NP (QP ($ $)(CD 370)(CD million))(-NONE- *U*))))))) |ET| 
-0.1120021636979995488525574387495  |BT| (VP (VBD said)(SBAR (-NONE- 0)(S (NP-SBJ (PRP he))(VP (VBZ is)(VP (VBG cutting)(NP (NP (PRP$ his)(NNS earnings)(NN estimate))(PP (IN for)(NP (JJ next)(NN year))))(PP-DIR (TO to)(NP (NP ($ $)(CD 2)(-NONE- *U*))(NP-ADV (DT a)(NN share))))(PP-DIR (IN from)(NP ($ $)(CD 3)(-NONE- *U*)))))))) |ET| 
-0.10958104516916467030540616178769  |BT| (VP (VBD indicated)(SBAR (SBAR (-NONE- 0)(S (NP-SBJ (PRP it))(VP (VBD had)(NP (NP (DT a)(ADJP (CD 45.2)(NN %))(NN stake))(PP (IN in)(NP (DT the)(NAC-LOC (NNP Louisville)(, ,)(NNP Ky.)(, ,))(NN fast-food)(NN company)))))))(CC and)(SBAR (IN that)(S (NP-SBJ-1 (PRP it))(VP (VBD planned)(S (NP-SBJ (-NONE- *-1))(VP (TO to)(VP (VB seek)(NP (NP (DT a)(NN majority))(PP (IN of)(NP (NP (NNS seats))(PP-LOC (IN on)(NP (NP (NNP Rally)(POS 's))(JJ nine-member)(NN board)))))))))))))) |ET| 
-0.1064719828901669052001466297952  |BT| (S (S-TPC-2 (NP-SBJ (NP (NNP Orkem)(NNP S.A.))(, ,)(NP (DT a)(JJ French)(JJ state-controlled)(JJ chemical)(NN manufacturer))(, ,))(VP (VBZ is)(VP (VBG making)(NP (NP (DT a)(JJ friendly)(NN bid))(PP (IN of)(NP (NP (CD 470)(NNS pence))(PRN (-LRB- -LRB-)(NP ($ $)(CD 7.43)(-NONE- *U*))(-RRB- -RRB-))(NP-ADV (DT a)(NN share))))(PP (IN for)(NP (NP (DT the)(CD 59.2)(NN %))(PP (IN of)(NP (NNP U.K.)(NN specialty)(JJ chemical)(NN group)(NNP Coates)(NNP Brothers)(NNP PLC)))(SBAR (WHNP-1 (WDT which))(S (NP-SBJ (PRP it))(VP (VBZ does)(RB n't)(ADVP-PRP (RB already))(VP (VB own)(NP (-NONE- *T*-1))))))))))))(, ,)(NP-SBJ (DT the)(CD two)(NNS sides))(VP (VBD said)(SBAR (-NONE- 0)(S (-NONE- *T*-2))))(. .)) |ET| 
-0.083245693313513197120201425605046  |BT| (VP (VBN expected)(S (NP-SBJ (-NONE- *-1))(VP (TO to)(VP (VB save)(NP (DT the)(NN company))(NP (NP (QP (RB about)($ $)(CD 4)(CD million))(-NONE- *U*))(PP (IN in)(NP (NN interest)(NNS expenses))))(NP-TMP (IN next)(NN year))(, ,)(PRN (CC or)(NP (NP (CD six)(NNS cents))(NP-ADV (DT a)(NN share)))))))) |ET| 
-0.09841860373602015488181393720879  |BT| (VP (VBP say)(SBAR (IN that)(S (NP-SBJ (NNS investors))(VP (VBP have)(VP (VP (VBN transferred)(NP (NP (JJS most))(PP (IN of)(NP (PRP it))))(PP-CLR (IN into)(NP (NP (PRP$ their)(NN money)(NN market)(NNS accounts))(, ,)(CC and)(PRN (PP (TO to)(NP (DT a)(JJR lesser)(NN extent))))(, ,)(NP (NN government-bond)(NNS funds)))))))))) |ET| 
-0.10731277252217259754463185572604  |BT| (VP (VBD estimated)(SBAR (IN that)(S (NP-SBJ-1 (NP (QP (IN about)(CD 50))(NN %))(PP (IN of)(NP (NP (DT the)(NNS employees))(SBAR (WHNP-2 (WP who))(S (NP-SBJ (-NONE- *T*-2))(VP (VBP leave)(PP-PRP (IN for)(NP (JJ early)(NN retirement)))))))))(VP (MD may)(VP (VB be)(VP (VBN replaced)(NP (-NONE- *-1)))))))) |ET| 
-0.086167153990954439835014966320159  |BT| (VP (VB qualify)(PP-CLR (IN for)(NP (DT the)(NN capital)(NNS requirements)))(SBAR-PRP (IN because)(, ,)(S (PP-LOC (IN under)(NP (DT the)(VBN proposed)(NNS guidelines)))(, ,)(NP-SBJ (NP (PRP$ its)(QP ($ $)(CD 380)(CD million))(-NONE- *U*))(PP (IN of)(NP (VBN preferred)(NN stock))))(VP (VBZ does)(RB n't)(VP (VB meet)(NP (NP (DT the)(`` ``)(NN core)(NN capital)('' '')(NNS criteria))(VP (VBN outlined)(NP (-NONE- *))(PP-LOC (IN under)(NP (NP (DT the)(JJ new)(NNP Financial)(NNPS Institutions)(NNP Reform)(, ,)(NNP Recovery)(CC and)(NNP Enforcement)(NNP Act))(PP (IN of)(NP (CD 1989)))))))))))) |ET| 
-0.090213977899366248891510622343048  |BT| (VP (VBN agreed)(S (NP-SBJ (-NONE- *-1))(VP (TO to)(VP (VB sell)(NP (DT the)(NN extrusion)(NN division))(PP-CLR (IN for)(NP (QP ($ $)(CD 15)(CD million))(-NONE- *U*)))(PP-DTV (TO to)(NP (NP (NNP R.D.)(NNP Werner)(NNP Co.))(, ,)(NP (NP (DT a)(ADJP (RB closely)(VBN held))(NN firm))(VP (VBN based)(NP (-NONE- *))(PP-LOC-CLR (IN in)(NP (NP (NNP Greenville))(, ,)(NP (NNP Pa)))))))))))) |ET| 
-0.10486982267399209967084772188173  |BT| (S (S-TPC-1 (NP-SBJ (DT The)(NNP Continental)(NNP Baking)(NN business))(VP (VBD benefited)(PP (IN from)(NP (NP (JJR higher)(NNS margins))(PP (PP (IN on)(NP (NN bread)))(CC and)(PP (IN on)(NP (VBN increased)(NN cake)(NNS sales))))))))(, ,)(NP-SBJ (PRP it))(VP (VBD added)(SBAR (-NONE- 0)(S (-NONE- *T*-1))))(. .)) |ET| 
-0.11261411098306081668418698882306  |BT| (VP (VBN scheduled)(S (NP-SBJ (-NONE- *-1))(VP (TO to)(VP (VB expire)(PP-TMP (IN at)(NP (NP (DT the)(NN end))(PP (IN of)(NP (NNP November))))))))) |ET| 
-0.07153489111727726057488041533361  |BT| (VP (VBN launched)(NP (DT a)(NN suit))(PP-LOC (IN in)(NP (DT a)(NNP Delaware)(NN court)))(S-CLR (NP-SBJ (-NONE- *-2))(VP (VBG seeking)(NP (NP (DT the)(NN withdrawal))(PP (IN of)(NP (NP (NP (NP (NNP Dunkin)(POS 's))(NN poison)(NN pill)(NNS rights))(CC and)(NP (NN employee)(NN stock)(NN ownership)(NNS plans)))(, ,)(SBAR (WHNP-3 (WDT which))(S (NP-SBJ (PRP it))(VP (VBZ claims)(SBAR (-NONE- 0)(S (NP-SBJ-1 (-NONE- *T*-3))(VP (VBD were)(VP (VBN put)(NP (-NONE- *-1))(PP-PUT (IN in)(NP (NN place)))(S-PRP (NP-SBJ (-NONE- *))(VP (TO to)(VP (VB deter)(NP (NNS bidders)))))))))))))))))) |ET| 
-0.077131408252576638684416820979095  |BT| (VP (VBN deprived)(NP (-NONE- *-1))(PP-CLR (IN of)(NP (NP (PRP$ their)(NNP Sixth)(NNP Amendment)(NN right))(PP (TO to)(NP (NP (NN counsel))(CC and)(NP (DT a)(JJ fair)(NN trial))))))(SBAR-ADV (IN if)(S (NP-SBJ (DT the)(NN government))(VP (MD can)(VP (VB seize)(NP (NP (NNS lawyers)(POS '))(NNS fees))))))) |ET| 
-0.093406210880343357172428397916519  |BT| (VP (VBD affected)(NP (NP (NN bank)(NN indebtedness))(SBAR (WHNP-1 (WDT that))(S (NP-SBJ-3 (-NONE- *T*-1))(VP (VBD was)(VP (VBN incurred)(NP (-NONE- *-3))(S-PRP (NP-SBJ (-NONE- *))(VP (TO to)(VP (VB finance)(NP (NP (QP ($ $)(CD 585)(CD million))(-NONE- *U*))(PP (IN of)(NP (NP (NP (DT the)(NN company)(POS 's))(ADJP (QP ($ $)(CD 728)(CD million))(-NONE- *U*))(NN recapitalization))(SBAR (WHNP-2 (WDT that))(S (NP-SBJ (-NONE- *T*-2))(VP (VBD took)(NP-CLR (NN place))(X (PP-TMP (IN in)))))))))))))))))) |ET| 
-0.086491288207759184358813797643961  |BT| (VP (VBG moving)(ADVP-MNR (ADVP (RB even)(RBR faster))(SBAR (IN than)(S (NP-SBJ (-NONE- *))(VP (VBN expected)))))(S-CLR (NP-SBJ (-NONE- *-1))(VP (TO to)(VP (VP (VB take)(NP-CLR (NNS write-offs))(PP-CLR (IN on)(NP (PRP$ its)(JJ various)(NNS problems))))(CC and)(VP (VB prepare)(PP-CLR (IN for)(NP (NP (DT a)(NN turnaround))(NP-TMP (IN next)(NN year))))))))) |ET| 
-0.080438913931344155350267044468637  |BT| (VP (VB receive)(NP (NP (NN stock))(PP (IN in)(NP (NP (DT the)(VBN reorganized)(NN company))(, ,)(SBAR (WHNP-2 (WDT which))(S (NP-SBJ-1 (-NONE- *T*-2))(VP (MD will)(VP (VB be)(VP (VBN named)(S (NP-SBJ (-NONE- *-1))(NP-PRD (NNP Ranger)(NNPS Industries)(NNP Inc)))))))))))) |ET| 
-0.089124771088273255226219760061213  |BT| (VP (VBZ expects)(S (NP-SBJ (NP (DT the)(NN company)(POS 's))(NN revenue))(VP (TO to)(VP (VB increase)(PP-EXT (IN by)(NP (CD 20)(NN %)))(ADVP-TMP (RB annually)))))(, ,)(SBAR-ADV (IN while)(S (NP-SBJ (NNP Dow)(NNP Jones))(VP (VBD based)(NP (NP (PRP$ its)(NNS projections))(PP (IN of)(NP (NP (NNP Telerate)(POS 's))(NN performance))))(PP-CLR (IN on)(NP (DT a)(ADJP (CD 12)(NN %))(NN revenue)(NN growth)(NN forecast))))))) |ET| 
-0.091268973571203004802043778909137  |BT| (VP (VBN suggested)(SBAR (IN that)(S (NP-SBJ-1 (JJ friendly)(NNS institutions))(VP (VBD were)(ADJP-PRD (JJ likely)(S (NP-SBJ (-NONE- *-1))(VP (TO to)(VP (VB buy)(NP (PRP$ its)(NN stock))(ADVP-TMP (RB as)(RB soon)(SBAR (IN as)(S (NP-SBJ (NN trading))(VP (VBD opened)(NP-TMP (NNP Monday)))))))))))))) |ET| 
-0.079327019902189710442996783967828  |BT| (SINV (S-TPC (NP-SBJ-1 (NNS Proceeds))(VP (MD will)(VP (VB be)(VP (VBN used)(NP-2 (-NONE- *-1))(S-CLR (NP-SBJ (-NONE- *-2))(VP (TO to)(VP (VB reduce)(NP (NP (JJ short-term)(NN debt))(PP-LOC (IN at)(NP (DT the)(NN beer)(CC and)(NN food)(NN concern)))))))))))(, ,)(VP (VBD said))(NP-SBJ (NP (NNP Robert)(NNP Vaux))(, ,)(NP (NP (NN vice)(NN president))(, ,)(NP (NN finance))))(. .)) |ET| 
-0.083605366617878568158417351696698  |BT| (VP (VBZ expects)(S (NP-SBJ (-NONE- *-2))(VP (TO to)(VP (VB post)(NP (NP (NNS sales))(PP-TMP (IN in)(NP (DT the)(JJ current)(JJ fiscal)(NN year)))(SBAR (WHNP-1 (WDT that))(S (NP-SBJ (-NONE- *T*-1))(VP (VBP are)(PP-PRD (`` ``)(ADVP (RB slightly))(JJ above)('' '')(NP (NP (JJ fiscal)(CD 1989)(NNS sales))(PP (IN of)(NP (QP ($ $)(CD 155)(CD million))(-NONE- *U*))))))))))))) |ET| 
