SVM-light Version V5.01-TK-1.2
5 # kernel type
3 # kernel parameter -d 
1 # kernel parameter -g 
1 # kernel parameter -s 
1 # kernel parameter -r 
empty# kernel parameter -u 
0.4 # kernel parameter -L 
1 # kernel parameter -T 
T # kernel parameter -C 
1 # kernel parameter -F 
1 # kernel parameter -S 
1.000000 # kernel parameter -D 
3 # kernel parameter -N 
S # kernel parameter -V 
S # kernel parameter -W 
0 # highest feature index 
689 # number of training documents 
416 # number of support vectors plus 1 
0.19010443 # threshold b, each following line is a SV (starting with alpha*y)
-0.42714752314672244093429753775126  |BT| (VP (VBD said)(SBAR (-NONE- 0)(S (NP-SBJ (NNP Innopac))(VP (VBD viewed)(NP (NP (NNP Mr.)(NNP Pattison)(POS 's))(NN decision)(S (NP-SBJ (-NONE- *))(VP (TO to)(VP (VB seek)(NP (NN control))))))(PP-CLR (IN as)(NP (DT a)(`` ``)(ADJP (RB very)(JJ positive))('' '')(NN move))))))) |ET| 
-0.28676931207056433059676692209905  |BT| (VP (VBD said)(SBAR (-NONE- 0)(S (NP-SBJ-1 (PRP it))(VP (VBD extended)(NP (DT the)(NN offer))(S-PRP (NP-SBJ (-NONE- *-1))(VP (TO to)(VP (VB allow)(NP (NNS shareholders))(NP (NP (NN time))(SBAR (WHADVP-2 (-NONE- 0))(S (NP-SBJ (-NONE- *))(VP (TO to)(VP (VB review)(NP (NP (DT a)(NN supplement))(PP (TO to)(NP (NP (DT the)(NNP Dow)(NNP Jones)(NN tender)(NN offer)(JJ circular))(SBAR (WHNP-3 (IN that))(S (NP-SBJ (PRP it))(VP (VBD mailed)(NP (-NONE- *T*-3))(NP-TMP (JJ last)(NNP Friday))))))))(ADVP-TMP (-NONE- *T*-2)))))))))))))) |ET| 
-0.6890918418918825505414815779659  |BT| (VP (VBD said)(SBAR (-NONE- 0)(S (NP-SBJ-1 (PRP it))(VP (VBZ expects)(S (NP-SBJ (-NONE- *-1))(VP (TO to)(VP (VB report)(NP (NP (DT a)(NN charge))(PP (IN of)(NP (QP ($ $)(CD 5.3)(CD million))(-NONE- *U*)))(VP (VBN related)(NP (-NONE- *))(PP-CLR (TO to)(NP (NP (DT the)(NN sale))(PP (IN of)(NP (NP (PRP$ its)(NN aluminum)(NN unit)(POS 's))(NN extrusion)(NN division))))))(PP (IN for)(NP (DT the)(JJ third)(NN quarter))))))))))) |ET| 
-0.84675881026113253291498494945699  |BT| (VP (VBD said)(SBAR (-NONE- 0)(S (NP-SBJ-1 (PRP it))(VP (VBZ plans)(S (NP-SBJ (-NONE- *-1))(VP (TO to)(VP (VB purchase)(NP (NP (QP (RB as)(JJ many)(IN as)(CD 1.4)(CD million))(NNS shares))(, ,)(CC or)(NP (NP (CD 10)(NN %))(PP (IN of)(NP (NP (PRP$ its)(JJ common)(NN stock))(ADJP (JJ outstanding))))))(PP-TMP (IN from)(NP (NP (NN time))(PP (TO to)(NP (NN time)))))(PP-MNR (PP (IN on)(NP (DT the)(JJ open)(NN market)))(CC and)(PP (IN through)(NP (RB privately)(VBN negotiated)(NNS transactions))))))))))) |ET| 
0.18200078107606210142677127805655  |BT| (VP (VBZ expects)(S (NP-SBJ (-NONE- *-1))(VP (TO to)(VP (VP (VB obtain)(NP (JJ regulatory)(NN approval)))(CC and)(VP (VB complete)(NP (DT the)(NN transaction)))(PP-TMP (IN by)(NP (NN year-end))))))) |ET| 
0.16878288488414999735098831479263  |BT| (VP (VBD decided)(S (NP-SBJ (-NONE- *-1))(VP (TO to)(VP (VB grant)(NP (NP (JJ duty-free)(NN status))(PP (IN for)(NP (CD 18)(NNS categories)))))))) |ET| 
1  |BT| (VP (VBG stepping)(ADVP-CLR (RB in))(S-PRP (NP-SBJ (-NONE- *-1))(VP (TO to)(VP (VB help)(VP (VB turn)(NP (DT the)(JJ automotive-parts)(NN manufacturer))(ADVP-CLR (RB around))))))) |ET| 
0.76755752529113929760740120400442  |BT| (VP (VBZ wants)(S (NP-SBJ (-NONE- *-1))(VP (TO to)(VP (VB resume)(NP (NP (DT a)(ADJP (RBR more)(JJ influential))(NN role))(PP-LOC (IN in)(S-NOM (NP-SBJ (-NONE- *))(VP (VBG running)(NP (DT the)(NN company)))))))))) |ET| 
-1  |BT| (VP (VBP continue)(S (NP-SBJ (-NONE- *-1))(VP (TO to)(VP (VB slow))))) |ET| 
1  |BT| (S (PP (IN Under)(NP (NP (NNS terms))(PP (IN of)(NP (DT the)(JJ new)(NN proposal)))))(, ,)(NP-SBJ (NP (NNP Equus))(, ,)(VP (VBN managed)(NP (-NONE- *))(PP (IN by)(NP-LGS (NP (NNP Equus)(NNP Capital)(NNP Corp.))(, ,)(NP-LOC (NNP Houston)))))(, ,))(VP (MD would)(VP (VB pay)(NP (NP ($ $)(CD 12)(-NONE- *U*)(NN cash))(CC and)(NP (NP (CD one)(JJ new)(JJ preferred)(NN share))(PP (IN with)(NP (NP (DT a)(NN liquidation)(NN preference))(PP (IN of)(NP (NP ($ $)(CD 1.65)(-NONE- *U*))(NP-ADV (DT a)(NN share))))(PP (IN for)(NP (NP (DT each))(PP (IN of)(NP (NP (NP (NNP Tony)(NNP Lama)(POS 's))(QP (CD 2.1)(CD million))(NNS shares))(ADJP (JJ outstanding))))))))))))(. .)) |ET| 
-1  |BT| (VP (VBD said)(SBAR (-NONE- 0)(S (NP-SBJ-1 (NNP Mr.)(NNP Stronach))(VP (VBZ wants)(S (NP-SBJ (-NONE- *-1))(VP (TO to)(VP (VB resume)(NP (NP (DT a)(ADJP (RBR more)(JJ influential))(NN role))(PP-LOC (IN in)(S-NOM (NP-SBJ (-NONE- *))(VP (VBG running)(NP (DT the)(NN company))))))))))))) |ET| 
1  |BT| (VP (VBZ anticipates)(SBAR (-NONE- 0)(S (NP-SBJ (NP (DT the)(JJ long-term)(NNS savings))(VP (VBG resulting)(PP-CLR (IN from)(NP (NP (DT the)(NN plan)(POS 's))(NN implementation)))))(VP (MD will)(VP (ADVP (RBR more)(IN than))(VBN offset)(NP (JJ short-term)(NNS costs))))))) |ET| 
-0.92095776340084822830789335057489  |BT| (S-TPC-2 (S (NP-SBJ (NP (NP (NNP Magna)(NNP International)(NNP Inc.)(POS 's))(JJ chief)(JJ financial)(NN officer))(, ,)(NP (NNP James)(NNP McAlpine))(, ,))(VP (JJ resigned)))(CC and)(S (NP-SBJ-1 (NP (PRP$ its)(NN chairman))(, ,)(NP (NNP Frank)(NNP Stronach))(, ,))(VP (VBZ is)(VP (VBG stepping)(ADVP-CLR (RB in))(S-PRP (NP-SBJ (-NONE- *-1))(VP (TO to)(VP (VB help)(VP (VB turn)(NP (DT the)(JJ automotive-parts)(NN manufacturer))(ADVP-CLR (RB around)))))))))) |ET| 
1  |BT| (VP (VBD estimated)(SBAR (IN that)(S (NP-SBJ (DT the)(NN company))(VP (MD would)(RB n't)(VP (VB be)(ADJP-PRD (JJ profitable))(PP-TMP (IN until)(UCP (NP (CD 1994))(CC or)(ADJP (RB later))))))))) |ET| 
-1  |BT| (S (SBAR-ADV (IN Although)(S (NP-SBJ (PRP he))(VP (VBD expressed)(NP (NN confidence)(SBAR (IN that)(S (NP-SBJ-1 (NP (DT the)(VBN proposed)(JJ new)(NN company)(POS 's))(NN cash)(NN flow))(VP (MD would)(VP (VB be)(ADJP-PRD (JJ sufficient)(S (NP-SBJ (-NONE- *-1))(VP (TO to)(VP (VB cover)(NP (NP (NN interest)(NNS payments))(PP (IN on)(NP (DT the)(NN debt))))))))))))))))(, ,)(NP-SBJ (PRP he))(VP (VBD estimated)(SBAR (IN that)(S (NP-SBJ (DT the)(NN company))(VP (MD would)(RB n't)(VP (VB be)(ADJP-PRD (JJ profitable))(PP-TMP (IN until)(UCP (NP (CD 1994))(CC or)(ADJP (RB later)))))))))(. .)) |ET| 
1  |BT| (VP (VBZ has)(PRN (, ,)(S (NP-SBJ (PRP I))(VP (VBP think)(SBAR (-NONE- 0)(S (-NONE- *T*-1)))))(, ,))(VP (VBN been)(VP (VBN demolished)(PP-MNR (IN at)(NP (DT a)(NN stroke)))))) |ET| 
0.52402628793267735929362061142456  |BT| (VP (VBN given)(NP (-NONE- *-1))(NP (NP (DT a)(NN mandate)(S (-NONE- *ICH*-2)))(PP (IN from)(NP (NNP Switzerland)))('' '')(S-2 (NP-SBJ (-NONE- *))(VP (TO to)(VP (VB expand)(NP (PRP$ their)(NNP U.S.)(NN chocolate)(NNS operations))))))) |ET| 
1  |BT| (NP (NN confidence)(SBAR (IN that)(S (NP-SBJ-1 (NP (DT the)(VBN proposed)(JJ new)(NN company)(POS 's))(NN cash)(NN flow))(VP (MD would)(VP (VB be)(ADJP-PRD (JJ sufficient)(S (NP-SBJ (-NONE- *-1))(VP (TO to)(VP (VB cover)(NP (NP (NN interest)(NNS payments))(PP (IN on)(NP (DT the)(NN debt))))))))))))) |ET| 
-1  |BT| (VP (VBD said)(SBAR (-NONE- 0)(S (NP-SBJ (DT the)(NN share)(NN issue))(VP (VBZ is)(NP-PRD (NP (NN part))(PP (IN of)(NP (NP (DT a)(NN strategy))(SBAR (WHADVP-2 (-NONE- 0))(S (NP-SBJ (-NONE- *))(VP (TO to)(VP (VB strengthen)(NP (NP (NNP Labatt)(POS 's))(NN balance)(NN sheet))(PP (IN in)(NP (NP (NN anticipation))(PP (IN of)(NP (NP (NNS acquisitions))(SBAR (WHNP-3 (-NONE- 0))(S (NP-SBJ-1 (-NONE- *T*-3))(VP (TO to)(VP (VB be)(VP (VBN made)(NP (-NONE- *-1))(PP-TMP (IN during)(NP (DT the)(JJ next)(QP (CD 12)(TO to)(CD 18))(NNS months))))))))))))(ADVP-MNR (-NONE- *T*-2))))))))))))) |ET| 
1  |BT| (VP (VBZ believes)(SBAR (-NONE- 0)(S (NP-SBJ (DT the)(ADJP ($ $)(JJ 18-a-share))(NN price))(VP (VBZ is)(ADJP-PRD (JJ fair)(PP (TO to)(NP (NP (NNP Telerate)(POS 's))(NN minority)(NNS shareholders)))))))) |ET| 
-0.061052230069943203005777832004242  |BT| (VP (VBN said)(SBAR (-NONE- 0)(S (NP-SBJ (PRP it))(VP (VBZ believes)(SBAR (-NONE- 0)(S (NP-SBJ (DT the)(ADJP ($ $)(JJ 18-a-share))(NN price))(VP (VBZ is)(ADJP-PRD (JJ fair)(PP (TO to)(NP (NP (NNP Telerate)(POS 's))(NN minority)(NNS shareholders))))))))))) |ET| 
1  |BT| (S (`` ``)(S-TPC-3 (SBAR-NOM-TPC (WHNP-2 (WDT Whatever)(NN capital))(S (NP-SBJ (NP (PRP it))(PRN (-LRB- -LRB-)(NP (NNP Sansui))(-RRB- -RRB-)))(VP (VBZ needs)(NP (-NONE- *T*-2))(SBAR-PRP (IN so)(S (NP-SBJ (PRP it))(VP (MD can)(VP (VP (VB compete))(CC and)(VP (VB become)(NP-PRD (NP (DT a)(ADJP (RB totally)(JJ global))(NN entity))(ADJP (JJ capable)(PP (IN of)(S-NOM (NP-SBJ (-NONE- *))(VP (VBG competing)(PP-CLR (IN with)(NP (NP (DT the)(JJS best))(PP-LOC (IN in)(NP (DT the)(NN world))))))))))))))))))(, ,)(NP-SBJ-1 (DT that)(NN capital))(VP (MD will)(VP (VB be)(VP (VBN injected)(NP (-NONE- *-1))))))(, ,)('' '')(NP-SBJ (NNP Mr.)(NNP Nadir))(VP (VBD said)(S (-NONE- *T*-3)))(. .)) |ET| 
-1  |BT| (VP (VBN restated)(NP-2 (-NONE- *-1))(S-PRP (NP-SBJ (-NONE- *-2))(VP (TO to)(VP (VB reflect)(NP (DT an)(NN accounting)(NN change)))))) |ET| 
1  |BT| (VP (VB think)(SBAR (-NONE- 0)(S (NP-SBJ (EX there))(VP (VBZ 's)(NP-PRD (NP (DT any)(JJ legal)(NN reason))(SBAR (WHNP-1 (-NONE- 0))(S (NP-SBJ (-NONE- *T*-1))(VP (TO to)(VP (VB limit)(NP (NP (NN forfeiture))(PP (IN of)(NP (NP (NN attorney)(POS 's))(NNS fees)))(PP (TO to)(NP (NN drug)(NNS cases))))))))))))) |ET| 
-1  |BT| (VP (VBD said)(, ,)(S (`` ``)(NP-SBJ (PRP I))(VP (VBP do)(RB n't)(VP (VB think)(SBAR (-NONE- 0)(S (NP-SBJ (EX there))(VP (VBZ 's)(NP-PRD (NP (DT any)(JJ legal)(NN reason))(SBAR (WHNP-1 (-NONE- 0))(S (NP-SBJ (-NONE- *T*-1))(VP (TO to)(VP (VB limit)(NP (NP (NN forfeiture))(PP (IN of)(NP (NP (NN attorney)(POS 's))(NNS fees)))(PP (TO to)(NP (NN drug)(NNS cases)))))))))))))))) |ET| 
0.65091034824742910469552725771791  |BT| (VP (VBN restated)(NP-2 (-NONE- *-1))(S-PRP (NP-SBJ (-NONE- *-2))(VP (TO to)(VP (VB reflect)(NP (DT an)(NN accounting)(NN change)))))) |ET| 
-1  |BT| (NP (NP (DT a)(NN suit))(VP (VBN filed)(NP (-NONE- *))(PP-LOC (IN in)(NP (JJ federal)(NN court)))(PP (IN by)(NP-LGS (NNP DPC)(NNP Acquisition))))(SBAR (WHNP-1 (WDT that))(S (NP-SBJ-3 (-NONE- *T*-1))(VP (VBZ seeks)(S (NP-SBJ (-NONE- *-3))(VP (TO to)(VP (VB nullify)(NP (NP (DT a)(JJ standstill)(NN agreement))(PP (IN between)(NP (NP (NNP DPC)(NNP Acquisition))(CC and)(NP (NNPS Dataproducts)))))))))))) |ET| 
1  |BT| (VP (VBP believe)(SBAR (-NONE- 0)(S (NP-SBJ (NP (NNP Mr.)(NNP Antar))(VBZ 's)(ADJP (RB allegedly)(JJ ill-gotten))(NNS gains))(VP (VBP are)(ADJP-PRD (RB so)(JJ great)(SBAR (IN that)(S (NP-SBJ (NP (DT any)(NN money))(SBAR (WHNP-1 (-NONE- 0))(S (NP-SBJ-2 (PRP he))(VP (VBZ has)(VP (VBN used)(NP (-NONE- *T*-1))(S-CLR (NP-SBJ (-NONE- *-2))(VP (TO to)(VP (VB pay)(NP (NNS attorneys))))))))))(VP (VBZ derives)(PP-CLR (IN from)(NP (JJ illegal)(NNS activities))))))))))) |ET| 
-1  |BT| (VP (VBN told)(NP (NP (NNP Mr.)(NNP Antar)(POS 's))(NNS attorneys))(SBAR (IN that)(S (NP-SBJ (PRP they))(VP (VBP believe)(SBAR (-NONE- 0)(S (NP-SBJ (NP (NNP Mr.)(NNP Antar))(VBZ 's)(ADJP (RB allegedly)(JJ ill-gotten))(NNS gains))(VP (VBP are)(ADJP-PRD (RB so)(JJ great)(SBAR (IN that)(S (NP-SBJ (NP (DT any)(NN money))(SBAR (WHNP-1 (-NONE- 0))(S (NP-SBJ-2 (PRP he))(VP (VBZ has)(VP (VBN used)(NP (-NONE- *T*-1))(S-CLR (NP-SBJ (-NONE- *-2))(VP (TO to)(VP (VB pay)(NP (NNS attorneys))))))))))(VP (VBZ derives)(PP-CLR (IN from)(NP (JJ illegal)(NNS activities)))))))))))))) |ET| 
1  |BT| (VP (VBZ intends)(S (`` ``)(NP-SBJ (-NONE- *-1))(VP (TO to)(VP (VB go)(PP-DIR (TO to)(NP (DT that)(ADJP (CD 15)(NN %))('' '')(NN level)))(SBAR-TMP (IN once)(S (NP-SBJ (PRP it))(VP (VBZ wins)(NP (DT the)(JJ U.S.)(NN clearance)(S (NP-SBJ (-NONE- *))(VP (TO to)(VP (VB go)(PP-LOC (IN beyond)(NP (QP ($ $)(CD 15)(CD million))(-NONE- *U*)))))))))))))) |ET| 
-1  |BT| (VP (VBD wrote)(NP-CLR (NNP Jaguar))(SBAR (IN that)(S (NP-SBJ-1 (PRP it))(VP (VBZ intends)(S (`` ``)(NP-SBJ (-NONE- *-1))(VP (TO to)(VP (VB go)(PP-DIR (TO to)(NP (DT that)(ADJP (CD 15)(NN %))('' '')(NN level)))(SBAR-TMP (IN once)(S (NP-SBJ (PRP it))(VP (VBZ wins)(NP (DT the)(JJ U.S.)(NN clearance)(S (NP-SBJ (-NONE- *))(VP (TO to)(VP (VB go)(PP-LOC (IN beyond)(NP (QP ($ $)(CD 15)(CD million))(-NONE- *U*))))))))))))))))) |ET| 
1  |BT| (VP (VBG warning)(SBAR (IN that)(S (NP-SBJ (PRP they))(VP (MD wo)(RB n't)(VP (VB stick)(PRT (RP around))(SBAR-ADV (IN if)(S (NP-SBJ-1 (PRP they))(VP (VBP do)(RB n't)(VP (VB get)(VP (VBN paid)(NP (-NONE- *-1)))))))))))) |ET| 
-0.3685639376688331081410865408543  |BT| (VP (VB stick)(PRT (RP around))(SBAR-ADV (IN if)(S (NP-SBJ-1 (PRP they))(VP (VBP do)(RB n't)(VP (VB get)(VP (VBN paid)(NP (-NONE- *-1)))))))) |ET| 
1  |BT| (VP (VBN launched)(NP (DT a)(NN suit))(PP-LOC (IN in)(NP (DT a)(NNP Delaware)(NN court)))(S-CLR (NP-SBJ (-NONE- *-2))(VP (VBG seeking)(NP (NP (DT the)(NN withdrawal))(PP (IN of)(NP (NP (NP (NP (NNP Dunkin)(POS 's))(NN poison)(NN pill)(NNS rights))(CC and)(NP (NN employee)(NN stock)(NN ownership)(NNS plans)))(, ,)(SBAR (WHNP-3 (WDT which))(S (NP-SBJ (PRP it))(VP (VBZ claims)(SBAR (-NONE- 0)(S (NP-SBJ-1 (-NONE- *T*-3))(VP (VBD were)(VP (VBN put)(NP (-NONE- *-1))(PP-PUT (IN in)(NP (NN place)))(S-PRP (NP-SBJ (-NONE- *))(VP (TO to)(VP (VB deter)(NP (NNS bidders)))))))))))))))))) |ET| 
-1  |BT| (VP (VBN put)(NP (-NONE- *-1))(PP-PUT (IN in)(NP (NN place)))(S-PRP (NP-SBJ (-NONE- *))(VP (TO to)(VP (VB deter)(NP (NNS bidders)))))) |ET| 
1  |BT| (VP (VBN estimated)(SBAR (-NONE- 0)(S (NP-SBJ (NP (NNS earnings))(PP (IN for)(NP (NP (PRP$ its)(JJ fourth)(NN quarter))(VP (VBD ended)(NP-TMP-CLR (NNP Sept.)(CD 30))))))(VP (VBD fell)(NP-EXT (CD 50)(NN %))(PP-CLR (TO to)(NP (CD 75)(NN %)))(PP (IN below)(NP (NP (DT the)(JJ year-earlier)(QP ($ $)(CD 4.5)(CD million))(-NONE- *U*))(, ,)(CC or)(NP (NP (CD 51)(NNS cents))(NP-ADV (DT a)(NN share))))))))) |ET| 
-0.77677116268275347987781742631341  |BT| (S (PP-LOC (IN Under)(NP (PRP$ its)(VBN revised)(NN proposal)))(, ,)(NP-SBJ (JJ Atlanta-based)(NNP BellSouth))(VP (VP (MD would)(VP (VB have)(NP (NP (DT a)(ADJP (CD 50)(NN %))(NN interest))(PP (IN in)(NP (DT the)(JJ new)(JJ cellular)(NN company))))))(CC and)(VP (MD would)(VP (VB be)(ADJP-PRD (JJ responsible)(PP (IN for)(NP (NP (DT half))(PP (IN of)(NP (PRP$ its)(NN debt)))))))))(. .)) |ET| 
0.45204125358285163205351864235126  |BT| (VP (VBN turned)(PRT (RP down))(NP (NP (DT a)(NN number))(PP (IN of)(NP (NNS cases))))(S-PRP (NP-SBJ (-NONE- *-6))(VP (TO to)(VP (VB avoid)(NP (JJ possible)(NN fee)(NNS seizures)))))) |ET| 
-1  |BT| (VP (VBD shed)(NP (NP (CD 8.5)(NN pence))(NP-ADV (DT a)(NN share)))(S-CLR (NP-SBJ (-NONE- *-1))(VP (TO to)(VP (VB close)(PP-CLR (IN at)(NP (NP (CD 185)(NN pence))(PRN (-LRB- -LRB-)(NP ($ $)(CD 2.90)(-NONE- *U*))(-RRB- -RRB-)))))))) |ET| 
1  |BT| (VP (VBD asked)(SBAR (IN whether)(S (NP-SBJ (JJ legal)(NNS fees))(VP (MD might)(VP (VB be)(ADJP-PRD (JJ subject)(PP (TO to)(NP (NN seizure))))))))) |ET| 
-0.54588107177122291435722445385181  |BT| (S (PP (VBG According)(PP (TO to)(NP (NP (NNS individuals))(ADJP (JJ familiar)(PP (IN with)(NP (NP (NNP Mr.)(NNP Antar)(POS 's))(NN case)))))))(, ,)(NP-SBJ (NNS prosecutors))(VP (VBD issued)(NP (PRP$ their)(NN warning))(NP-TMP (DT this)(NN week))(SBAR-TMP (IN after)(S (NP-SBJ (NP (CD one))(PP (IN of)(NP (NP (NNP Mr.)(NNP Antar)(POS 's))(NNS attorneys))))(VP (VBD asked)(SBAR (IN whether)(S (NP-SBJ (JJ legal)(NNS fees))(VP (MD might)(VP (VB be)(ADJP-PRD (JJ subject)(PP (TO to)(NP (NN seizure))))))))))))(. .)) |ET| 
1  |BT| (VP (VBN proposed)(S (NP-SBJ (-NONE- *))(VP (VBG acquiring)(NP (NNP Mesa))(PP-CLR (IN for)(NP (NP (NP ($ $)(CD 7)(-NONE- *U*))(NP-ADV (DT a)(NN share)))(CC and)(NP (NP (CD one)(NN share))(PP (IN of)(NP (NP (DT a)(JJ new)(NN series))(PP (IN of)(NP (NNP StatesWest)(ADJP (CD 6)(NN %))(JJ convertible)(JJ preferred)(NN stock)))(SBAR (WHNP-2 (-NONE- 0))(S (NP-SBJ (PRP it))(VP (VBZ values)(NP (-NONE- *T*-2))(PP-CLR (IN at)(NP (NP ($ $)(CD 3)(-NONE- *U*))(NP-ADV (DT a)(NN share))))))))))))))) |ET| 
-0.77260264610066375912111880097655  |BT| (VP (VBD reported)(SBAR (DT that)(S (NP-SBJ (JJ net)(NN income))(VP (VBD rose)(NP-ADV (CD 21)(NN %))(PP-DIR (TO to)(NP (NP (QP ($ $)(CD 3)(CD million))(-NONE- *U*))(, ,)(CC or)(NP (NP (NP (CD 29)(NNS cents))(NP-ADV (DT a)(NN share)))(VP (VBN adjusted)(NP (-NONE- *))(PP-CLR (IN for)(NP (DT the)(NN split))))))))))(, ,)(PP (IN for)(NP (NP (DT the)(JJ fourth)(NN quarter))(VP (VBN ended)(NP (-NONE- *))(NP-TMP (NNP Aug.)(CD 26)))))) |ET| 
1  |BT| (VP (VBG seeking)(S (NP-SBJ (-NONE- *-1))(VP (TO to)(VP (VB oust)(NP (NNP Mr.)(NNP Edelman))(PP-CLR (IN as)(NP (NP (NN chairman))(PP (IN of)(NP (NP (NNP Datapoint)(NNP Corp.))(, ,)(NP (DT an)(NNP Intelogic)(NN affiliate)))))))))) |ET| 
-1  |BT| (VP (VBD signed)(NP (NP (DT a)(NN letter))(PP (IN of)(NP (NN intent)(S (NP-SBJ (-NONE- *))(VP (TO to)(VP (VB purchase)(NP (NNP La)(NNP Jolla)(NNP Bancorp))))))))(, ,)(S-ADV (NP-SBJ-1 (-NONE- *))(VP (VBG agreeing)(S (NP-SBJ (-NONE- *-1))(VP (TO to)(VP (VB pay)(NP (NP ($ $)(CD 15)(-NONE- *U*))(PP (IN of)(NP (PRP$ its)(JJ own)(NN stock))))(PP-CLR (IN for)(NP (NP (DT each)(NN share))(PP (IN of)(NP (NNP La)(NNP Jolla))))))))))) |ET| 
1  |BT| (VP (VBZ expects)(SBAR (-NONE- 0)(S (NP-SBJ-1 (PRP it))(VP (MD will)(VP (VB need)(NP (QP (RB about)($ $)(CD 215)(CD million))(-NONE- *U*))(S-CLR (NP-SBJ (-NONE- *-1))(VP (TO to)(VP (VP (VB buy)(NP (DT the)(NNS shares)))(CC and)(VP (VB pay)(NP (VBN related)(NNS fees)(CC and)(NNS expenses))))))))))) |ET| 
-1  |BT| (VP (VB need)(NP (QP (RB about)($ $)(CD 215)(CD million))(-NONE- *U*))(S-CLR (NP-SBJ (-NONE- *-1))(VP (TO to)(VP (VP (VB buy)(NP (DT the)(NNS shares)))(CC and)(VP (VB pay)(NP (VBN related)(NNS fees)(CC and)(NNS expenses))))))) |ET| 
-0.16767721232719207113959214439092  |BT| (VP (VBN told)(NP (NP (NNS employees))(PP-LOC (IN in)(NP (PRP$ its)(NNP Crum)(CC &)(NNP Forster)(JJ personal)(NN insurance)(NNS operations))))(SBAR (IN that)(S (NP-SBJ (PRP it))(VP (VBZ is)(VP (VBG laying)(PRT (RP off))(NP (NP (QP (IN about)(CD 300))(NNS people))(, ,)(CC or)(NP (NP (CD 25)(NN %))(PP (IN of)(NP (DT the)(NN staff)))))))))) |ET| 
-1  |BT| (VP (VB continue)(S (NP-SBJ (-NONE- *-2))(VP (VBG posting)(NP (NNS declines))))) |ET| 
1  |BT| (VP (VB help)(S (NP-SBJ (PRP it))(VP (VB save)(NP (NP (NP (QP ($ $)(CD 500)(CD million))(-NONE- *U*))(NP-ADV (DT a)(NN year)))(PP (IN in)(NP (NNS costs)))(, ,)(PP-LOC (ADVP (RB again))(IN at)(NP (NP (DT the)(JJ high)(NN end))(PP (IN of)(NP (NP (DT the)(ADVP (RB previously)(VBN reported))(NN range))(PP (IN of)(NP (QP ($ $)(CD 400)(CD million)(TO to)($ $)(CD 500)(CD million))(-NONE- *U*))))))))))) |ET| 
-0.81691733055620607828473112022039  |BT| (VP (VBD said)(SBAR (-NONE- 0)(S (NP-SBJ (DT that))(VP (MD should)(VP (VB help)(S (NP-SBJ (PRP it))(VP (VB save)(NP (NP (NP (QP ($ $)(CD 500)(CD million))(-NONE- *U*))(NP-ADV (DT a)(NN year)))(PP (IN in)(NP (NNS costs)))(, ,)(PP-LOC (ADVP (RB again))(IN at)(NP (NP (DT the)(JJ high)(NN end))(PP (IN of)(NP (NP (DT the)(ADVP (RB previously)(VBN reported))(NN range))(PP (IN of)(NP (QP ($ $)(CD 400)(CD million)(TO to)($ $)(CD 500)(CD million))(-NONE- *U*))))))))))))))) |ET| 
1  |BT| (NP (NNS concerns)(SBAR (IN that)(S (NP-SBJ-2 (NNP London)(NNS shares))(VP (MD will)(VP (VB continue)(S (NP-SBJ (-NONE- *-2))(VP (VBG posting)(NP (NNS declines))))))))) |ET| 
-1  |BT| (VP (VBD added)(SBAR (IN that)(S (NP-SBJ (NP-SBJ-1 (JJ final)(NNS guidelines))(VP (TO to)(VP (VB be)(VP (VBN published)(NP (-NONE- *-1))(PP-TMP (IN in)(NP (JJ early)(NNP November)))))))(VP (MD will)(VP (VB determine)(SBAR (IN whether)(S (NP-SBJ (DT the)(NN bank))(VP (VBZ is)(PP-PRD (IN in)(NP (NN compliance))))))))))) |ET| 
1  |BT| (VP (VBZ expects)(S (NP-SBJ (-NONE- *-2))(VP (TO to)(VP (VB use)(NP (NP (DT another)(QP ($ $)(CD 2)(CD billion))(-NONE- *U*))(PP (IN from)(NP (NP (DT the)(VBG pending)(, ,)(JJ two-part)(NN sale))(PP (IN of)(NP (NP (JJS most))(PP (IN of)(NP (PRP$ its)(NNP Del)(NNP Monte)(NN unit)))))))))))) |ET| 
-1  |BT| (NP (DT an)(NNP Intelogic)(NN announcement)(SBAR (IN that)(S (NP-SBJ (PRP it))(VP (MD will)(VP (VB retain)(NP (DT an)(NN investment)(NN banker))(S-PRP (NP-SBJ (-NONE- *))(VP (TO to)(VP (VB explore)(NP (NP (NNS alternatives))(`` ``)(SBAR (WHNP-1 (-NONE- 0))(S (NP-SBJ (-NONE- *T*-1))(VP (TO to)(VP (VB maximize)(NP (NN shareholder)(NN value))))))(, ,)('' '')(PP (VBG including)(NP (NP (DT the)(JJ possible)(NN sale))(PP (IN of)(NP (DT the)(NN company)))))))))))))) |ET| 
1  |BT| (VP (VB determine)(SBAR (IN whether)(S (NP-SBJ (DT the)(NN bank))(VP (VBZ is)(PP-PRD (IN in)(NP (NN compliance))))))) |ET| 
-0.9185643516287345100579386780737  |BT| (VP (VB receive)(NP (NP (NN stock))(PP (IN in)(NP (NP (DT the)(VBN reorganized)(NN company))(, ,)(SBAR (WHNP-2 (WDT which))(S (NP-SBJ-1 (-NONE- *T*-2))(VP (MD will)(VP (VB be)(VP (VBN named)(S (NP-SBJ (-NONE- *-1))(NP-PRD (NNP Ranger)(NNPS Industries)(NNP Inc)))))))))))) |ET| 
0.63337173230065513251929587568156  |BT| (VP (VB retain)(NP (DT an)(NN investment)(NN banker))(S-PRP (NP-SBJ (-NONE- *))(VP (TO to)(VP (VB explore)(NP (NP (NNS alternatives))(`` ``)(SBAR (WHNP-1 (-NONE- 0))(S (NP-SBJ (-NONE- *T*-1))(VP (TO to)(VP (VB maximize)(NP (NN shareholder)(NN value))))))(, ,)('' '')(PP (VBG including)(NP (NP (DT the)(JJ possible)(NN sale))(PP (IN of)(NP (DT the)(NN company)))))))))) |ET| 
-1  |BT| (NP (NP (DT a)(JJ friendly)(NN deal))(PP (IN with)(NP (NNP Jaguar)))(SBAR (WHNP-1 (WDT that))(S (NP-SBJ-2 (-NONE- *T*-1))(VP (VBZ is)(ADJP-PRD (JJ likely)(S (NP-SBJ (-NONE- *-2))(VP (TO to)(VP (VB involve)(NP (NP (DT an)(JJ eventual)(ADJP (CD 30)(NN %))(NN stake))(CC and)(NP (JJ joint)(NN manufacturing)(NNS ventures))))))))))) |ET| 
1  |BT| (NP (NP (NN closing))(, ,)(SBAR (WHNP-2 (WDT which))(S (NP-SBJ-1 (-NONE- *T*-2))(VP (VBZ is)(VP (VBN expected)(NP (-NONE- *-1))(PP-TMP (IN in)(NP (NNP December)))))))) |ET| 
-0.63402468777310916348000091602444  |BT| (VP (VBZ has)(S (NP-SBJ (CD 13)(NNS facilities))(PP-PRD (IN in)(NP (NN operation))))(, ,)(ADVP (RB up)(PP (IN from)(NP (CD seven))(ADVP-TMP (NP (DT a)(NN year))(RB ago))))) |ET| 
1  |BT| (VP (VBP expect)(S (NP-SBJ-1 (DT the)(NN transaction))(VP (TO to)(VP (VB be)(VP (VBN completed)(NP (-NONE- *-1))(PP-TMP (IN by)(NP (NNP Dec.)(CD 15)))))))) |ET| 
-1  |BT| (NP (NP (NNS acquisitions))(SBAR (WHNP-3 (-NONE- 0))(S (NP-SBJ-1 (-NONE- *T*-3))(VP (TO to)(VP (VB be)(VP (VBN made)(NP (-NONE- *-1))(PP-TMP (IN during)(NP (DT the)(JJ next)(QP (CD 12)(TO to)(CD 18))(NNS months))))))))) |ET| 
1  |BT| (NP (NP (NP (DT an)(NN attorney)(POS 's))(NN question))(PP (IN about)(SBAR-NOM (IN whether)(S (S (NP-SBJ (PRP we))(VP (MD would)(VP (VB go)(PP-LOC (IN after)(NP (NP (NN attorney)(POS 's))(NNS fees))))))(, ,)(CC and)(S (NP-SBJ (DT that))(VP (VBZ is)(ADJP-PRD (JJ different)(PP (IN from)(S-NOM (NP-SBJ (-NONE- *))(ADVP (RB actually))(VP (VBG doing)(NP (PRP it))))))(, ,)(SBAR-ADV (IN although)(S (NP-SBJ (PRP we))(VP (VBP reserve)(NP (DT that)(NN right))))))))))) |ET| 
-0.15408888046216145939482089488592  |BT| (VP (VBD said)(SBAR (-NONE- 0)(S (NP-SBJ (PRP$ his)(NN office))(`` ``)(ADVP-TMP (RB just))(VP (VBD responded)(PP-CLR (TO to)(NP (NP (NP (DT an)(NN attorney)(POS 's))(NN question))(PP (IN about)(SBAR-NOM (IN whether)(S (S (NP-SBJ (PRP we))(VP (MD would)(VP (VB go)(PP-LOC (IN after)(NP (NP (NN attorney)(POS 's))(NNS fees))))))(, ,)(CC and)(S (NP-SBJ (DT that))(VP (VBZ is)(ADJP-PRD (JJ different)(PP (IN from)(S-NOM (NP-SBJ (-NONE- *))(ADVP (RB actually))(VP (VBG doing)(NP (PRP it))))))(, ,)(SBAR-ADV (IN although)(S (NP-SBJ (PRP we))(VP (VBP reserve)(NP (DT that)(NN right)))))))))))))))) |ET| 
1  |BT| (NP (NP (NNS acquisitions))(SBAR (WHNP-3 (-NONE- 0))(S (NP-SBJ-1 (-NONE- *T*-3))(VP (TO to)(VP (VB be)(VP (VBN made)(NP (-NONE- *-1))(PP-TMP (IN during)(NP (DT the)(JJ next)(QP (CD 12)(TO to)(CD 18))(NNS months))))))))) |ET| 
-0.42760053915552814762790490021871  |BT| (VP (ADVP-MNR (RB greatly))(VB expand)(NP (NP (NNP Sansui)(POS 's))(NN product)(NN line))(, ,)(S-ADV (NP-SBJ (-NONE- *-2))(VP (VBG using)(NP-1 (NP (NNP Sansui)(POS 's))(NNS engineers))(S-CLR (NP-SBJ (-NONE- *-1))(VP (TO to)(VP (VB design)(NP (DT the)(JJ new)(NNS products)))))))) |ET| 
1  |BT| (VP (VBP determine)(SBAR (WHNP-1 (WHNP (WDT which)(NNS employees))(PRN (, ,)(CC and)(WHNP (WRB how)(JJ many))(, ,)))(S (NP-SBJ (-NONE- *T*-1))(VP (MD will)(VP (VB participate)(PP-CLR (IN in)(NP (DT the)(NN retirement)(NN plan)))))))) |ET| 
-0.91039618919116460649121336246026  |BT| (VP (VB estimate)(NP (NP (DT the)(NN size))(PP (IN of)(NP (DT the)(NN charge))))(SBAR-TMP (IN until)(S (NP-SBJ (PRP they))(VP (VBP determine)(SBAR (WHNP-1 (WHNP (WDT which)(NNS employees))(PRN (, ,)(CC and)(WHNP (WRB how)(JJ many))(, ,)))(S (NP-SBJ (-NONE- *T*-1))(VP (MD will)(VP (VB participate)(PP-CLR (IN in)(NP (DT the)(NN retirement)(NN plan))))))))))) |ET| 
1  |BT| (VP (VBD agreed)(S (NP-SBJ-1 (-NONE- *-3))(VP (TO to)(VP (VB be)(VP (VBN acquired)(NP (-NONE- *-1))(PP (IN by)(NP-LGS (NP (DT a)(NN group))(PP (IN of)(NP (NP (NNS investors))(VP (VBN led)(NP (-NONE- *))(PP (IN by)(NP-LGS (NNP Blackstone)(NNP Capital)(NNP Partners)(NNP Limited)(NNP Partnership))))))))(PP-CLR (IN for)(NP (NP (NP ($ $)(CD 50)(-NONE- *U*))(NP-ADV (DT a)(NN share)))(, ,)(CC or)(NP (QP (RB about)($ $)(CD 950)(CD million))(-NONE- *U*))))))))) |ET| 
-1  |BT| (NP (DT a)(JJ strong)(NN showing)(SBAR (IN that)(S (NP-SBJ (NP (NNS lawyers)(POS '))(NNS fees))(VP (VBD came)(PP-CLR (IN from)(NP (NP (NNS assets))(VP (VBN tainted)(NP (-NONE- *))(PP (IN by)(NP-LGS (JJ illegal)(NNS profits)))))))))) |ET| 
0.66360974150408391647459893647465  |BT| (VP (VBP expect)(S (NP-SBJ (PRP him))(VP (TO to)(VP (VB cut)(NP (NNS costs))(PP-LOC (IN throughout)(NP (DT the)(NN organization))))))) |ET| 
-1  |BT| (VP (VBZ remains)(S (NP-SBJ-1 (-NONE- *-2))(VP (TO to)(VP (VB be)(VP (VBN seen)(NP (-NONE- *-1))))))) |ET| 
1  |BT| (VP (VBD ruled)(SBAR (DT that)(S (NP-SBJ (JJ federal)(NN law))(VP (VBZ gives)(NP (NNS prosecutors))(NP (NP (JJ broad)(NN authority))(SBAR (WHNP-1 (-NONE- 0))(S (NP-SBJ (-NONE- *T*-1))(VP (TO to)(VP (VB seize)(NP (NP (NP (NNS assets))(PP (IN of)(NP (NP (NNS people))(VP (VBN accused)(NP (-NONE- *))(PP-CLR (IN of)(NP (NP (NN racketeering))(CC and)(NP (JJ drug-related)(NNS crimes))))))))(, ,)(VP (VBG including)(NP (NP (NNS fees))(VP (VBN paid)(NP (-NONE- *))(PP-CLR (TO to)(NP (NNS lawyers)))(PP-TMP (IN before)(NP (DT an)(NN indictment)))))))))))))))) |ET| 
-1  |BT| (VP (VBD expected)(S (NP-SBJ (-NONE- *-1))(VP (TO to)(VP (VB repay)(NP (NP (DT the)(NNS amounts))(VP (VBN borrowed)(NP (-NONE- *))))(PP-CLR (IN through)(NP (NP (NNS proceeds))(PP (IN of)(NP (DT the)(NN liquidation))))))))) |ET| 
1  |BT| (VP (VB expect)(SBAR (IN that)(S (NP-SBJ-1 (NP (DT any)(NNS fees))(VP (VBN collected)(NP (-NONE- *))(PP-CLR (IN from)(NP (NNP Mr.)(NNP Antar)))))(VP (MD may)(VP (VB be)(VP (VBN seized)(NP (-NONE- *-1)))))))) |ET| 
-0.57322600885209462617808640061412  |BT| (VP (VBD told)(NP (NP (NNP Mr.)(NNP Antar)(POS 's))(NNS lawyers))(SBAR (IN that)(S (PP-PRP (IN because)(IN of)(NP (DT the)(JJ recent)(NNP Supreme)(NNP Court)(NNS rulings)))(, ,)(NP-SBJ (PRP they))(VP (MD could)(VP (VB expect)(SBAR (IN that)(S (NP-SBJ-1 (NP (DT any)(NNS fees))(VP (VBN collected)(NP (-NONE- *))(PP-CLR (IN from)(NP (NNP Mr.)(NNP Antar)))))(VP (MD may)(VP (VB be)(VP (VBN seized)(NP (-NONE- *-1)))))))))))) |ET| 
1  |BT| (VP (VBD expected)(S (NP-SBJ (-NONE- *-1))(VP (TO to)(VP (VB repay)(NP (NP (DT the)(NNS amounts))(VP (VBN borrowed)(NP (-NONE- *))))(PP-CLR (IN through)(NP (NP (NNS proceeds))(PP (IN of)(NP (DT the)(NN liquidation))))))))) |ET| 
-1  |BT| (S (S (NP-SBJ (NP (NNS Earnings))(PP-LOC (IN at)(NP (NP (NNP Xerox)(POS 's))(JJ financial-services)(NNS operations))))(ADVP (RB actually))(VP (VBD rose)(ADVP-EXT (RB slightly))))(, ,)(CC but)(S (NP-SBJ (DT that))(VP (VBD was)(SBAR-PRP-PRD (ADVP (RB largely))(IN because)(S (NP-SBJ (NP (NN capital)(NNS gains))(PP-LOC (IN at)(NP (NNP Crum)(CC &)(NNP Forster))))(VP (VBP offset)(NP (NP (NNP Hurricane)(NNP Hugo)(NNS payments))(CC and)(NP (NP (DT the)(NNS reserves))(VP (VBD set)(PRT (RP up))(NP (-NONE- *))(S-PRP (NP-SBJ (-NONE- *))(VP (TO to)(VP (VB cover)(NP (JJ future)(NNS payments)))))))))))))(. .)) |ET| 
1  |BT| (VP (VB allow)(S (NP-SBJ-2 (DT this)(NN process))(VP (TO to)(VP (VB be)(VP (VBN completed)(NP (-NONE- *-2))))))) |ET| 
-1  |BT| (S (SBAR-ADV (IN if)(S (NP-SBJ-1 (NP (DT the)(NN founder)(CC and)(JJ former)(NN chairman))(PP (IN of)(NP (NNP Crazy)(NNP Eddie)(NNP Inc.))))(VP (VBZ is)(VP (VBN indicted)(NP (-NONE- *-1))))))(, ,)(NP-SBJ-3 (DT the)(NN government))(VP (MD may)(VP (VB move)(S (NP-SBJ (-NONE- *-3))(VP (TO to)(VP (VB seize)(NP (NP (DT the)(NN money))(SBAR (WHNP-2 (IN that))(S (NP-SBJ-4 (NNP Mr.)(NNP Antar))(VP (VBZ is)(VP (VBG using)(NP (-NONE- *T*-2))(S-PRP (NP-SBJ (-NONE- *-4))(VP (TO to)(VP (VB pay)(NP (JJ legal)(NNS fees)))))))))))))))) |ET| 
1  |BT| (S (S-TPC-3 (S-ADV (NP-SBJ (-NONE- *))(VP (VBG Depending)(PP (IN upon)(SBAR (WHNP-2 (WHADJP (WRB how)(JJ many))(NNS warrants)(CC and)(NNS options))(S (NP-SBJ-1 (-NONE- *T*-2))(VP (VBP are)(VP (VBN exercised)(NP (-NONE- *-1))(ADVP-TMP (RB prior)(PP (TO to)(NP (NP (NN completion))(PP (IN of)(NP (DT the)(NN transaction)))))))))))))(, ,)(NP-SBJ (NNP Heritage))(VP (MD would)(VP (VB issue)(NP (QP (IN between)(CD 1.8)(CD million)(CC and)(CD 2.35)(CD million))(VBN preferred)(NNS shares)))))(, ,)(NP-SBJ (DT a)(NNP Heritage)(NN spokesman))(VP (VBD estimated)(SBAR (-NONE- 0)(S (-NONE- *T*-3))))(. .)) |ET| 
-0.36656017072551033697536126965133  |BT| (VP (VBD bought)(NP (NNP Navigation)(NNP Mixte)(NNS shares))(, ,)(S-ADV (NP-SBJ (DT this)(NN purchase))(VP (VBG covering)(NP (QP (JJR more)(IN than)(CD 160,000))(NNS shares))))) |ET| 
1  |BT| (VP (VBN warned)(NP (NP (NNS lawyers))(PP (IN for)(NP (NNP Eddie)(NNP Antar))))(SBAR (IN that)(S (SBAR-ADV (IN if)(S (NP-SBJ-1 (NP (DT the)(NN founder)(CC and)(JJ former)(NN chairman))(PP (IN of)(NP (NNP Crazy)(NNP Eddie)(NNP Inc.))))(VP (VBZ is)(VP (VBN indicted)(NP (-NONE- *-1))))))(, ,)(NP-SBJ-3 (DT the)(NN government))(VP (MD may)(VP (VB move)(S (NP-SBJ (-NONE- *-3))(VP (TO to)(VP (VB seize)(NP (NP (DT the)(NN money))(SBAR (WHNP-2 (IN that))(S (NP-SBJ-4 (NNP Mr.)(NNP Antar))(VP (VBZ is)(VP (VBG using)(NP (-NONE- *T*-2))(S-PRP (NP-SBJ (-NONE- *-4))(VP (TO to)(VP (VB pay)(NP (JJ legal)(NNS fees)))))))))))))))))(ADVP-LOC-6 (-NONE- *T*-5))) |ET| 
-1  |BT| (VP (VBD extended)(NP (DT the)(NN offer))(S-PRP (NP-SBJ (-NONE- *-1))(VP (TO to)(VP (VB allow)(NP (NNS shareholders))(NP (NP (NN time))(SBAR (WHADVP-2 (-NONE- 0))(S (NP-SBJ (-NONE- *))(VP (TO to)(VP (VB review)(NP (NP (DT a)(NN supplement))(PP (TO to)(NP (NP (DT the)(NNP Dow)(NNP Jones)(NN tender)(NN offer)(JJ circular))(SBAR (WHNP-3 (IN that))(S (NP-SBJ (PRP it))(VP (VBD mailed)(NP (-NONE- *T*-3))(NP-TMP (JJ last)(NNP Friday))))))))(ADVP-TMP (-NONE- *T*-2))))))))))) |ET| 
1  |BT| (VP (VBN suggested)(SBAR (IN that)(S (NP-SBJ-1 (JJ friendly)(NNS institutions))(VP (VBD were)(ADJP-PRD (JJ likely)(S (NP-SBJ (-NONE- *-1))(VP (TO to)(VP (VB buy)(NP (PRP$ its)(NN stock))(ADVP-TMP (RB as)(RB soon)(SBAR (IN as)(S (NP-SBJ (NN trading))(VP (VBD opened)(NP-TMP (NNP Monday)))))))))))))) |ET| 
-1  |BT| (VP (VBD continued)(S (NP-SBJ (-NONE- *-1))(VP (TO to)(VP (VB call)(PP-CLR (IN for)(NP (NP (DT an)(NN auction))(PP (IN of)(NP (NNP LIN))))))))) |ET| 
1  |BT| (VP (VBD extended)(NP (DT the)(NN offer))(S-PRP (NP-SBJ (-NONE- *-1))(VP (TO to)(VP (VB allow)(NP (NNS shareholders))(NP (NP (NN time))(SBAR (WHADVP-2 (-NONE- 0))(S (NP-SBJ (-NONE- *))(VP (TO to)(VP (VB review)(NP (NP (DT a)(NN supplement))(PP (TO to)(NP (NP (DT the)(NNP Dow)(NNP Jones)(NN tender)(NN offer)(JJ circular))(SBAR (WHNP-3 (IN that))(S (NP-SBJ (PRP it))(VP (VBD mailed)(NP (-NONE- *T*-3))(NP-TMP (JJ last)(NNP Friday))))))))(ADVP-TMP (-NONE- *T*-2))))))))))) |ET| 
-0.69428998961375543164109558347263  |BT| (NP (NP (JJ overhead)(NNS costs))(SBAR (WHNP-2 (WDT that))(S (NP-SBJ-1 (-NONE- *T*-2))(VP (MD wo)(RB n't)(VP (VB be)(VP (VBN reimbursed)(NP (-NONE- *-1)))))))) |ET| 
1  |BT| (VP (VBZ expects)(S (NP-SBJ (NP (DT the)(NN company)(POS 's))(NN revenue))(VP (TO to)(VP (VB increase)(PP-EXT (IN by)(NP (CD 20)(NN %)))(ADVP-TMP (RB annually)))))(, ,)(SBAR-ADV (IN while)(S (NP-SBJ (NNP Dow)(NNP Jones))(VP (VBD based)(NP (NP (PRP$ its)(NNS projections))(PP (IN of)(NP (NP (NNP Telerate)(POS 's))(NN performance))))(PP-CLR (IN on)(NP (DT a)(ADJP (CD 12)(NN %))(NN revenue)(NN growth)(NN forecast))))))) |ET| 
-1  |BT| (VP (VBZ expects)(S (NP-SBJ (NP (DT the)(NN company)(POS 's))(NN revenue))(VP (TO to)(VP (VB increase)(PP-EXT (IN by)(NP (CD 20)(NN %)))(ADVP-TMP (RB annually)))))(, ,)(SBAR-ADV (IN while)(S (NP-SBJ (NNP Dow)(NNP Jones))(VP (VBD based)(NP (NP (PRP$ its)(NNS projections))(PP (IN of)(NP (NP (NNP Telerate)(POS 's))(NN performance))))(PP-CLR (IN on)(NP (DT a)(ADJP (CD 12)(NN %))(NN revenue)(NN growth)(NN forecast))))))) |ET| 
1  |BT| (VP (VB suggest)(SBAR (-NONE- 0)(S (NP-SBJ-1 (DT the)(JJ early)(NN retirement)(NN package))(VP (VBD was)(VP (VBN spurred)(NP (-NONE- *-1))(PP (IN by)(NP-LGS (NP (NN shareholder)(NN pressure))(CC or)(NP (NP (DT a)(JJ potential)(NN bidder))(PP (IN for)(NP (NP (DT the)(NN company))(, ,)(SBAR (WHNP-2 (WDT which))(S (NP-SBJ (-NONE- *T*-2))(ADVP-TMP (RB occasionally))(VP (VBZ has)(VP (VBN been)(NP-PRD (NP (DT the)(NN target))(PP (IN of)(NP (NN takeover)(NN speculation)))))))))))))))))) |ET| 
-1  |BT| (VP (VBN heard)(NP (NP (NN nothing))('' '')(SBAR (WHNP-3 (-NONE- 0))(S (NP-SBJ (-NONE- *T*-3))(VP (TO to)(VP (VB suggest)(SBAR (-NONE- 0)(S (NP-SBJ-1 (DT the)(JJ early)(NN retirement)(NN package))(VP (VBD was)(VP (VBN spurred)(NP (-NONE- *-1))(PP (IN by)(NP-LGS (NP (NN shareholder)(NN pressure))(CC or)(NP (NP (DT a)(JJ potential)(NN bidder))(PP (IN for)(NP (NP (DT the)(NN company))(, ,)(SBAR (WHNP-2 (WDT which))(S (NP-SBJ (-NONE- *T*-2))(ADVP-TMP (RB occasionally))(VP (VBZ has)(VP (VBN been)(NP-PRD (NP (DT the)(NN target))(PP (IN of)(NP (NN takeover)(NN speculation))))))))))))))))))))))) |ET| 
0.0823364852071287456336534660295  |BT| (VP (VBP want)(S (NP-SBJ-5 (-NONE- *-4))(VP (TO to)(VP (VB move)(UCP-DIR (ADVP-DIR (RB away)(PP (IN from)(S-NOM (NP-SBJ (-NONE- *-5))(VP (VBG using)(NP (NP (VBG operating)(NNS systems))(SBAR (WHNP-1 (WDT that))(S (NP-SBJ (-NONE- *T*-1))(VP (VBP run)(PP-LOC (IN on)(NP (NP (RB only)(CD one)(NN manufacturer)(POS 's))(NN equipment)))))))))))(CC and)(PP-DIR (IN toward)(NP (NP (NP (NNS systems))(PRN (: --)(NP (ADVP (RB mainly))(NNP Unix))(: --)))(SBAR (WHNP-2 (WDT that))(S (NP-SBJ (-NONE- *T*-2))(VP (VBP work)(PP-LOC (IN on)(NP (NP (RB almost)(NN anyone)(POS 's))(NNS machines))))))))))))) |ET| 
-1  |BT| (VP (VB allow)(S (NP-SBJ (DT both)(DT the)(NNS chemicals)(CC and)(NN textile)(NNS businesses))(VP (TO to)(VP (VB focus)(ADVP-MNR (RBR more)(RB closely))(PP-LOC-CLR (IN on)(NP (NN core)(NNS activities))))))) |ET| 
1  |BT| (VP (VBD bought)(NP (NP (CD 43,000)(NNS shares))(PP (IN of)(NP (NNP Cie.)(FW de)(NNP Navigation)(NNP Mixte))))(, ,)(S-PRP (ADVP (RB apparently))(NP-SBJ-1 (-NONE- *))(VP (TO to)(VP (VB help)(S (NP-SBJ (-NONE- *-1))(VP (VB fend)(PRT (RP off))(NP (NP (DT an)(JJ unwelcome)(NN takeover)(NN bid))(PP (IN for)(NP (DT the)(NN company)))))))))) |ET| 
-1  |BT| (VP (VBD told)(NP (NN stock)(NN market)(NNS regulators))(SBAR (IN that)(S (NP-SBJ (PRP it))(VP (VBD bought)(NP (NP (CD 43,000)(NNS shares))(PP (IN of)(NP (NNP Cie.)(FW de)(NNP Navigation)(NNP Mixte))))(, ,)(S-PRP (ADVP (RB apparently))(NP-SBJ-1 (-NONE- *))(VP (TO to)(VP (VB help)(S (NP-SBJ (-NONE- *-1))(VP (VB fend)(PRT (RP off))(NP (NP (DT an)(JJ unwelcome)(NN takeover)(NN bid))(PP (IN for)(NP (DT the)(NN company))))))))))))) |ET| 
1  |BT| (VP (VB allow)(S (NP-SBJ (DT both)(DT the)(NNS chemicals)(CC and)(NN textile)(NNS businesses))(VP (TO to)(VP (VB focus)(ADVP-MNR (RBR more)(RB closely))(PP-LOC-CLR (IN on)(NP (NN core)(NNS activities))))))) |ET| 
-0.15719441671360323553585658373777  |BT| (VP (VBD rejected)(NP (-NONE- *T*-1))(SBAR-PRP (IN because)(S (NP-SBJ-2 (DT the)(ADJP (QP ($ $)(CD 283.7)(CD million))(-NONE- *U*))(NN offer))(VP (VBD was)(RB not)(VP (ADVP-MNR (RB fully))(VBN financed)(NP (-NONE- *-2))))))) |ET| 
1  |BT| (VP (VBD estimated)(SBAR (IN that)(S (NP-SBJ-1 (NP (QP (IN about)(CD 50))(NN %))(PP (IN of)(NP (NP (DT the)(NNS employees))(SBAR (WHNP-2 (WP who))(S (NP-SBJ (-NONE- *T*-2))(VP (VBP leave)(PP-PRP (IN for)(NP (JJ early)(NN retirement)))))))))(VP (MD may)(VP (VB be)(VP (VBN replaced)(NP (-NONE- *-1)))))))) |ET| 
-1  |BT| (VP (VBD failed)(S (NP-SBJ (-NONE- *-3))(VP (TO to)(VP (VB sell)(NP (DT these)(NNS stocks))(PP-DTV (TO to)(NP (NP (NN client)(NNS investors))(, ,)(SBAR (WHNP-1 (WP who))(S (NP-SBJ (-NONE- *T*-1))(VP (VBD were)(ADJP-PRD (JJ cautious)(PP (IN about)(NP (NP (DT the)(JJ sharp)(NNS gains))(SBAR (WHNP-2 (-NONE- 0))(S (NP-SBJ (DT these)(NNS issues))(VP (VBD made)(NP (-NONE- *T*-2))(NP-TMP (DT this)(NN week))))))))))))))))) |ET| 
1  |BT| (NP (NNS requirements)(SBAR (IN that)(S (NP-SBJ (PRP it))(VP (VB maintain)(NP (NP (QP ($ $)(CD 3)(CD million))(-NONE- *U*))(PP (IN in)(NP (VBG working)(NN capital)))))))) |ET| 
-0.3698307166458588146618069458782  |BT| (S (S-TPC-2 (NP-SBJ (DT The)(NN No.)(CD 1)(NNP U.S.)(NN auto)(NN maker))(ADVP-TMP (RB then))(VP (VBD wrote)(NP-CLR (NNP Jaguar))(SBAR (IN that)(S (NP-SBJ-1 (PRP it))(VP (VBZ intends)(S (`` ``)(NP-SBJ (-NONE- *-1))(VP (TO to)(VP (VB go)(PP-DIR (TO to)(NP (DT that)(ADJP (CD 15)(NN %))('' '')(NN level)))(SBAR-TMP (IN once)(S (NP-SBJ (PRP it))(VP (VBZ wins)(NP (DT the)(JJ U.S.)(NN clearance)(S (NP-SBJ (-NONE- *))(VP (TO to)(VP (VB go)(PP-LOC (IN beyond)(NP (QP ($ $)(CD 15)(CD million))(-NONE- *U*))))))))))))))))))(, ,)(NP-SBJ (DT a)(NNP Jaguar)(NN spokesman))(VP (VBD said)(SBAR (-NONE- 0)(S (-NONE- *T*-2)))(NP-TMP (NN yesterday)))(. .)) |ET| 
0.32215585720687256454652924730908  |BT| (VP (VBN restated)(S (NP-SBJ (-NONE- *-1))(VP (TO to)(VP (VB comply)(PP-CLR (IN with)(NP (NN government)(NNS regulations))))))) |ET| 
-1  |BT| (VP (VBG moving)(S (NP-SBJ (-NONE- *-1))(VP (TO to)(VP (VB keep)(S (NP-SBJ (PRP$ its)(JJ institutional)(NNS shareholders))(ADJP-PRD (JJ happy))))))) |ET| 
1  |BT| (VP (VBD questioned)(SBAR (WHNP-1 (WHNP (WRB how)(RB much))(PP (IN of)(NP (DT an)(NN impact))))(S (NP-SBJ (DT the)(NN retirement)(NN package))(VP (MD will)(VP (VB have)(NP (-NONE- *T*-1))))))(, ,)(SBAR-PRP (IN because)(S (NP-SBJ-2 (JJ few)(NNS jobs))(VP (MD will)(VP (VB end)(PRT (RP up))(S (NP-SBJ-3 (-NONE- *-2))(VP (VBG being)(VP (VBN eliminated)(NP (-NONE- *-3)))))))))) |ET| 
-0.92867291365435600258848580779159  |BT| (VP (VBD questioned)(SBAR (WHNP-1 (WHNP (WRB how)(RB much))(PP (IN of)(NP (DT an)(NN impact))))(S (NP-SBJ (DT the)(NN retirement)(NN package))(VP (MD will)(VP (VB have)(NP (-NONE- *T*-1))))))(, ,)(SBAR-PRP (IN because)(S (NP-SBJ-2 (JJ few)(NNS jobs))(VP (MD will)(VP (VB end)(PRT (RP up))(S (NP-SBJ-3 (-NONE- *-2))(VP (VBG being)(VP (VBN eliminated)(NP (-NONE- *-3)))))))))) |ET| 
1  |BT| (VP (VBG moving)(S (NP-SBJ (-NONE- *-1))(VP (TO to)(VP (VB keep)(S (NP-SBJ (PRP$ its)(JJ institutional)(NNS shareholders))(ADJP-PRD (JJ happy))))))) |ET| 
-1  |BT| (VP (VBG continuing)(S (NP-SBJ-2 (-NONE- *-1))(VP (TO to)(VP (VB try)(S (NP-SBJ (-NONE- *-2))(VP (TO to)(VP (VB sell)(NP (PRP itself))(, ,)(PP-LOC (IN under)(NP (NP (DT a)(NNP June)(NN agreement))(PP (IN with)(NP (DT a)(NN dissident-shareholder)(NN group)))))))))))) |ET| 
1  |BT| (S (NP-SBJ (DT The)(NP (NP (VBN proposed)(NNP BellSouth-LIN)(JJ cellular)(NN company))(, ,)(PP (VBG including)(NP (DT the)(ADJP (RB newly)(VBN acquired))(NNP Metromedia)(NN stake)))(, ,)))(VP (MD would)(VP (VB give)(NP (DT the)(JJ new)(NN entity))(NP (NP (QP (CD 55)(CD million))(JJ potential)(NNS customers))(, ,)(PP (VBG including)(NP (NP (QP (IN about)(CD 35)(CD million)))(PP-LOC (IN in)(NP (NP (DT the)(NN nation)(POS 's))(JJ top)(CD 10)(NNS markets))))))))(. .)) |ET| 
-1  |BT| (VP (VB need)(NP (QP (RB about)($ $)(CD 215)(CD million))(-NONE- *U*))(S-CLR (NP-SBJ (-NONE- *-1))(VP (TO to)(VP (VP (VB buy)(NP (DT the)(NNS shares)))(CC and)(VP (VB pay)(NP (VBN related)(NNS fees)(CC and)(NNS expenses))))))) |ET| 
1  |BT| (VP (VB try)(S (NP-SBJ (-NONE- *-2))(VP (TO to)(VP (VB sell)(NP (PRP itself))(, ,)(PP-LOC (IN under)(NP (NP (DT a)(NNP June)(NN agreement))(PP (IN with)(NP (DT a)(NN dissident-shareholder)(NN group))))))))) |ET| 
-1  |BT| (VP (VBD helped)(S (NP-SBJ (DT the)(NN company))(VP (VB keep)(S (NP-SBJ (PRP$ its)(NN tax)(NN outlay))(ADJP-PRD (JJ flat))(ADVP (JJ relative)(PP (TO to)(NP (NNS earnings)(NN growth)))))))) |ET| 
1  |BT| (VP (VB need)(NP (QP (RB about)($ $)(CD 215)(CD million))(-NONE- *U*))(S-CLR (NP-SBJ (-NONE- *-1))(VP (TO to)(VP (VP (VB buy)(NP (DT the)(NNS shares)))(CC and)(VP (VB pay)(NP (VBN related)(NNS fees)(CC and)(NNS expenses))))))) |ET| 
-0.64543463013157542640385599952424  |BT| (VP (VBD fell)(NP-EXT (CD 30)(NN %))(PP-DIR (TO to)(NP (QP ($ $)(CD 59)(CD million))(-NONE- *U*)))(, ,)(S-ADV (NP-SBJ (-NONE- *))(VP (VBG reflecting)(NP (NP (JJR higher)(NN catastrophe)(NNS losses))(CC and)(NP (NP (DT the)(NN price)(NN war))(PP-LOC (IN in)(NP (DT the)(NN property\/casualty)(NN market)))(PP-TMP (IN for)(NP (QP (RB nearly)(CD three))(NNS years)))))))) |ET| 
1  |BT| (VP (VBD helped)(S (NP-SBJ (DT the)(NN company))(VP (VB keep)(S (NP-SBJ (PRP$ its)(NN tax)(NN outlay))(ADJP-PRD (JJ flat))(ADVP (JJ relative)(PP (TO to)(NP (NNS earnings)(NN growth)))))))) |ET| 
-1  |BT| (SBAR (-NONE- 0)(S (NP-SBJ-2 (PRP it))(VP (VBZ expects)(S (NP-SBJ (-NONE- *-2))(VP (TO to)(VP (VB borrow)(NP (NP (DT the)(NN money))(SBAR (WHADVP-3 (-NONE- 0))(S (NP-SBJ (-NONE- *))(VP (TO to)(VP (VB pay)(NP (DT the)(NN dividend))(ADVP-MNR (-NONE- *T*-3))))))))))))(, ,)(CC but)(S (NP-SBJ-1 (NP (NNS commitments))(PP (IN from)(NP (NNS banks))))(ADVP-TMP (RB still))(VP (VBP have)(RB n't)(VP (VBN been)(VP (VBN obtained)(NP (-NONE- *-1))))))) |ET| 
1  |BT| (VP (VBZ wants)(S (NP-SBJ-2 (-NONE- *-1))(VP (TO to)(VP (VB buy)(NP (NP (QP (RB as)(JJ much)(IN as)(CD 15))(NN %))(PP (IN of)(NP (NNP Jaguar)(NNP PLC))))(, ,)(S-ADV (NP-SBJ (-NONE- *-2))(VP (VBG marking)(NP (NP (PRP$ its)(JJ first)(NN salvo))(PP (IN in)(NP (NP (DT a)(JJ possible)(JJ full-scale)(NN battle))(PP (IN against)(NP (NNP Ford)(NNP Motor)(NNP Co.)))(PP (IN for)(NP (NP (NN control))(PP (IN of)(NP (DT the)(JJ British)(NN car)(NN maker)))))))))))))) |ET| 
-1  |BT| (VP (VBZ wants)(S (NP-SBJ-2 (-NONE- *-1))(VP (TO to)(VP (VB buy)(NP (NP (QP (RB as)(JJ much)(IN as)(CD 15))(NN %))(PP (IN of)(NP (NNP Jaguar)(NNP PLC))))(, ,)(S-ADV (NP-SBJ (-NONE- *-2))(VP (VBG marking)(NP (NP (PRP$ its)(JJ first)(NN salvo))(PP (IN in)(NP (NP (DT a)(JJ possible)(JJ full-scale)(NN battle))(PP (IN against)(NP (NNP Ford)(NNP Motor)(NNP Co.)))(PP (IN for)(NP (NP (NN control))(PP (IN of)(NP (DT the)(JJ British)(NN car)(NN maker)))))))))))))) |ET| 
1  |BT| (VP (VB borrow)(NP (NP (DT the)(NN money))(SBAR (WHADVP-3 (-NONE- 0))(S (NP-SBJ (-NONE- *))(VP (TO to)(VP (VB pay)(NP (DT the)(NN dividend))(ADVP-MNR (-NONE- *T*-3)))))))) |ET| 
-1  |BT| (VP (VB change)(NP (NP (DT the)(NNS terms)(CC and)(NNS conditions))(PP (IN of)(NP (DT the)(NN offer))))(SBAR-ADV (IN except)(S (NP-SBJ (-NONE- *-3))(VP (TO to)(VP (VB extend)(NP (PRP$ its)(NN expiration)(NN date))))))) |ET| 
1  |BT| (VP (VBD offered)(S (NP-SBJ (-NONE- *-2))(VP (TO to)(VP (VB buy)(NP (NP (DT the)(NNS shares))(PP (IN of)(NP (NNP POP)(NNP Radio)(NNP Corp.)))(SBAR (WHNP-1 (-NONE- 0))(S (NP-SBJ (PRP it))(VP (VBZ does)(RB n't)(ADVP (RB already))(VP (VB own)(NP (-NONE- *T*-1)))))))(PP-LOC (IN in)(NP (DT a)(NN stock)(NN swap))))))) |ET| 
-0.41243516365130006295913744907011  |BT| (VP (VBD said)(SBAR (-NONE- 0)(S (NP-SBJ-2 (PRP it))(VP (VBD offered)(S (NP-SBJ (-NONE- *-2))(VP (TO to)(VP (VB buy)(NP (NP (DT the)(NNS shares))(PP (IN of)(NP (NNP POP)(NNP Radio)(NNP Corp.)))(SBAR (WHNP-1 (-NONE- 0))(S (NP-SBJ (PRP it))(VP (VBZ does)(RB n't)(ADVP (RB already))(VP (VB own)(NP (-NONE- *T*-1)))))))(PP-LOC (IN in)(NP (DT a)(NN stock)(NN swap)))))))))) |ET| 
1  |BT| (VP (VBN proposed)(S (NP-SBJ (-NONE- *-1))(VP (VBG changing)(NP (NP (DT the)(NN offer))(PP (IN for)(NP (DT the)(NN company))))(PP-CLR (TO to)(NP (NP ($ $)(CD 13.65)(-NONE- *U*))(PP (IN in)(NP (NN cash)(CC and)(NN stock)))))(PP-CLR (IN from)(NP (DT an)(JJ all-cash)(NN transaction)))))) |ET| 
-1  |BT| (VP (VBN proposed)(S (NP-SBJ (-NONE- *-1))(VP (VBG changing)(NP (NP (DT the)(NN offer))(PP (IN for)(NP (DT the)(NN company))))(PP-CLR (TO to)(NP (NP ($ $)(CD 13.65)(-NONE- *U*))(PP (IN in)(NP (NN cash)(CC and)(NN stock)))))(PP-CLR (IN from)(NP (DT an)(JJ all-cash)(NN transaction)))))) |ET| 
1  |BT| (VP (VBN built)(NP (NP (-NONE- *-1))(SBAR-PRP (WHNP-2 (-NONE- 0))(S (NP-SBJ (-NONE- *T*-2))(VP (TO to)(VP (VB carry)(NP (PRP it))(PP (IN through)(NP (DT the)(NN transition)(NN period))))))))) |ET| 
-1  |BT| (VP (VB buy)(NP (NP (DT an)(JJ extra)(CD 10)(NN %))(, ,)(SBAR (WHPP-2 (IN of)(WHNP (WDT which)))(S (NP-SBJ-1 (NP (NN half))(PP (-NONE- *T*-2)))(VP (MD may)(VP (VB be)(VP (VBN sold)(NP (-NONE- *-1))(ADVP-MNR (RB directly))(PP-DTV (TO to)(NP (NNP Hewlett-Packard)))(PP (IN by)(NP-LGS (NNP Octel)))))))))) |ET| 
1  |BT| (VP (VBD retained)(NP (NP (DT the)(NN investment)(NN banking)(NN firm))(PP (IN of)(NP (NNP Donaldson)(, ,)(NNP Lufkin)(CC &)(NNP Jenrette)(NNP Securities)(NNP Inc.)))(SBAR (WHNP-1 (-NONE- 0))(S (NP-SBJ-2 (-NONE- *T*-1))(VP (TO to)(VP (VB act)(PP-CLR (IN as)(NP (PRP$ its)(JJ financial)(NN adviser)))(, ,)(S-ADV (NP-SBJ (-NONE- *-2))(VP (VBG assisting)(PP-CLR (IN in)(NP (NP (DT the)(NN evaluation))(PP (IN of)(NP (NP (JJ various)(ADJP (JJ financial)(CC and)(JJ strategic))(NNS alternatives))(, ,)(PP (VBG including)(NP (NP (NN debt)(NN refinancing))(, ,)(S-NOM (NP-SBJ (-NONE- *))(VP (VBG raising)(NP (NN capital))))(, ,)(NP (NN recapitalization))(, ,)(NP (NP (DT a)(NN merger)(CC or)(NN sale))(PP (IN of)(NP (DT the)(NN company)))))))))))))))))) |ET| 
-0.53015016383973356806080801106873  |BT| (VP (VBD said)(SBAR (-NONE- 0)(S (NP-SBJ (PRP it))(VP (VBD retained)(NP (NP (DT the)(NN investment)(NN banking)(NN firm))(PP (IN of)(NP (NNP Donaldson)(, ,)(NNP Lufkin)(CC &)(NNP Jenrette)(NNP Securities)(NNP Inc.)))(SBAR (WHNP-1 (-NONE- 0))(S (NP-SBJ-2 (-NONE- *T*-1))(VP (TO to)(VP (VB act)(PP-CLR (IN as)(NP (PRP$ its)(JJ financial)(NN adviser)))(, ,)(S-ADV (NP-SBJ (-NONE- *-2))(VP (VBG assisting)(PP-CLR (IN in)(NP (NP (DT the)(NN evaluation))(PP (IN of)(NP (NP (JJ various)(ADJP (JJ financial)(CC and)(JJ strategic))(NNS alternatives))(, ,)(PP (VBG including)(NP (NP (NN debt)(NN refinancing))(, ,)(S-NOM (NP-SBJ (-NONE- *))(VP (VBG raising)(NP (NN capital))))(, ,)(NP (NN recapitalization))(, ,)(NP (NP (DT a)(NN merger)(CC or)(NN sale))(PP (IN of)(NP (DT the)(NN company))))))))))))))))))))) |ET| 
1  |BT| (NP (DT a)(JJ two-year)(NN option)(S (NP-SBJ (-NONE- *))(VP (TO to)(VP (VB buy)(NP (NP (DT an)(JJ extra)(CD 10)(NN %))(, ,)(SBAR (WHPP-2 (IN of)(WHNP (WDT which)))(S (NP-SBJ-1 (NP (NN half))(PP (-NONE- *T*-2)))(VP (MD may)(VP (VB be)(VP (VBN sold)(NP (-NONE- *-1))(ADVP-MNR (RB directly))(PP-DTV (TO to)(NP (NNP Hewlett-Packard)))(PP (IN by)(NP-LGS (NNP Octel))))))))))))) |ET| 
-1  |BT| (S (SBAR-TMP (RB Once)(S (NP-SBJ-1 (PRP$ its)(NN ownership))(VP (VBZ is)(VP (VBN finalized)(NP (-NONE- *-1))))))(, ,)(NP-SBJ (DT the)(JJ new)(NN company))(VP (MD will)(VP (VB open)(NP (NP (NNS talks))(SBAR (-NONE- *ICH*-3)))(PP-CLR (IN with)(NP (JJ state-appointed)(NNS receivers)))(SBAR-PRP-3 (WHADVP-2 (-NONE- 0))(S (NP-SBJ (-NONE- *))(VP (TO to)(VP (VB buy)(CC or)(VB lease)(NP (NP (NNP Waertsilae)(NNP Marine)(POS 's))(NN shipyard)(NNS facilities))(ADVP (-NONE- *T*-2))))))))(. .)) |ET| 
0.82460098609212284515024293796159  |BT| (VP (VBD paid)(SBAR-CLR (IN for)(S (NP-SBJ (NP (CD 10)(NAC (NNP House)(PP (IN of)(NP (NNPS Commons))))(NNS members))(CC and)(NP (CD two)(NAC (NNP House)(PP (IN of)(NP (NNPS Lords))))(NNS members)))(VP (TO to)(VP (VP (VB fly)(PP-DIR (TO to)(NP (NNP Detroit))))(CC and)(VP (VB tour)(NP (PRP$ its)(NNS operations)(RB there)))))))) |ET| 
-1  |BT| (S (CC But)(SBAR-TMP (IN as)(S (NP-SBJ (DT the)(NN craze))(VP (VBD died))))(, ,)(NP-SBJ-1 (NNP Coleco))(VP (VP (VBD failed)(S (NP-SBJ (-NONE- *-1))(VP (TO to)(VP (VB come)(PRT (RP up))(PP-CLR (IN with)(NP (DT another)(NN winner)))))))(CC and)(VP (VBD filed)(PP-CLR (IN for)(NP (JJ bankruptcy-law)(NN protection)))(PP-TMP (IN in)(NP (NNP July)(CD 1988)))))(. .)) |ET| 
1  |BT| (VP (VB open)(NP (NP (NNS talks))(SBAR (-NONE- *ICH*-3)))(PP-CLR (IN with)(NP (JJ state-appointed)(NNS receivers)))(SBAR-PRP-3 (WHADVP-2 (-NONE- 0))(S (NP-SBJ (-NONE- *))(VP (TO to)(VP (VB buy)(CC or)(VB lease)(NP (NP (NNP Waertsilae)(NNP Marine)(POS 's))(NN shipyard)(NNS facilities))(ADVP (-NONE- *T*-2))))))) |ET| 
-1  |BT| (VP (VBD called)(S (NP-SBJ (DT the)(NN program))(NP-PRD (NP (NN part))(PP (IN of)(NP (NP (NP (DT the)(NN company)(POS 's))(JJ two-year)(NN strategy))(SBAR (WHADVP-1 (-NONE- 0))(S (NP-SBJ (-NONE- *))(VP (TO to)(VP (VB implement)(NP (NP (NN budget)(NNS constraints))(CC and)(`` ``)(NP (DT an)(JJ effective)(NN headcount-control)(NN program)))(ADVP (-NONE- *T*-1))))))))))) |ET| 
1  |BT| (VP (VB wonder)(SBAR (WHADJP-1 (RB just)(WRB how)(JJ strong))(S (NP-SBJ (DT that)(NN turnaround))(VP (MD will)(VP (VB be)(ADJP-PRD (-NONE- *T*-1))(PP-LOC (IN at)(NP (DT the)(NN computer)(NN maker)(CC and)(NNS defense-electronics)(NN concern)))))))) |ET| 
-1  |BT| (VP (VBD made)(S (NP-SBJ (DT some)(NNS securities)(NNS analysts))(VP (VB wonder)(SBAR (WHADJP-1 (RB just)(WRB how)(JJ strong))(S (NP-SBJ (DT that)(NN turnaround))(VP (MD will)(VP (VB be)(ADJP-PRD (-NONE- *T*-1))(PP-LOC (IN at)(NP (DT the)(NN computer)(NN maker)(CC and)(NNS defense-electronics)(NN concern)))))))))) |ET| 
1  |BT| (NP (NP (NP (DT the)(NN company)(POS 's))(JJ two-year)(NN strategy))(SBAR (WHADVP-1 (-NONE- 0))(S (NP-SBJ (-NONE- *))(VP (TO to)(VP (VB implement)(NP (NP (NN budget)(NNS constraints))(CC and)(`` ``)(NP (DT an)(JJ effective)(NN headcount-control)(NN program)))(ADVP (-NONE- *T*-1))))))) |ET| 
-1  |BT| (VP (ADVP-MNR (RB greatly))(VB expand)(NP (NP (NNP Sansui)(POS 's))(NN product)(NN line))(, ,)(S-ADV (NP-SBJ (-NONE- *-2))(VP (VBG using)(NP-1 (NP (NNP Sansui)(POS 's))(NNS engineers))(S-CLR (NP-SBJ (-NONE- *-1))(VP (TO to)(VP (VB design)(NP (DT the)(JJ new)(NNS products)))))))) |ET| 
1  |BT| (VP (VBD considered)(S (NP-SBJ (-NONE- *-3))(VP (VBG seeking)(NP (NP (NN control))(PP (IN of)(NP (NP (NNP Milton)(NNP Roy))(, ,)(PP (IN of)(NP (NP (NNP St.)(NNP Petersburg))(, ,)(NP-LOC (NNP Fla.))))(, ,))))(PP-CLR (IN through)(NP (DT a)(NN merger)(CC or)(NN tender)(NN offer)))))) |ET| 
-0.71225344822793046350994927706779  |BT| (VP (VBD said)(SBAR (SBAR (IN that)(S (PP-TMP (IN in)(NP (DT the)(NN past)))(NP-SBJ-3 (PRP it))(VP (VBD considered)(S (NP-SBJ (-NONE- *-3))(VP (VBG seeking)(NP (NP (NN control))(PP (IN of)(NP (NP (NNP Milton)(NNP Roy))(, ,)(PP (IN of)(NP (NP (NNP St.)(NNP Petersburg))(, ,)(NP-LOC (NNP Fla.))))(, ,))))(PP-CLR (IN through)(NP (DT a)(NN merger)(CC or)(NN tender)(NN offer))))))))(CC and)(SBAR (IN that)(S (NP-SBJ-1 (PRP it))(VP (VBZ expects)(S (NP-SBJ-2 (-NONE- *-1))(VP (TO to)(VP (VB continue)(S (NP-SBJ (-NONE- *-2))(VP (TO to)(VP (VB evaluate)(NP (DT an)(NN acquisition))(PP-TMP (PP (IN from)(NP (NN time)))(PP (TO to)(NP (NN time))))))))))))))) |ET| 
1  |BT| (VP (VBD acquired)(NP (DT the)(NN stock))(`` ``)(S-PRP (NP-SBJ (-NONE- *-1))(VP (TO to)(VP (VB develop)(CC and)(VB maintain)(NP (NP (DT a)(JJ strategic)(NN partnership))(SBAR (WHPP-4 (IN in)(WHNP (WDT which)))(S (NP-SBJ-2 (DT each)(NN company))(VP (VBZ remains)(ADJP-PRD (JJ independent))(SBAR-ADV (IN while)(S (NP-SBJ-3 (-NONE- *-2))(VP (VBG working)(ADVP-MNR (RB together))(S-CLR (NP-SBJ (-NONE- *-3))(VP (TO to)(VP (VB market)(CC and)(VB sell)(NP (PRP$ their)(NNS products))))))))(PP-LOC (-NONE- *T*-4)))))))))) |ET| 
-1  |BT| (VP (VB develop)(CC and)(VB maintain)(NP (NP (DT a)(JJ strategic)(NN partnership))(SBAR (WHPP-4 (IN in)(WHNP (WDT which)))(S (NP-SBJ-2 (DT each)(NN company))(VP (VBZ remains)(ADJP-PRD (JJ independent))(SBAR-ADV (IN while)(S (NP-SBJ-3 (-NONE- *-2))(VP (VBG working)(ADVP-MNR (RB together))(S-CLR (NP-SBJ (-NONE- *-3))(VP (TO to)(VP (VB market)(CC and)(VB sell)(NP (PRP$ their)(NNS products))))))))(PP-LOC (-NONE- *T*-4))))))) |ET| 
0.43701788577236366784006804664386  |BT| (VP (VBZ expects)(S (NP-SBJ-2 (-NONE- *-1))(VP (TO to)(VP (VB continue)(S (NP-SBJ (-NONE- *-2))(VP (TO to)(VP (VB evaluate)(NP (DT an)(NN acquisition))(PP-TMP (PP (IN from)(NP (NN time)))(PP (TO to)(NP (NN time))))))))))) |ET| 
-1  |BT| (VP (VBD added)(, ,)(`` ``)(S (S (NP-SBJ (DT This))(VP (VBZ has)(NP (NP (NN nothing))(SBAR (WHNP-1 (-NONE- 0))(S (NP-SBJ (-NONE- *))(VP (TO to)(VP (VB do)(NP (-NONE- *T*-1))(PP-CLR (IN with)(NP (NNP Marty)(NNP Ackerman))))))))))(CC and)(S (NP-SBJ-2 (PRP it))(VP (VBZ is)(RB not)(VP (VBN designed)(, ,)(ADVP (RB particularly))(, ,)(S (NP-SBJ (-NONE- *-2))(VP (TO to)(VP (VB take)(S (NP-SBJ (DT the)(NN company))(ADJP-PRD (JJ private))))))))))) |ET| 
1  |BT| (VP (VBD estimated)(SBAR (IN that)(S (NP-SBJ (NP (DT the)(NNP California)(NN earthquake))(NP-TMP (JJ last)(NN month)))(VP (MD will)(VP (VB result)(PP-CLR (IN in)(NP (NP (DT a)(NN fourth-quarter)(JJ pre-tax)(NN charge))(PP (IN of)(NP (QP (JJR less)(IN than)($ $)(CD 10)(CD million))(-NONE- *U*)))))))))) |ET| 
-0.8237782684428068824544766357576  |BT| (VP (VBD went)(ADJP-PRD (JJ public))(NP-TMP (RBR earlier)(DT this)(NN month))(, ,)(S-ADV (NP-SBJ (-NONE- *-1))(VP (VBG offering)(NP (NP (CD 1,745,000)(NNS shares))(PP (IN of)(NP (JJ common)(NN stock))))(PP (IN at)(NP (NP ($ $)(CD 15)(-NONE- *U*))(NP-ADV (DT a)(NN share))))))) |ET| 
1  |BT| (VP (VBN designed)(, ,)(ADVP (RB particularly))(, ,)(S (NP-SBJ (-NONE- *-2))(VP (TO to)(VP (VB take)(S (NP-SBJ (DT the)(NN company))(ADJP-PRD (JJ private))))))) |ET| 
-1  |BT| (VP (VBD affected)(NP (NP (NN bank)(NN indebtedness))(SBAR (WHNP-1 (WDT that))(S (NP-SBJ-3 (-NONE- *T*-1))(VP (VBD was)(VP (VBN incurred)(NP (-NONE- *-3))(S-PRP (NP-SBJ (-NONE- *))(VP (TO to)(VP (VB finance)(NP (NP (QP ($ $)(CD 585)(CD million))(-NONE- *U*))(PP (IN of)(NP (NP (NP (DT the)(NN company)(POS 's))(ADJP (QP ($ $)(CD 728)(CD million))(-NONE- *U*))(NN recapitalization))(SBAR (WHNP-2 (WDT that))(S (NP-SBJ (-NONE- *T*-2))(VP (VBD took)(NP-CLR (NN place))(X (PP-TMP (IN in)))))))))))))))))) |ET| 
1  |BT| (VP (VBG doing)(NP (NP (NN something))(SBAR (WHNP-1 (DT that))(S (NP-SBJ (NNP Jaguar))(VP (VBZ does)(RB n't)(VP (VB want)(NP (-NONE- *T*-1)))))))(PP-TMP (IN over)(NP (DT the)(JJ next)(CD 14)(NNS months)))) |ET| 
-1  |BT| (VP (VB see)(S (NP-SBJ (DT the)(NN government))(VP (VBG doing)(NP (NP (NN something))(SBAR (WHNP-1 (DT that))(S (NP-SBJ (NNP Jaguar))(VP (VBZ does)(RB n't)(VP (VB want)(NP (-NONE- *T*-1)))))))(PP-TMP (IN over)(NP (DT the)(JJ next)(CD 14)(NNS months)))))) |ET| 
1  |BT| (VP (VBN incurred)(NP (-NONE- *-3))(S-PRP (NP-SBJ (-NONE- *))(VP (TO to)(VP (VB finance)(NP (NP (QP ($ $)(CD 585)(CD million))(-NONE- *U*))(PP (IN of)(NP (NP (NP (DT the)(NN company)(POS 's))(ADJP (QP ($ $)(CD 728)(CD million))(-NONE- *U*))(NN recapitalization))(SBAR (WHNP-2 (WDT that))(S (NP-SBJ (-NONE- *T*-2))(VP (VBD took)(NP-CLR (NN place))(X (PP-TMP (IN in))))))))))))) |ET| 
-1  |BT| (VP (VBZ plans)(S (NP-SBJ (-NONE- *-1))(VP (TO to)(VP (VB redeem)(PP-TMP (IN on)(NP (NNP Nov.)(CD 16)))(NP (NP (PRP$ its)(QP ($ $)(CD 150)(CD million))(-NONE- *U*))(PP (IN of)(NP (NP (ADJP (CD 6.5)(NN %))(JJ convertible)(VBN subordinated)(NNS debentures))(ADJP (JJ due)(NP-TMP (NNP March)(CD 1)(, ,)(CD 2011)))))))))) |ET| 
1  |BT| (VP (VBZ expects)(S (NP-SBJ (NP (JJ net)(NN income))(PP-TMP (IN in)(NP (NP (DT the)(NN year))(VP (VBG ending)(NP-TMP-CLR (NNP June)(CD 30)(, ,)(CD 1990)(, ,))))))(VP (TO to)(VP (VB fall)(PP-DIR (IN below)(NP (NP (NP (DT a)(JJ recent)(NN analyst)(POS 's))(NN estimate))(PP (IN of)(NP (NP ($ $)(CD 1.65)(-NONE- *U*))(NP-ADV (DT a)(NN share)))))))))) |ET| 
-0.39360908847775666341561873196042  |BT| (VP (VBD said)(SBAR (-NONE- 0)(S (NP-SBJ (PRP it))(VP (VBZ expects)(S (NP-SBJ (NP (JJ net)(NN income))(PP-TMP (IN in)(NP (NP (DT the)(NN year))(VP (VBG ending)(NP-TMP-CLR (NNP June)(CD 30)(, ,)(CD 1990)(, ,))))))(VP (TO to)(VP (VB fall)(PP-DIR (IN below)(NP (NP (NP (DT a)(JJ recent)(NN analyst)(POS 's))(NN estimate))(PP (IN of)(NP (NP ($ $)(CD 1.65)(-NONE- *U*))(NP-ADV (DT a)(NN share))))))))))))) |ET| 
1  |BT| (VP (VBZ plans)(S (NP-SBJ (-NONE- *-1))(VP (TO to)(VP (VB redeem)(PP-TMP (IN on)(NP (NNP Nov.)(CD 16)))(NP (NP (PRP$ its)(QP ($ $)(CD 150)(CD million))(-NONE- *U*))(PP (IN of)(NP (NP (ADJP (CD 6.5)(NN %))(JJ convertible)(VBN subordinated)(NNS debentures))(ADJP (JJ due)(NP-TMP (NNP March)(CD 1)(, ,)(CD 2011)))))))))) |ET| 
-0.67331026329014009856877009951859  |BT| (S (PP (VBG According)(PP (TO to)(NP (NP (NNP Upjohn)(POS 's))(NNS estimates))))(, ,)(NP-SBJ (RB only)(NP (NP (QP (CD 50)(NN %)(TO to)(CD 60)(NN %))(-NONE- *U*))(PP (IN of)(NP (DT the)(CD 1,100)(JJ eligible)(NNS employees)))))(VP (MD will)(VP (VB take)(NP-CLR (NN advantage))(PP-CLR (IN of)(NP (DT the)(NN plan)))))(. .)) |ET| 
1  |BT| (VP (VB convince)(S (NP-SBJ (DT the)(JJ Conservative)(NN government))(VP (TO to)(VP (VB keep)(NP (NP (PRP$ its)(JJ so-called)(JJ golden)(NN share))(, ,)(SBAR (WHNP-1 (WDT which))(S (NP-SBJ (-NONE- *T*-1))(VP (VBZ limits)(NP (DT any)(JJ individual)(NN holding))(PP-CLR (TO to)(NP (CD 15)(NN %))))))(, ,))(SBAR-TMP (IN until)(S (NP-SBJ (DT the)(NN restriction))(VP (VBZ expires)(PP-CLR-TMP (IN on)(NP (NNP Dec.)(CD 31)(, ,)(CD 1990)))))))))) |ET| 
-1  |BT| (VP (VBD declined)(S (NP-SBJ (-NONE- *-2))(VP (TO to)(VP (VB specify)(SBAR (WHNP-1 (WP what))(S (NP-SBJ (-NONE- *T*-1))(VP (VBD prompted)(NP (DT the)(JJ recent)(NNS moves))))))))(, ,)(S-ADV (NP-SBJ (-NONE- *-2))(VP (VBG saying)(SBAR (-NONE- 0)(S (NP-SBJ-4 (PRP they))(VP (VBP are)(VP (VBN meant)(ADVP (RB only))(S (NP-SBJ (-NONE- *-4))(VP (TO to)(VP (VB benefit)(NP (NNS shareholders))(SBAR-TMP (WHADVP-3 (WRB when))(`` ``)(S (NP-SBJ (DT the)(NN company))(VP (VBZ is)(PP-PRD (IN on)(NP (DT a)(NN roll)))(ADVP-TMP (-NONE- *T*-3))))))))))))))) |ET| 
1  |BT| (VP (VBD had)(NP (NP (QP (CD eight)(CD million))(NNS guilders))(PP (IN of)(NP (JJ extraordinary)(NNS charges))))(PP-TMP (IN in)(NP (DT the)(JJS latest)(NN quarter)))(, ,)(S-PRP (ADVP (RB mainly))(NP-SBJ (-NONE- *))(VP (TO to)(VP (VB reflect)(NP (NP (JJ one-time)(NNS losses))(PP (IN in)(NP (NP (NN connection))(PP (IN with)(NP (NP (DT the)(NN disposal))(PP (IN of)(NP (DT some)(NNS operations)))))))))))) |ET| 
-1  |BT| (VP (VBZ continues)(S (NP-SBJ (-NONE- *-1))(VP (TO to)(VP (VB explore)(NP (NP (DT all)(NNS options))(PP (VBG concerning)(NP (NP (DT the)(JJ possible)(NN sale))(PP (IN of)(NP (NP (NP (NNP National)(NNP Aluminum)(POS 's))(ADJP (CD 54.5)(NN %))(NN stake))(PP (IN in)(NP (NP (DT an)(NN aluminum)(NN smelter))(PP-LOC (IN in)(NP (NP (NNP Hawesville))(, ,)(NP (NNP Ky))))))))))))))) |ET| 
1  |BT| (VP (VBN meant)(ADVP (RB only))(S (NP-SBJ (-NONE- *-4))(VP (TO to)(VP (VB benefit)(NP (NNS shareholders))(SBAR-TMP (WHADVP-3 (WRB when))(`` ``)(S (NP-SBJ (DT the)(NN company))(VP (VBZ is)(PP-PRD (IN on)(NP (DT a)(NN roll)))(ADVP-TMP (-NONE- *T*-3))))))))) |ET| 
-0.91380901070225151183734624282806  |BT| (VP (VBN seen)(S (NP-SBJ (QP ($ $)(CD 161)(CD million))(-NONE- *U*))(VP (NN flow)(ADVP (RB out))(PP-TMP (IN since)(NP (JJ early)(NNP September)))))) |ET| 
1  |BT| (VP (VBD filed)(NP (DT a)(NN lawsuit))(PP-LOC (IN in)(NP (NNP Delaware)(NNP Chancery)(NNP Court)))(S-PRP (NP-SBJ (-NONE- *-1))(VP (TO to)(VP (VB block)(NP (NP (DT a)(NN tender)(NN offer))(PP (IN by)(NP (NNP DPC)(NNP Acquisition)(NNP Partners)))))))(, ,)(S-ADV (NP-SBJ (-NONE- *-1))(VP (VBG alleging)(SBAR (IN that)(S (NP-SBJ (DT the)(NN hostile)(NN offer))(VP (VBZ violates)(NP (NP (DT a)(JJ standstill)(NN agreement))(PP (IN between)(NP (DT the)(CD two)(NNS concerns)))))))))) |ET| 
-1  |BT| (VP (VBD filed)(NP (DT a)(NN lawsuit))(PP-LOC (IN in)(NP (NNP Delaware)(NNP Chancery)(NNP Court)))(S-PRP (NP-SBJ (-NONE- *-1))(VP (TO to)(VP (VB block)(NP (NP (DT a)(NN tender)(NN offer))(PP (IN by)(NP (NNP DPC)(NNP Acquisition)(NNP Partners)))))))(, ,)(S-ADV (NP-SBJ (-NONE- *-1))(VP (VBG alleging)(SBAR (IN that)(S (NP-SBJ (DT the)(NN hostile)(NN offer))(VP (VBZ violates)(NP (NP (DT a)(JJ standstill)(NN agreement))(PP (IN between)(NP (DT the)(CD two)(NNS concerns)))))))))) |ET| 
1  |BT| (VP (VBD agreed)(S (NP-SBJ (-NONE- *-1))(VP (TO to)(VP (VB sell)(NP (PRP$ its)(NNP Baby)(NNP Ruth)(, ,)(NNP Butterfinger)(CC and)(NNP Pearson)(NN candy)(NNS businesses))(PP-DTV (TO to)(NP (NP (NNP Nestle)(NNP S.A.)(POS 's))(NNP Nestle)(NNPS Foods)(NN unit)))(PP-CLR (IN for)(NP (QP ($ $)(CD 370)(CD million))(-NONE- *U*))))))) |ET| 
-1  |BT| (VP (VBD said)(SBAR (-NONE- 0)(S (NP-SBJ-1 (PRP it))(VP (VBD agreed)(S (NP-SBJ (-NONE- *-1))(VP (TO to)(VP (VB sell)(NP (PRP$ its)(NNP Baby)(NNP Ruth)(, ,)(NNP Butterfinger)(CC and)(NNP Pearson)(NN candy)(NNS businesses))(PP-DTV (TO to)(NP (NP (NNP Nestle)(NNP S.A.)(POS 's))(NNP Nestle)(NNPS Foods)(NN unit)))(PP-CLR (IN for)(NP (QP ($ $)(CD 370)(CD million))(-NONE- *U*)))))))))) |ET| 
1  |BT| (VP (VBZ expects)(S (NP-SBJ (-NONE- *-2))(VP (TO to)(VP (VB post)(NP (NP (NNS sales))(PP-TMP (IN in)(NP (DT the)(JJ current)(JJ fiscal)(NN year)))(SBAR (WHNP-1 (WDT that))(S (NP-SBJ (-NONE- *T*-1))(VP (VBP are)(PP-PRD (`` ``)(ADVP (RB slightly))(JJ above)('' '')(NP (NP (JJ fiscal)(CD 1989)(NNS sales))(PP (IN of)(NP (QP ($ $)(CD 155)(CD million))(-NONE- *U*))))))))))))) |ET| 
-0.87310818368625053853548934057471  |BT| (VP (VBD said)(SBAR (-NONE- 0)(S (NP-SBJ-2 (PRP it))(VP (VBZ expects)(S (NP-SBJ (-NONE- *-2))(VP (TO to)(VP (VB post)(NP (NP (NNS sales))(PP-TMP (IN in)(NP (DT the)(JJ current)(JJ fiscal)(NN year)))(SBAR (WHNP-1 (WDT that))(S (NP-SBJ (-NONE- *T*-1))(VP (VBP are)(PP-PRD (`` ``)(ADVP (RB slightly))(JJ above)('' '')(NP (NP (JJ fiscal)(CD 1989)(NNS sales))(PP (IN of)(NP (QP ($ $)(CD 155)(CD million))(-NONE- *U*)))))))))))))))) |ET| 
1  |BT| (NP (NN intent)(S (NP-SBJ (-NONE- *))(VP (TO to)(VP (VB acquire)(NP (NP (NP (NNP Automated)(NNP Custom)(NNPS Systems)(NNP Inc.))(, ,)(NP-LOC (NP (NNP Orange))(, ,)(NP (NNP Calif.)))(, ,))(CC and)(NP (NP (PRP$ its)(NN sister)(NN operation))(, ,)(NP (NNP Environmental)(NNP Testing)(NNP Co.))(, ,)(PP-LOC (IN in)(NP (NP (NNP Aurora))(, ,)(NP (NNP Colo)))))))))) |ET| 
-1  |BT| (S (PP (IN In)(NP (NP (NN response))(PP (TO to)(NP (NP (NNP BellSouth)(POS 's))(VBN amended)(NN pact)))))(, ,)(NP-SBJ (DT the)(NAC-LOC (NNP Kirkland)(, ,)(NNP Wash.)(, ,))(NN company))(VP (VBD extended)(NP (PRP$ its)(JJ own)(NN offer)(S (NP-SBJ (-NONE- *))(VP (TO to)(VP (VB buy)(NP (QP (CD 22)(CD million))(NNP LIN)(NNS shares))(PP-CLR (IN for)(NP (NP ($ $)(CD 125)(-NONE- *U*))(ADVP (RB apiece))))(, ,)(SBAR-ADV (WHNP-1 (WDT which))(S (NP-SBJ (-NONE- *T*-1))(VP (MD would)(VP (VB give)(NP (NNP McCaw))(NP (DT a)(ADJP (CD 50.3)(NN %))(VBG controlling)(NN interest)))))))))))(. .)) |ET| 
0.73489366641373465860453961795429  |BT| (VP (VBD agreed)(S (NP-SBJ (-NONE- *-1))(VP (TO to)(VP (VB pay)(NP (NP ($ $)(CD 19)(-NONE- *U*))(CC and)(NP (NN one-eighth)(NNP QVC)(NN share)))(PP-CLR (IN for)(NP (NP (DT each))(PP (IN of)(NP (NP (NNP CVN)(POS 's))(QP (CD 20)(CD million))(RB fully)(JJ diluted)(NNS shares))))))))) |ET| 
-1  |BT| (VP (VBD signed)(NP (NP (DT a)(NN letter))(PP (IN of)(NP (NN intent)(S (NP-SBJ (-NONE- *))(VP (TO to)(VP (VB purchase)(NP (NNP La)(NNP Jolla)(NNP Bancorp))))))))(, ,)(S-ADV (NP-SBJ-1 (-NONE- *))(VP (VBG agreeing)(S (NP-SBJ (-NONE- *-1))(VP (TO to)(VP (VB pay)(NP (NP ($ $)(CD 15)(-NONE- *U*))(PP (IN of)(NP (PRP$ its)(JJ own)(NN stock))))(PP-CLR (IN for)(NP (NP (DT each)(NN share))(PP (IN of)(NP (NNP La)(NNP Jolla))))))))))) |ET| 
1  |BT| (VP (VBD extended)(NP (PRP$ its)(JJ own)(NN offer)(S (NP-SBJ (-NONE- *))(VP (TO to)(VP (VB buy)(NP (QP (CD 22)(CD million))(NNP LIN)(NNS shares))(PP-CLR (IN for)(NP (NP ($ $)(CD 125)(-NONE- *U*))(ADVP (RB apiece))))(, ,)(SBAR-ADV (WHNP-1 (WDT which))(S (NP-SBJ (-NONE- *T*-1))(VP (MD would)(VP (VB give)(NP (NNP McCaw))(NP (DT a)(ADJP (CD 50.3)(NN %))(VBG controlling)(NN interest))))))))))) |ET| 
-1  |BT| (VP (VB buy)(NP (QP (CD 22)(CD million))(NNP LIN)(NNS shares))(PP-CLR (IN for)(NP (NP ($ $)(CD 125)(-NONE- *U*))(ADVP (RB apiece))))(, ,)(SBAR-ADV (WHNP-1 (WDT which))(S (NP-SBJ (-NONE- *T*-1))(VP (MD would)(VP (VB give)(NP (NNP McCaw))(NP (DT a)(ADJP (CD 50.3)(NN %))(VBG controlling)(NN interest))))))) |ET| 
1  |BT| (VP (VBD took)(NP (NP (DT a)(NN write-off))(PP (IN of)(NP (QP ($ $)(CD 150)(CD million))(-NONE- *U*))))(S-PRP (NP-SBJ (-NONE- *-1))(VP (TO to)(VP (VB cover)(NP (NP (NNS losses))(PP-LOC (IN on)(NP (DT some)(JJ fixed-price)(NN defense)(NNS contracts)))))))(, ,)(SBAR-TMP (IN as)(S (NP-SBJ (DT some)(JJ new)(NNS managers))(VP (VBD took)(NP (NP (DT a)(JJ hard)(NN look))(PP (IN at)(NP (NP (DT the)(NNS prospects))(PP (IN for)(NP (DT that)(JJ slow-growing)(NN business)))))))))) |ET| 
-1  |BT| (VP (VBD took)(NP (NP (DT a)(NN write-off))(PP (IN of)(NP (QP ($ $)(CD 150)(CD million))(-NONE- *U*))))(S-PRP (NP-SBJ (-NONE- *-1))(VP (TO to)(VP (VB cover)(NP (NP (NNS losses))(PP-LOC (IN on)(NP (DT some)(JJ fixed-price)(NN defense)(NNS contracts)))))))(, ,)(SBAR-TMP (IN as)(S (NP-SBJ (DT some)(JJ new)(NNS managers))(VP (VBD took)(NP (NP (DT a)(JJ hard)(NN look))(PP (IN at)(NP (NP (DT the)(NNS prospects))(PP (IN for)(NP (DT that)(JJ slow-growing)(NN business)))))))))) |ET| 
1  |BT| (NP (PRP$ its)(JJ own)(NN offer)(S (NP-SBJ (-NONE- *))(VP (TO to)(VP (VB buy)(NP (QP (CD 22)(CD million))(NNP LIN)(NNS shares))(PP-CLR (IN for)(NP (NP ($ $)(CD 125)(-NONE- *U*))(ADVP (RB apiece))))(, ,)(SBAR-ADV (WHNP-1 (WDT which))(S (NP-SBJ (-NONE- *T*-1))(VP (MD would)(VP (VB give)(NP (NNP McCaw))(NP (DT a)(ADJP (CD 50.3)(NN %))(VBG controlling)(NN interest)))))))))) |ET| 
-1  |BT| (VP (VBD aimed)(S (NP-SBJ-2 (-NONE- *-1))(VP (TO to)(VP (VB pump)(PRT (RP up))(NP (NP (DT the)(NN company)(POS 's))(NN stock)(NN price))(PP-MNR (IN through)(NP (JJ false)(JJ financial)(NNS statements)))(SBAR-PRP (PP (IN in)(NP (NN order)))(S (NP-SBJ (-NONE- *-2))(VP (TO to)(VP (VP (VB sell)(NP (PRP$ his)(NN stake)))(CC and)(VP (VB reap)(NP (JJ huge)(NNS profits))))))))))) |ET| 
1  |BT| (S (PP (IN Under)(NP (NP (NNS terms))(PP (IN of)(NP (DT the)(NN agreement)))))(, ,)(NP-SBJ (NP (NNS shareholders))(ADJP (JJ other)(PP (IN than)(NP (DT the)(NNPS Underwoods)))))(VP (MD will)(VP (VB receive)(NP (NP ($ $)(CD 3,500)(-NONE- *U*))(NP-ADV (DT a)(NN share)))(PP-TMP (IN at)(NP (NP (NN closing))(, ,)(SBAR (WHNP-2 (WDT which))(S (NP-SBJ-1 (-NONE- *T*-2))(VP (VBZ is)(VP (VBN expected)(NP (-NONE- *-1))(PP-TMP (IN in)(NP (NNP December)))))))))))(. .)) |ET| 
-0.25034388974775645397841117301141  |BT| (S-TPC-1 (PP (RB Even)(IN without)(NP (DT a)(NN specific)(NN takeover)(NN threat)))(, ,)(NP-SBJ (NNP Courtaulds))(VP (VBZ is)(VP (VBG giving)(NP (NNS shareholders))(`` ``)(NP (NN choice)(CC and)(NN value))(, ,)('' '')))) |ET| 
0.13074629265412862633155555158737  |BT| (VP (VBD aimed)(S (NP-SBJ-2 (-NONE- *-1))(VP (TO to)(VP (VB pump)(PRT (RP up))(NP (NP (DT the)(NN company)(POS 's))(NN stock)(NN price))(PP-MNR (IN through)(NP (JJ false)(JJ financial)(NNS statements)))(SBAR-PRP (PP (IN in)(NP (NN order)))(S (NP-SBJ (-NONE- *-2))(VP (TO to)(VP (VP (VB sell)(NP (PRP$ his)(NN stake)))(CC and)(VP (VB reap)(NP (JJ huge)(NNS profits))))))))))) |ET| 
-0.92184413285123800729792264974094  |BT| (S (NP-SBJ (NP (NNP Mr.)(NNP Leon))(PP (IN of)(NP (NNP Bear)(NNP Stearns))))(VP (VBD speculated)(SBAR (IN that)(S (NP-SBJ-3 (NNP McCaw))(, ,)(PP (IN in)(NP (DT an)(NN attempt)(S (NP-SBJ (-NONE- *))(VP (TO to)(VP (VB buy)(NP (NN time)))))))(, ,)(VP (MD might)(VP (VB consider)(S (NP-SBJ (-NONE- *-3))(VP (VBG filing)(NP (DT an)(JJ antitrust)(NN suit))(PP-CLR (IN against)(NP (NNP BellSouth)))(PP (IN with)(NP (NP (DT the)(NNP Justice)(NNP Department))(CC and)(NP (NP (NNP U.S.)(NNP District)(NNP Judge)(NNP Harold)(NNP Greene))(, ,)(SBAR (WHNP-1 (WP who))(S (NP-SBJ (-NONE- *T*-1))(VP (VBZ oversees)(NP (NP (NN enforcement))(PP (IN of)(NP (NP (DT the)(NN consent)(NN decree))(SBAR (WHNP-2 (WDT that))(S (NP-SBJ (-NONE- *T*-2))(VP (VBD broke)(PRT (RP up))(NP (DT the)(NNP Bell)(NN system))(PP-TMP (IN in)(NP (CD 1984))))))))))))))))))))))(. .)) |ET| 
1  |BT| (VP (VB seek)(S (NP-SBJ (-NONE- *-1))(VP (TO to)(VP (VB liquidate)(NP (DT the)(NN computer-printer)(NN maker))(`` ``)(ADVP-TMP (ADVP (RB as)(RB soon))(PP (IN as)(ADJP (JJ possible)))))))(, ,)('' '')(SBAR-ADV (RB even)(IN if)(S (NP-SBJ-2 (DT a)(NN merger))(VP (VBZ is)(RB n't)(VP (VBN consummated)(NP (-NONE- *-2))))))) |ET| 
-1  |BT| (VP (VB seek)(S (NP-SBJ (-NONE- *-1))(VP (TO to)(VP (VB liquidate)(NP (DT the)(NN computer-printer)(NN maker))(`` ``)(ADVP-TMP (ADVP (RB as)(RB soon))(PP (IN as)(ADJP (JJ possible)))))))(, ,)('' '')(SBAR-ADV (RB even)(IN if)(S (NP-SBJ-2 (DT a)(NN merger))(VP (VBZ is)(RB n't)(VP (VBN consummated)(NP (-NONE- *-2))))))) |ET| 
1  |BT| (VP (VB help)(S (NP-SBJ (-NONE- *-1))(VP (VB fend)(PRT (RP off))(NP (NP (DT an)(JJ unwelcome)(NN takeover)(NN bid))(PP (IN for)(NP (DT the)(NN company))))))) |ET| 
-1  |BT| (S (SBAR-ADV (IN If)(S (NP-SBJ (DT the)(JJ heavy)(NNS outflows))(VP (VBP continue))))(, ,)(NP-SBJ (NN fund)(NNS managers))(VP (MD will)(VP (VB face)(NP (VBG increasing)(NN pressure)(S (NP-SBJ-1 (-NONE- *))(VP (TO to)(VP (VB sell)(PRT (RP off))(NP (NP (DT some))(PP (IN of)(NP (PRP$ their)(NN junk))))(S-PRP (NP-SBJ (-NONE- *-1))(VP (TO to)(VP (VB pay)(NP (VBG departing)(NNS investors))(PP-TMP (IN in)(NP (DT the)(NNS weeks)(RB ahead))))))))))))(. .)) |ET| 
1  |BT| (VP (VB pay)(NP (NP (NP (QP ($ $)(CD 4)(CD million))(-NONE- *U*))(PP (IN in)(NP (NN cash))))(, ,)(NP (NP (QP ($ $)(CD 2)(CD million))(-NONE- *U*))(PP (IN of)(NP (ADJP (CD 12)(NN %))(JJ convertible)(NNS debentures))))(, ,)(CC and)(NP (QP (CD 1.6)(CD million))(JJ common)(NNS shares)))(S-PRP (NP-SBJ (-NONE- *-2))(VP (TO to)(VP (VB acquire)(NP (ADJP (RB closely)(VBN held))(NNP Kofcoh)(NNP Imports)(NNP Inc)))))) |ET| 
-0.59983055141899899176394228561549  |BT| (VP (VB say)(ADVP-MNR (RB directly))(SBAR (IN whether)(S (NP-SBJ (NNP Mr.)(NNP Pattison))(VP (VBZ has)(VP (VBN disclosed)(NP (NP (JJ potential)(NNS terms))(PP (IN for)(NP (NP (PRP$ his)(JJ planned)(NN bid))(PP (IN for)(NP (NN control))))))))))) |ET| 
0.27979378450842234959949905714893  |BT| (NP (VBG increasing)(NN pressure)(S (NP-SBJ-1 (-NONE- *))(VP (TO to)(VP (VB sell)(PRT (RP off))(NP (NP (DT some))(PP (IN of)(NP (PRP$ their)(NN junk))))(S-PRP (NP-SBJ (-NONE- *-1))(VP (TO to)(VP (VB pay)(NP (VBG departing)(NNS investors))(PP-TMP (IN in)(NP (DT the)(NNS weeks)(RB ahead)))))))))) |ET| 
-1  |BT| (VP (VBD soared)(PP-PRP (IN on)(NP (NP (DT the)(NN announcement))(NP-TMP (NN yesterday))))(, ,)(S-ADV (NP-SBJ-2 (-NONE- *-1))(VP (VBG closing)(ADVP (RB up)(NP ($ $)(CD 11)(-NONE- *U*)))(S-CLR (NP-SBJ (-NONE- *-2))(VP (TO to)(VP (VB close)(PP-CLR (IN at)(NP ($ $)(CD 50)(-NONE- *U*))))))(PP-LOC (IN in)(NP (JJ national)(JJ over-the-counter)(NN trading)))))) |ET| 
1  |BT| (NP (NP (DT a)(JJR higher)(NN price))(SBAR (IN than)(S (NP-SBJ (DT some)(NNS analysts))(VP (VBD had)(VP (VBN expected)(NP (-NONE- *?*))))))) |ET| 
-0.7430864529868207446483552303107  |BT| (VP (VB boost)(NP (NP (DT the)(NN company)(POS 's))(NN value))(PP-EXT (IN by)(NP (QP (CD 5)(NN %)(TO to)(CD 10))(NN %)))(, ,)(SBAR-PRP (IN because)(S (NP-SBJ (DT the)(CD two)(NNS entities))(ADVP (RB separately))(VP (MD will)(VP (VB carry)(NP (NP (DT a)(JJR higher)(NN price)(NNS earnings)(NN multiple))(SBAR (IN than)(S (NP-SBJ (PRP they))(VP (VBD did)(VP (-NONE- *?*)(FRAG (ADJP (JJ combined))))))))))))) |ET| 
1  |BT| (VP (VBG prompting)(S (NP-SBJ (NNS institutions))(VP (TO to)(VP (VB take)(NP (NP (DT a)(VBN reserved)(NN stance))(PP-LOC (IN on)(NP (DT the)(NNS sidelines))))(ADVP (IN as)(RB well))(, ,)(SBAR-TMP (ADVP (IN at)(JJS least))(IN until)(S (NP-SBJ (NP (DT the)(NN market))(PP-LOC (IN in)(NP (NNP New)(NNP York))))(VP (VBZ settles)(PRT (RP down))(ADVP-MNR (RB somewhat))))))))) |ET| 
-0.55716308235898848177924946867279  |BT| (VP (VP (VBG leaving)(NP (JJ small)(NNS investors))(PP-CLR (IN with)(NP (JJ cold)(NNS feet))))(PRN (, ,)(S (NP-SBJ (PRP they))(VP (VBD said)(SBAR (-NONE- 0)(S (-NONE- *T*-1)))))(, ,))(CC and)(VP (VBG prompting)(S (NP-SBJ (NNS institutions))(VP (TO to)(VP (VB take)(NP (NP (DT a)(VBN reserved)(NN stance))(PP-LOC (IN on)(NP (DT the)(NNS sidelines))))(ADVP (IN as)(RB well))(, ,)(SBAR-TMP (ADVP (IN at)(JJS least))(IN until)(S (NP-SBJ (NP (DT the)(NN market))(PP-LOC (IN in)(NP (NNP New)(NNP York))))(VP (VBZ settles)(PRT (RP down))(ADVP-MNR (RB somewhat)))))))))) |ET| 
1  |BT| (VP (VBN alleged)(SBAR (IN that)(S (NP-SBJ-1 (NNP Mr.)(NNP Antar))(VP (VBD aimed)(S (NP-SBJ-2 (-NONE- *-1))(VP (TO to)(VP (VB pump)(PRT (RP up))(NP (NP (DT the)(NN company)(POS 's))(NN stock)(NN price))(PP-MNR (IN through)(NP (JJ false)(JJ financial)(NNS statements)))(SBAR-PRP (PP (IN in)(NP (NN order)))(S (NP-SBJ (-NONE- *-2))(VP (TO to)(VP (VP (VB sell)(NP (PRP$ his)(NN stake)))(CC and)(VP (VB reap)(NP (JJ huge)(NNS profits)))))))))))))) |ET| 
-0.57110361814638532784726976387901  |BT| (VP (VBN told)(NP (-NONE- *-1))(NP-TMP (RB early)(DT this)(NN week))(SBAR (IN that)(S (NP-SBJ-3 (NP (JJ numerous)(NN staff)(NNS functions))(PP (IN for)(NP (DT the)(JJ personal)(NN insurance)(NNS lines))))(VP (VBD were)(VP (VBG going)(S (NP-SBJ-2 (-NONE- *-3))(VP (TO to)(VP (VB be)(VP (VBN centralized)(NP (-NONE- *-2))))))(PP (IN as)(NP (DT a)(JJ cost-cutting)(NN move)))))))) |ET| 
1  |BT| (VP (VBD resigned)(PP-CLR (IN as)(NP (NN chief)(NN executive)(NN officer)))(NP-TMP (JJ last)(NN year))(S-PRP (NP-SBJ (-NONE- *-1))(VP (TO to)(VP (VB seek)(, ,)(ADVP-MNR (RB unsuccessfully))(, ,)(NP (NP (DT a)(NN seat))(PP-LOC (IN in)(NP (NP (NNP Canada)(POS 's))(NNP Parliament)))))))) |ET| 
-1  |BT| (VP (VBD took)(NP (NP (DT a)(NN write-off))(PP (IN of)(NP (QP ($ $)(CD 150)(CD million))(-NONE- *U*))))(S-PRP (NP-SBJ (-NONE- *-1))(VP (TO to)(VP (VB cover)(NP (NP (NNS losses))(PP-LOC (IN on)(NP (DT some)(JJ fixed-price)(NN defense)(NNS contracts)))))))(, ,)(SBAR-TMP (IN as)(S (NP-SBJ (DT some)(JJ new)(NNS managers))(VP (VBD took)(NP (NP (DT a)(JJ hard)(NN look))(PP (IN at)(NP (NP (DT the)(NNS prospects))(PP (IN for)(NP (DT that)(JJ slow-growing)(NN business)))))))))) |ET| 
1  |BT| (VP (VBZ expects)(S (NP-SBJ (-NONE- *-1))(VP (TO to)(VP (VB post)(NP (NP (DT a)(JJ one-time)(NN charge))(PP (IN of)(NP (QP ($ $)(CD 8.3)(CD million))(-NONE- *U*))))(, ,)(S-ADV (NP-SBJ (-NONE- *))(VP (VBG resulting)(PP-CLR (IN in)(NP (NP (DT a)(JJ net)(NN loss))(PP (IN for)(NP (DT the)(JJ third)(NN quarter))))))))))) |ET| 
-1  |BT| (VP (VB post)(NP (NP (DT a)(JJ one-time)(NN charge))(PP (IN of)(NP (QP ($ $)(CD 8.3)(CD million))(-NONE- *U*))))(, ,)(S-ADV (NP-SBJ (-NONE- *))(VP (VBG resulting)(PP-CLR (IN in)(NP (NP (DT a)(JJ net)(NN loss))(PP (IN for)(NP (DT the)(JJ third)(NN quarter)))))))) |ET| 
1  |BT| (VP (VB explore)(NP (NP (NNS alternatives))(`` ``)(SBAR (WHNP-1 (-NONE- 0))(S (NP-SBJ (-NONE- *T*-1))(VP (TO to)(VP (VB maximize)(NP (NN shareholder)(NN value))))))(, ,)('' '')(PP (VBG including)(NP (NP (DT the)(JJ possible)(NN sale))(PP (IN of)(NP (DT the)(NN company))))))) |ET| 
-1  |BT| (VP (VBZ is)(ADJP-PRD (JJ willing)(S (NP-SBJ (-NONE- *-1))(VP (TO to)(VP (VB bid)(PP-CLR (IN for)(NP (NP (CD 100)(NN %))(PP (IN of)(NP (NP (NNP Jaguar)(POS 's))(NNS shares)))))))))(SBAR-ADV (IN if)(S (NP-SBJ-2 (DT both)(NP (DT the)(NN government))(CC and)(NP (NNP Jaguar)(NNS shareholders)))(VP (VBP agree)(S (NP-SBJ (-NONE- *-2))(VP (TO to)(VP (VB relax)(NP (DT the)(JJ anti-takeover)(NN barrier))(ADVP-TMP (RB prematurely))))))))) |ET| 
0.91787354452224889644895711171557  |BT| (VP (ADVP-MNR (RB definitively))(VBD agreed)(S (NP-SBJ (-NONE- *-1))(VP (TO to)(VP (VB buy)(NP (NP (DT all))(PP (IN of)(NP (NP (DT the)(ADJP (RB publicly)(VBN held))(NNS shares))(PP (IN of)(NP (NNP Erbamont)(NNP N.V.))))))(PP-CLR (IN for)(NP (NP ($ $)(CD 37)(-NONE- *U*))(NP-ADV (DT each)))))))) |ET| 
-1  |BT| (VP (VBD caused)(S (NP-SBJ (NNP Crossland))(VP (VP (TO to)(VP (VB revise)(NP (PRP$ its)(NN business)(NNS objectives))))(CC and)(, ,)(VP (ADVP (RB consequently))(, ,)(TO to)(VP (VB write)(PRT (RP down))(NP (NP (DT the)(NN asset)(NN value))(PP (IN of)(NP (DT some)(JJ previous)(NNS acquisitions))))))))) |ET| 
0.78670981856370880702655767890974  |BT| (VP (VBP agree)(S (NP-SBJ (-NONE- *-2))(VP (TO to)(VP (VB relax)(NP (DT the)(JJ anti-takeover)(NN barrier))(ADVP-TMP (RB prematurely)))))) |ET| 
-0.96511667157576863651513576769503  |BT| (SINV (S-TPC (NP-SBJ-1 (NNS Proceeds))(VP (MD will)(VP (VB be)(VP (VBN used)(NP-2 (-NONE- *-1))(S-CLR (NP-SBJ (-NONE- *-2))(VP (TO to)(VP (VB reduce)(NP (NP (JJ short-term)(NN debt))(PP-LOC (IN at)(NP (DT the)(NN beer)(CC and)(NN food)(NN concern)))))))))))(, ,)(VP (VBD said))(NP-SBJ (NP (NNP Robert)(NNP Vaux))(, ,)(NP (NP (NN vice)(NN president))(, ,)(NP (NN finance))))(. .)) |ET| 
0.27412549181006651277670016497723  |BT| (VP (VBZ permits)(S (NP-SBJ (NP (NNP West)(NNP Germany)(POS 's))(JJ second-largest)(NN bank))(VP (TO to)(VP (VB acquire)(NP (NP (NNS shares))(PP (IN of)(NP (DT the)(JJ French)(NN investment)(NN bank)))))))) |ET| 
-1  |BT| (VP (VB be)(ADJP-PRD (JJ unwilling)(S (NP-SBJ (-NONE- *-3))(VP (TO to)(VP (VB take)(NP (JJ criminal)(NNS cases))))))(SBAR-ADV (IN unless)(S (NP-SBJ-1 (PRP they))(VP (VBP are)(VP (VBN assured)(NP (-NONE- *-1))(PP-CLR (IN of)(S-NOM (NP-SBJ-2 (-NONE- *))(VP (VBG being)(VP (VBN paid)(NP (-NONE- *-2))))))))))) |ET| 
1  |BT| (VP (VBD resigned)(S-PRP (NP-SBJ (-NONE- *-1))(VP (TO to)(VP (VB pursue)(NP (DT a)(NN consulting)(NN career))(, ,)(SBAR-ADV (IN with)(S (NP-SBJ (NNP Magna))(PP-PRD (IN as)(NP (NP (CD one))(PP (IN of)(NP (PRP$ his)(NNS clients))))))))))) |ET| 
-1  |BT| (VP (VBN started)(S (NP-SBJ (-NONE- *-1))(VP (VBG processing)(NP (NP (NNS claims))(PP (IN from)(NP (DT the)(NNP Northern)(NNP California)(NN earthquake))))))(ADVP-TMP (NP (QP (RB nearly)(CD two))(NNS weeks))(IN ago))) |ET| 
1  |BT| (VP (VBP call)(SBAR (IN for)(S (NP-SBJ (NNP First)(NNP Security))(VP (TO to)(VP (VB issue)(NP (NP (NP (QP (RB about)(CD 0.55))(NN share))(PP (IN of)(NP (PRP$ its)(NN stock)))(PP (IN for)(NP (NP (DT each)(NNP Deseret)(NN share))(VP (VBN held)(NP (-NONE- *))))))(, ,)(CC or)(NP (NP (DT a)(NN total))(PP (IN of)(NP (QP (RB about)(CD 550,000))(NNP First)(NNP Security)(NNS shares)))))))))) |ET| 
-1  |BT| (VP (VBD said)(SBAR (IN that)(S (NP-SBJ-1 (NP (QP ($ $)(CD 10)(CD million))(-NONE- *U*))(PP (IN of)(NP (DT the)(NN facility))))(VP (MD would)(VP (VB be)(VP (VBN used)(NP-3 (-NONE- *-1))(S-CLR (NP-SBJ (-NONE- *-3))(VP (VP (TO to)(VP (VB consolidate)(NP (NP (NP (DT the)(NN company)(POS 's))(QP ($ $)(CD 8.1)(CD million))(-NONE- *U*))(PP (IN of)(NP (VBG existing)(NN bank)(NN debt))))))(, ,)(VP (TO to)(VP (VB repurchase)(NP (NP (QP (CD 4)(CD million)))(PP (IN of)(NP (NP (PRP$ its)(QP (CD 4.9)(CD million))(NNS shares))(ADJP (JJ outstanding))(PP (IN of)(NP (NNP Series)(NNP D)(JJ convertible)(JJ preferred)(NN stock))))))))(, ,)(CC and)(VP (TO to)(VP (VB purchase)(NP (NP (DT a)(ADJP (CD 10)(NN %))(JJ net-profits)(NN interest))(PP (IN in)(NP (JJ certain)(NN oil)(CC and)(NN gas)(NNS properties))))(PP-CLR (IN from)(NP (NP (NP (CD one))(PP (IN of)(NP (PRP$ its)(VBG existing)(NNS lenders))))(, ,)(NP (NNP National)(NNP Canada)(NNP Corp)))))))))))))) |ET| 
1  |BT| (VP (VB help)(S (NP-SBJ (-NONE- *-2))(VP (VB prevent)(NP-1 (NNP Martin)(NNP Ackerman))(PP (IN from)(S-NOM (NP-SBJ (-NONE- *-1))(VP (VBG making)(NP-CLR (DT a)(NN run))(PP-CLR (IN at)(NP (DT the)(NNS computer-services)(NN concern))))))))) |ET| 
-0.97930581359427915089099769829772  |BT| (S (SBAR-ADV (IN Though)(S (NP-SBJ (NNP Mr.)(NNP Packer))(VP (VBZ has)(ADVP-TMP (IN since))(VP (VBN sold)(NP (PRP$ his)(NN stake))))))(, ,)(NP-SBJ-1 (NNP Courtaulds))(VP (VBZ is)(VP (VBG moving)(S (NP-SBJ (-NONE- *-1))(VP (TO to)(VP (VB keep)(S (NP-SBJ (PRP$ its)(JJ institutional)(NNS shareholders))(ADJP-PRD (JJ happy))))))))(. .)) |ET| 
1  |BT| (VP (VBN used)(NP-3 (-NONE- *-1))(S-CLR (NP-SBJ (-NONE- *-3))(VP (VP (TO to)(VP (VB consolidate)(NP (NP (NP (DT the)(NN company)(POS 's))(QP ($ $)(CD 8.1)(CD million))(-NONE- *U*))(PP (IN of)(NP (VBG existing)(NN bank)(NN debt))))))(, ,)(VP (TO to)(VP (VB repurchase)(NP (NP (QP (CD 4)(CD million)))(PP (IN of)(NP (NP (PRP$ its)(QP (CD 4.9)(CD million))(NNS shares))(ADJP (JJ outstanding))(PP (IN of)(NP (NNP Series)(NNP D)(JJ convertible)(JJ preferred)(NN stock))))))))(, ,)(CC and)(VP (TO to)(VP (VB purchase)(NP (NP (DT a)(ADJP (CD 10)(NN %))(JJ net-profits)(NN interest))(PP (IN in)(NP (JJ certain)(NN oil)(CC and)(NN gas)(NNS properties))))(PP-CLR (IN from)(NP (NP (NP (CD one))(PP (IN of)(NP (PRP$ its)(VBG existing)(NNS lenders))))(, ,)(NP (NNP National)(NNP Canada)(NNP Corp))))))))) |ET| 
-1  |BT| (VP (VBD filed)(NP (DT a)(NN lawsuit))(PP-LOC (IN in)(NP (NNP Delaware)(NNP Chancery)(NNP Court)))(S-PRP (NP-SBJ (-NONE- *-1))(VP (TO to)(VP (VB block)(NP (NP (DT a)(NN tender)(NN offer))(PP (IN by)(NP (NNP DPC)(NNP Acquisition)(NNP Partners)))))))(, ,)(S-ADV (NP-SBJ (-NONE- *-1))(VP (VBG alleging)(SBAR (IN that)(S (NP-SBJ (DT the)(NN hostile)(NN offer))(VP (VBZ violates)(NP (NP (DT a)(JJ standstill)(NN agreement))(PP (IN between)(NP (DT the)(CD two)(NNS concerns)))))))))) |ET| 
1  |BT| (VP (VBN agreed)(S (NP-SBJ (-NONE- *-1))(VP (TO to)(VP (VB exercise)(NP (NP (DT any)(NNS rights))(SBAR (WHNP-175 (WDT that))(S (NP-SBJ-2 (-NONE- *T*-175))(VP (VBP are)(RB n't)(VP (VBN exercised)(NP (-NONE- *-2))(PP (IN by)(NP-LGS (JJ other)(NNS shareholders)))))))))))) |ET| 
-1  |BT| (VP (VBD said)(SBAR (IN that)(S (NP-SBJ-1 (NNP Hallwood)(NNP Group)(NNP Inc.))(VP (VBZ has)(VP (VBN agreed)(S (NP-SBJ (-NONE- *-1))(VP (TO to)(VP (VB exercise)(NP (NP (DT any)(NNS rights))(SBAR (WHNP-175 (WDT that))(S (NP-SBJ-2 (-NONE- *T*-175))(VP (VBP are)(RB n't)(VP (VBN exercised)(NP (-NONE- *-2))(PP (IN by)(NP-LGS (JJ other)(NNS shareholders)))))))))))))))) |ET| 
1  |BT| (VP (VB exercise)(NP (PRP$ its)(NN right)(S (NP-SBJ (-NONE- *))(VP (TO to)(VP (VB buy)(PRT (RP out))(PP-CLR (IN for)(NP (QP ($ $)(CD 1.9)(CD billion))(-NONE- *U*)))(NP (NP (DT the)(ADJP (CD 55)(NN %))(NN equity)(NN interest))(PP (IN of)(NP (NP (PRP$ its)(NN partner))(, ,)(NP (NNP Metromedia)(NNP Co.))))(, ,)(PP (IN in)(NP (DT a)(NNP New)(NNP York)(JJ cellular)(NN franchise))))))))) |ET| 
-1  |BT| (VP (VBN fluctuated)(ADVP-MNR (RB sharply))(PP (IN on)(NP (NN takeover)(NN speculation)))(, ,)(S-ADV (NP-SBJ (-NONE- *-1))(VP (VBG rising)(PP-DIR (TO to)(NP (NP (DT a)(JJ high))(PP (IN for)(NP (DT the)(NN year)))(PP (IN of)(NP (NP ($ $)(CD 42.875)(-NONE- *U*))(NP-ADV (DT a)(NN share)))))(PP-TMP (IN in)(NP (NNP June))))(PP-DIR (IN from)(NP ($ $)(CD 29.75)(-NONE- *U*))(PP-TMP (IN in)(NP (NNP March))))))) |ET| 
1  |BT| (VP (VB ensure)(SBAR (-NONE- 0)(S (NP-SBJ (PRP$ its)(NN bid))(VP (VBD remained)(ADJP-PRD (JJ open))(PP (VBG pending)(NP (NP (DT a)(JJ final)(NN decision))(PP (IN by)(NP (JJ Canadian)(NNS regulators)))(PP (IN on)(SBAR (IN whether)(S (NP-SBJ (-NONE- *))(VP (TO to)(VP (VB approve)(NP (DT the)(NN takeover))))))))))))) |ET| 
-0.59564546647704352810848149601952  |BT| (VP (VBD said)(SBAR (-NONE- 0)(S (NP-SBJ (PRP it))(VP (MD would)(VP (VB ensure)(SBAR (-NONE- 0)(S (NP-SBJ (PRP$ its)(NN bid))(VP (VBD remained)(ADJP-PRD (JJ open))(PP (VBG pending)(NP (NP (DT a)(JJ final)(NN decision))(PP (IN by)(NP (JJ Canadian)(NNS regulators)))(PP (IN on)(SBAR (IN whether)(S (NP-SBJ (-NONE- *))(VP (TO to)(VP (VB approve)(NP (DT the)(NN takeover))))))))))))))))) |ET| 
1  |BT| (VP (VBZ hopes)(S (NP-SBJ (-NONE- *-1))(VP (TO to)(VP (VB control)(NP (NP (CD 5)(NN %))(PP (IN of)(NP (NP (NN jewelry)(NN business))(PP-LOC (IN in)(NP (DT the)(NNP U.S.))))))(PP-TMP (IN by)(NP (CD 1992))))))) |ET| 
-1  |BT| (VP (VBN said)(SBAR (-NONE- 0)(S (NP-SBJ-1 (PRP it))(VP (VBZ hopes)(S (NP-SBJ (-NONE- *-1))(VP (TO to)(VP (VB control)(NP (NP (CD 5)(NN %))(PP (IN of)(NP (NP (NN jewelry)(NN business))(PP-LOC (IN in)(NP (DT the)(NNP U.S.))))))(PP-TMP (IN by)(NP (CD 1992)))))))))) |ET| 
0.9883400104551275378028662998986  |BT| (VP (VB let)(S (NP-SBJ (NNP GM))(VP (VB amass)(NP (QP (JJR more)(IN than)(CD 15))(NN %)))(CC or)(VP (VB mount)(NP (DT a)(JJ friendly)(NN suitor)(NN bid))(PP-CLR (IN against)(NP (NNP Ford)))))) |ET| 
-0.57898803918644725641229342727456  |BT| (VP (VBN left)(S (NP-SBJ (NNP Magna))(PP-PRD (IN with)(NP (NP (JJ excess)(NN capacity))(CC and)(NP (DT a)(JJ heavy)(NN debt)(NN load)))))(SBAR-TMP (IN as)(S (NP-SBJ (DT the)(JJ automotive)(NN industry))(VP (VBZ enters)(NP (DT a)(NN downturn)))))) |ET| 
1  |BT| (VP (VBD set)(PRT (RP up))(NP (NP (DT an)(JJ unspecified)(NN reserve))(PRN (: --)(ADVP (RB apparently))(NP (QP ($ $)(CD 60)(CD million)(TO to)($ $)(CD 70)(CD million))(-NONE- *U*))(: --)))(S-PRP (NP-SBJ (-NONE- *-1))(VP (TO to)(VP (VB cover)(NP (NP (DT the)(JJ minimum)(NN amount))(SBAR (WHNP-3 (-NONE- 0))(S (NP-SBJ-2 (PRP it))(VP (MD will)(VP (VB have)(S (NP-SBJ (-NONE- *-2))(VP (TO to)(VP (VB pay)(NP (DT the)(NN government))(NP (-NONE- *T*-3))(PP-PRP (IN because)(IN of)(NP (NP (PRP$ its)(NN involvement))(PP (IN in)(NP (DT the)(NN defense-procurement)(NN scandal))))))))))))))))) |ET| 
-1  |BT| (VP (VB cover)(NP (NP (DT the)(JJ minimum)(NN amount))(SBAR (WHNP-3 (-NONE- 0))(S (NP-SBJ-2 (PRP it))(VP (MD will)(VP (VB have)(S (NP-SBJ (-NONE- *-2))(VP (TO to)(VP (VB pay)(NP (DT the)(NN government))(NP (-NONE- *T*-3))(PP-PRP (IN because)(IN of)(NP (NP (PRP$ its)(NN involvement))(PP (IN in)(NP (DT the)(NN defense-procurement)(NN scandal)))))))))))))) |ET| 
1  |BT| (VP (VBD called)(SBAR (IN for)(S (NP-SBJ (NNP Hewlett-Packard))(VP (TO to)(VP (VB buy)(NP (CD 730,070)(NNP Octel)(NNS shares))(PP-LOC (IN in)(NP (DT the)(JJ open)(NN market)))(PP-TMP (IN within)(NP (CD 18)(NNS months)))))))) |ET| 
-0.66774205078523851675242894998519  |BT| (S (PP-TMP (IN Until)(NP (RB recently)))(, ,)(NP-SBJ (NN Kellogg))(VP (VBD had)(VP (VBN been)(VP (VBG telling)(NP (NP (PRP$ its)(NNS sales)(NN force))(CC and)(NP (NNP Wall)(NNP Street)))(SBAR (IN that)(S (PP-TMP (IN by)(NP (CD 1992)))(NP-SBJ-1 (PRP it))(VP (VBD intended)(S (NP-SBJ (-NONE- *-1))(VP (TO to)(VP (VB achieve)(NP (NP (DT a)(ADJP (CD 50)(NN %))(NN share))(PP (IN of)(NP (NN market)))(, ,)(VP (VBN measured)(NP (-NONE- *))(PP-CLR (IN in)(NP (NN dollar)(NN volume))))))))))))))(. .)) |ET| 
1  |BT| (NP (NNS fears)(SBAR (IN that)(S (S (NP-SBJ-2 (DT the)(NNP Thatcher)(NN government))(VP (MD may)(VP (VB be)(PP-PRD-3 (IN in)(NP (NN turmoil))))))(CC and)(S (NP-SBJ=2-1 (NP (NNP Britain)(POS 's))(NNP Labor)(NNP Party))(VP=3 (VBD positioned)(S (NP-SBJ (-NONE- *-1))(VP (TO to)(VP (VP (VB regain)(NP (NP (NN control))(PP (IN of)(NP (DT the)(NN government)))))(CC and)(VP (VB renew)(NP (NP (NNS efforts))(PP (IN at)(NP (NN nationalization))))))))))))) |ET| 
-0.95596481664242571874012810440036  |BT| (VP (VBD said)(SBAR (-NONE- 0)(SINV (VP-TPC-1 (VBG contributing)(PP-CLR (TO to)(NP (DT the)(JJ downward)(NN drift))))(VP (VBD was)(VP (-NONE- *T*-1)))(NP-SBJ (DT the)(NN fact)(SBAR (IN that)(S (NP-SBJ-2 (JJ many)(JJ professional)(NNS traders))(VP (VBD had)(VP (VBN chosen)(S (NP-SBJ (-NONE- *-2))(VP (TO to)(VP (VB square)(NP (NNS positions))(ADVP-TMP (RB ahead)(PP (IN of)(NP (DT the)(NN weekend))))))))))))))) |ET| 
1  |BT| (VP (VB allow)(NP (NNS shareholders))(NP (NP (NN time))(SBAR (WHADVP-2 (-NONE- 0))(S (NP-SBJ (-NONE- *))(VP (TO to)(VP (VB review)(NP (NP (DT a)(NN supplement))(PP (TO to)(NP (NP (DT the)(NNP Dow)(NNP Jones)(NN tender)(NN offer)(JJ circular))(SBAR (WHNP-3 (IN that))(S (NP-SBJ (PRP it))(VP (VBD mailed)(NP (-NONE- *T*-3))(NP-TMP (JJ last)(NNP Friday))))))))(ADVP-TMP (-NONE- *T*-2)))))))) |ET| 
-0.90461904533352632817866378900362  |BT| (VP (VBD said)(SBAR (-NONE- 0)(S (NP-SBJ-1 (PRP it))(VP (VBD extended)(NP (DT the)(NN offer))(S-PRP (NP-SBJ (-NONE- *-1))(VP (TO to)(VP (VB allow)(NP (NNS shareholders))(NP (NP (NN time))(SBAR (WHADVP-2 (-NONE- 0))(S (NP-SBJ (-NONE- *))(VP (TO to)(VP (VB review)(NP (NP (DT a)(NN supplement))(PP (TO to)(NP (NP (DT the)(NNP Dow)(NNP Jones)(NN tender)(NN offer)(JJ circular))(SBAR (WHNP-3 (IN that))(S (NP-SBJ (PRP it))(VP (VBD mailed)(NP (-NONE- *T*-3))(NP-TMP (JJ last)(NNP Friday))))))))(ADVP-TMP (-NONE- *T*-2)))))))))))))) |ET| 
1  |BT| (VP (VBZ expects)(S (NP-SBJ (-NONE- *-1))(VP (TO to)(VP (VB report)(NP (NP (DT a)(NN charge))(PP (IN of)(NP (QP ($ $)(CD 5.3)(CD million))(-NONE- *U*)))(VP (VBN related)(NP (-NONE- *))(PP-CLR (TO to)(NP (NP (DT the)(NN sale))(PP (IN of)(NP (NP (PRP$ its)(NN aluminum)(NN unit)(POS 's))(NN extrusion)(NN division))))))(PP (IN for)(NP (DT the)(JJ third)(NN quarter)))))))) |ET| 
-0.4958924715785196779549437451351  |BT| (VP (VBZ succeeds)(NP (NP (NNP James)(NNP A.)(NNP Taylor))(, ,)(SBAR (WHNP-1 (WP who))(S (NP-SBJ (-NONE- *T*-1))(VP (VBD stepped)(PRT (RP down))(PP-CLR (IN as)(NP (NP (NN chairman))(, ,)(NP (NN president))(CC and)(NP (NN chief)(NN executive))))(PP-TMP (IN in)(NP (NNP March)))(PP-PRP (IN for)(NP (NN health)(NNS reasons)))))))) |ET| 
0.88564847492026832487255205705878  |BT| (S (NP-SBJ-1 (NP (JJ Many)(NNS funds))(PP-TMP (IN in)(NP (JJ recent)(NNS weeks)(CC and)(NNS months))))(VP (VBP have)(VP (VBN been)(VP (VBG selling)(NP (NP (PRP$ their)(JJ highest-quality)(NN junk)(NNS issues))(, ,)(PP (JJ such)(IN as)(NP (NNP RJR)(NNP Nabisco)))(, ,))(S-PRP (NP-SBJ-2 (-NONE- *-1))(VP (TO to)(VP (VB raise)(NP (NN cash))(S-PRP (NP-SBJ (-NONE- *-2))(VP (TO to)(VP (VB meet)(NP (JJ expected)(NNS redemptions)))))))))))(. .)) |ET| 
-0.63452070871393928541692730505019  |BT| (VP (VB make)(S (NP-SBJ (DT the)(NN case))(NP-PRD (NP (DT the)(JJS largest))(: --)(CC and)(NP (NP (CD one))(PP (IN of)(NP (DT the)(JJ first))))(: --)(SBAR (WHPP-2 (IN in)(WHNP (WDT which)))(S (NP-SBJ-1 (NP (NNS lawyers)(POS '))(NNS fees))(VP (VBP have)(VP (VBN been)(VP (VBN confiscated)(NP (-NONE- *-1))(PP-LOC (IN in)(NP (NP (DT a)(NN prosecution))(ADJP (JJ unrelated)(PP (TO to)(NP (NNS drugs))))))(PP-LOC (-NONE- *T*-2)))))))))) |ET| 
0.85478545053353527372053122235229  |BT| (NP (NP (NP (NNP KKR)(POS 's))(NN program))(SBAR (WHADVP-3 (-NONE- 0))(S (NP-SBJ (-NONE- *))(VP (TO to)(VP (VB pay)(PRT (RP down))(NP (NP (QP ($ $)(CD 5)(CD billion))(-NONE- *U*))(PP (IN of)(NP (DT a)(ADJP (QP ($ $)(CD 6)(CD billion))(-NONE- *U*))(NN bridge)(NN loan))))(PP-TMP (IN by)(NP (NNP February)))(ADVP (-NONE- *T*-3))))))) |ET| 
-1  |BT| (VP (VBD said)(SBAR (IN that)(S (NP-SBJ (DT a)(NNP Dutch)(NN company))(VP (VBZ has)(VP (VBN sought)(NP (NNP U.S.)(NN approval)(S (NP-SBJ (-NONE- *))(VP (TO to)(VP (VB buy)(NP (NP (QP (IN up)(TO to)(CD 25))(NN %))(PP (IN of)(NP (NP (NNP Nashua)(POS 's))(NNS shares))))))))))))) |ET| 
1  |BT| (VP (VBD acquired)(NP (DT the)(NN stock))(`` ``)(S-PRP (NP-SBJ (-NONE- *-1))(VP (TO to)(VP (VB develop)(CC and)(VB maintain)(NP (NP (DT a)(JJ strategic)(NN partnership))(SBAR (WHPP-4 (IN in)(WHNP (WDT which)))(S (NP-SBJ-2 (DT each)(NN company))(VP (VBZ remains)(ADJP-PRD (JJ independent))(SBAR-ADV (IN while)(S (NP-SBJ-3 (-NONE- *-2))(VP (VBG working)(ADVP-MNR (RB together))(S-CLR (NP-SBJ (-NONE- *-3))(VP (TO to)(VP (VB market)(CC and)(VB sell)(NP (PRP$ their)(NNS products))))))))(PP-LOC (-NONE- *T*-4)))))))))) |ET| 
-1  |BT| (VP (VBD said)(SBAR (-NONE- 0)(S (NP-SBJ-1 (PRP it))(VP (VBD acquired)(NP (DT the)(NN stock))(`` ``)(S-PRP (NP-SBJ (-NONE- *-1))(VP (TO to)(VP (VB develop)(CC and)(VB maintain)(NP (NP (DT a)(JJ strategic)(NN partnership))(SBAR (WHPP-4 (IN in)(WHNP (WDT which)))(S (NP-SBJ-2 (DT each)(NN company))(VP (VBZ remains)(ADJP-PRD (JJ independent))(SBAR-ADV (IN while)(S (NP-SBJ-3 (-NONE- *-2))(VP (VBG working)(ADVP-MNR (RB together))(S-CLR (NP-SBJ (-NONE- *-3))(VP (TO to)(VP (VB market)(CC and)(VB sell)(NP (PRP$ their)(NNS products))))))))(PP-LOC (-NONE- *T*-4))))))))))))) |ET| 
0.63061286145068551345360674531548  |BT| (VP (VBN sought)(NP (NNP U.S.)(NN approval)(S (NP-SBJ (-NONE- *))(VP (TO to)(VP (VB buy)(NP (NP (QP (IN up)(TO to)(CD 25))(NN %))(PP (IN of)(NP (NP (NNP Nashua)(POS 's))(NNS shares))))))))) |ET| 
-1  |BT| (S (SBAR-ADV (IN While)(S (NP-SBJ (NNS competitors))(VP (VBD moved)(NP (NN production))(ADVP-CLR (RB offshore))(PP (IN in)(NP (NP (NN response))(PP (TO to)(NP (NP (DT the)(VBG sagging)(NN competitiveness))(PP (IN of)(NP (JJ Japanese)(NNS factories))))))))))(, ,)(NP-SBJ (NNP Sansui))(VP (VBD lacked)(NP (NP (DT the)(NN money))(SBAR (WHADVP-1 (-NONE- 0))(S (NP-SBJ (-NONE- *))(VP (TO to)(VP (VB build)(NP (JJ new)(NNS plants))(ADVP-MNR (-NONE- *T*-1))(PP-LOC (IN in)(NP (NNP Southeast)(NNP Asia)))))))))(. .)) |ET| 
0.7834416262974371880645207966154  |BT| (VP (VBN expected)(S (NP-SBJ-2 (-NONE- *-1))(VP (TO to)(VP (VB do)(ADVP-MNR (ADVP (RB little)(RB better))(SBAR (IN than)(S (NP-SBJ (-NONE- *-2))(VP (VB break)(ADVP-CLR (JJ even))(PP-TMP (IN in)(NP (DT the)(JJ fourth)(NN quarter))))))))))) |ET| 
-0.88518428725442355187169596320018  |BT| (SINV (`` ``)(S-TPC-1 (NP-SBJ (PRP We))(VP (VBP 're)(VP (VBG taking)(PRT (RP on))(NP (NP (JJR more)(NN debt))(SBAR (IN than)(S (NP-SBJ-2 (PRP we))(VP (MD would)(VP (VB have)(VP (VBN liked)(S (NP-SBJ (-NONE- *-2))(VP (TO to)(VP (-NONE- *?*)))))))))))))(, ,)('' '')(VP (VBD acknowledged)(S (-NONE- *T*-1)))(NP-SBJ (NP (NNP Michael)(NNP Plouf))(, ,)(NP (NP (NNP LIN)(POS 's))(NN vice)(NN president)(CC and)(NN treasurer)))(. .)) |ET| 
1  |BT| (VP (VBD lacked)(NP (NP (DT the)(NN money))(SBAR (WHADVP-1 (-NONE- 0))(S (NP-SBJ (-NONE- *))(VP (TO to)(VP (VB build)(NP (JJ new)(NNS plants))(ADVP-MNR (-NONE- *T*-1))(PP-LOC (IN in)(NP (NNP Southeast)(NNP Asia))))))))) |ET| 
-0.81516533047653261245812927882071  |BT| (SINV (S-TPC-5 (`` ``)(S (NP-SBJ (NP (DT The)(NNS people))(SBAR (WHNP-1 (WP who))(S (NP-SBJ (-NONE- *T*-1))(VP (VBP suffer)(PP-TMP (IN in)(NP (DT the)(JJ short)(NN run)))))))(VP (VBP are)(NP-PRD (NNS defendants))))(, ,)(CC but)(S (NP-SBJ (NP (DT the)(NNS people))(SBAR (WHNP-2 (WP who))(S (NP-SBJ (-NONE- *T*-2))(VP (VBP suffer)(PP-TMP (IN in)(NP (DT the)(JJ long)(NN run)))))))(VP (VBP are)(NP-PRD (NP (DT all))(PP (IN of)(NP (DT the)(NNS people))))))(, ,)(SBAR-PRP (IN because)(S (NP-SBJ (EX there))(VP (MD wo)(RB n't)(VP (VB be)(NP-PRD (NP (DT a)(JJ vigorous)(JJ private)(NN bar))(SBAR (WHNP-4 (-NONE- 0))(S (NP-SBJ (-NONE- *T*-4))(VP (TO to)(VP (VB defend)(NP (NP (DT the)(NNP Bill))(PP (IN of)(NP (NNPS Rights)))))))))))))(, ,)('' ''))(VP (VBZ says)(S (-NONE- *T*-5)))(NP-SBJ (NP (NNP Gerald)(NNP Lefcourt))(, ,)(NP (NP (DT a)(NN criminal)(NN defense)(NN attorney))(SBAR (WHNP-3 (WP who))(S (NP-SBJ (-NONE- *T*-3))(VP (VBZ says)(SBAR (-NONE- 0)(S (NP-SBJ-6 (PRP he))(VP (VBZ has)(VP (VBN turned)(PRT (RP down))(NP (NP (DT a)(NN number))(PP (IN of)(NP (NNS cases))))(S-PRP (NP-SBJ (-NONE- *-6))(VP (TO to)(VP (VB avoid)(NP (JJ possible)(NN fee)(NNS seizures))))))))))))))(. .)) |ET| 
1  |BT| (VP (VBZ plans)(S (NP-SBJ (-NONE- *-1))(VP (TO to)(VP (VB purchase)(NP (NP (QP (RB as)(JJ many)(IN as)(CD 1.4)(CD million))(NNS shares))(, ,)(CC or)(NP (NP (CD 10)(NN %))(PP (IN of)(NP (NP (PRP$ its)(JJ common)(NN stock))(ADJP (JJ outstanding))))))(PP-TMP (IN from)(NP (NP (NN time))(PP (TO to)(NP (NN time)))))(PP-MNR (PP (IN on)(NP (DT the)(JJ open)(NN market)))(CC and)(PP (IN through)(NP (RB privately)(VBN negotiated)(NNS transactions)))))))) |ET| 
-0.67247345743275099838598407586687  |BT| (VP (VB become)(NP-PRD (NP (JJ major)(NNS shareholders))(PP-LOC (IN in)(NP (DT the)(JJ new)(NN company))))(, ,)(S-ADV (NP-SBJ (DT each))(VP (VBG injecting)(NP (NP (QP (CD 100)(CD million))(JJ Finnish)(NN markkaa))(PRN (-LRB- -LRB-)(NP (QP ($ $)(CD 23.5)(CD million))(-NONE- *U*))(-RRB- -RRB-)))))) |ET| 
0.74740320343192689911404613667401  |BT| (NP (DT an)(NN option)(S (NP-SBJ (-NONE- *))(VP (TO to)(VP (VB buy)(NP (NP (DT a)(ADJP (CD 30.84)(NN %))(NN stake))(PP-LOC (IN in)(NP (NNP BIP))))(PP-CLR (IN from)(NP (NNP Societe)(NNP Generale)))(PP-TMP (IN after)(NP (NNP Jan.)(CD 1)(, ,)(CD 1990)))(PP (IN at)(NP (NP (CD 1,015)(NNS francs))(NP-ADV (DT a)(NN share)))))))) |ET| 
1  |BT| (VP (VBN agreed)(S (NP-SBJ (-NONE- *-1))(VP (TO to)(VP (VB sell)(NP (DT the)(NN extrusion)(NN division))(PP-CLR (IN for)(NP (QP ($ $)(CD 15)(CD million))(-NONE- *U*)))(PP-DTV (TO to)(NP (NP (NNP R.D.)(NNP Werner)(NNP Co.))(, ,)(NP (NP (DT a)(ADJP (RB closely)(VBN held))(NN firm))(VP (VBN based)(NP (-NONE- *))(PP-LOC-CLR (IN in)(NP (NP (NNP Greenville))(, ,)(NP (NNP Pa)))))))))))) |ET| 
-0.67616137372420093143432495708112  |BT| (S (S-TPC-2 (NP-SBJ (DT The)(NN fund))(, ,)(PP (IN with)(NP (NP (DT a)(NN cash)(NN cushion))(PP (IN of)(NP (QP (JJR more)(IN than)(CD 10))(NN %)))))(, ,)(VP (VBZ has)(VP (`` ``)(VBN met)(NP (PDT all)(DT the)(NNS redemptions))(PP-MNR (IN without)(S-NOM (NP-SBJ-1 (-NONE- *))(VP (VBG having)(S (NP-SBJ (-NONE- *-1))(VP (TO to)(VP (VB sell)(NP (CD one)(NN thing))))))))))(, ,)('' ''))(NP-SBJ (NNP Mr.)(NNP Litvack))(VP (VBZ says)(S (-NONE- *T*-2)))(. .)) |ET| 
0.8327905402699813386391269887099  |BT| (VP (VBN rumored)(NP (-NONE- *-2))(SBAR-1 (IN that)(S (NP-SBJ (NNP Ocean)(NNP Drilling))(VP (MD would)(VP (VB sell)(NP (DT the)(NN unit))(S-PRP (NP-SBJ (-NONE- *))(VP (TO to)(VP (VB concentrate)(PP-LOC-CLR (IN on)(NP (PRP$ its)(NN core)(NN oil)(CC and)(NN gas)(NN business))))))))))) |ET| 
-0.63099314876141399111020291456953  |BT| (S (S-ADV (NP-SBJ (-NONE- *-1))(VP (VBG Reflecting)(NP (DT the)(NN concern))))(, ,)(NP-SBJ-1 (NNP Unisys)(NN stock))(VP (VBD fell)(NP-EXT (DT a)(JJ further)(CD 75)(NNS cents))(PP-DIR (TO to)(NP ($ $)(CD 16.25)(-NONE- *U*)))(PP-LOC (IN in)(NP (JJ composite)(NN trading)))(NP-TMP (NNP Friday))(PP-LOC (IN on)(NP (DT the)(NNP New)(NNP York)(NNP Stock)(NNP Exchange))))(. .)) |ET| 
1  |BT| (VP (VB plan)(S (NP-SBJ (-NONE- *-1))(VP (TO to)(VP (VB obtain)(NP (NP (NN control))(PP (IN of)(NP (NP (NNP Octel))(, ,)(NP (NP (DT a)(NAC-LOC (NNP Milpitas)(, ,)(NNP Calif.)(, ,))(NN maker))(PP (IN of)(NP (JJ voice-processing)(NNS systems))))))))))) |ET| 
-0.75860247025711202706332869638572  |BT| (VP (VBD affirmed)(SBAR (-NONE- 0)(S (NP-SBJ-1 (PRP it))(VP (VBZ does)(RB n't)(VP (VB plan)(S (NP-SBJ (-NONE- *-1))(VP (TO to)(VP (VB obtain)(NP (NP (NN control))(PP (IN of)(NP (NP (NNP Octel))(, ,)(NP (NP (DT a)(NAC-LOC (NNP Milpitas)(, ,)(NNP Calif.)(, ,))(NN maker))(PP (IN of)(NP (JJ voice-processing)(NNS systems))))))))))))))) |ET| 
0.67596698442013292140728708545794  |BT| (VP (VB help)(S (NP-SBJ (-NONE- *-2))(VP (VB fend)(PRT (RP off))(NP (NP (DT a)(NN takeover)(NN bid))(PP-DIR (IN from)(NP (JJ Anglo-French)(NN financier)(NNP Sir)(NNP James)(NNP Goldsmith))))))) |ET| 
-0.8987029610765832066121561183536  |BT| (VP (VBD filed)(NP (NP (DT a)(NN Chapter)(CD 11)(NN reorganization)(NN plan))(SBAR (WHNP-1 (WDT that))(S (NP-SBJ (-NONE- *T*-1))(VP (VBZ provides)(NP (NP (RB just)(CD 1.125)(NNS cents))(NP-ADV (DT a)(NN share)))(PP-BNF (IN for)(NP (JJ common)(NNS stockholders)))))))) |ET| 
-0.55757835978064851367719256813871  |BT| (S (PP-LOC (IN Among)(NP (DT the)(JJ other)(RB actively)(VBN traded)(JJ blue-chip)(NNS issues)))(, ,)(S (NP-SBJ (NNP Imperial)(NNP Chemical)(NNPS Industries))(VP (VBD dropped)(NP-EXT (CD 11))(PP-DIR (TO to)(NP (# #)(CD 10.86)(-NONE- *U*)))))(, ,)(S (NP-SBJ (NNP Hanson))(VP (VBD skidded)(NP-EXT (CD 9.5))(PP (TO to)(NP (CD 200.5)))))(, ,)(CC and)(S (NP-SBJ (NNP British)(NNP Telecom))(VP (VBD fell)(NP-EXT (CD 10))(PP-DIR (TO to)(NP (CD 250)))))(. .)) |ET| 
-0.82092049240571185464432346634567  |BT| (VP (VBD said)(SBAR (-NONE- 0)(S (NP-SBJ-1 (PRP it))(VP (VBZ has)(VP (VBN agreed)(S (NP-SBJ (-NONE- *-1))(VP (TO to)(VP (VB sell)(NP (DT the)(NN extrusion)(NN division))(PP-CLR (IN for)(NP (QP ($ $)(CD 15)(CD million))(-NONE- *U*)))(PP-DTV (TO to)(NP (NP (NNP R.D.)(NNP Werner)(NNP Co.))(, ,)(NP (NP (DT a)(ADJP (RB closely)(VBN held))(NN firm))(VP (VBN based)(NP (-NONE- *))(PP-LOC-CLR (IN in)(NP (NP (NNP Greenville))(, ,)(NP (NNP Pa)))))))))))))))) |ET| 
-0.70673408048222075006350451076287  |BT| (S (CC But)(SBAR-PRP (IN because)(S (NP-SBJ (DT these)(NNS claims))(VP (VP (VBP are)(ADJP-PRD (RBR more)(JJ difficult)(S (NP-SBJ (-NONE- *))(VP (TO to)(VP (VB evaluate))))))(CC and)(VP (VBP have)(VP (VBN been)(VP (VBG coming)(ADVP-CLR (RB in))(ADVP-MNR (RBR more)(RB slowly))))))))(, ,)(NP-SBJ (DT the)(NN company))(VP (VBZ has)(NP (NP (DT no)(NN estimate))(PP (IN of)(NP (NP (DT the)(NN impact))(PP (IN of)(NP (DT the)(NN earthquake)))(PP (IN on)(NP (NN fourth-quarter)(NNS results)))))))(. .)) |ET| 
